tree
version=v4
num_class=1
num_tree_per_iteration=1
label_index=0
max_feature_idx=4
objective=binary sigmoid:1
feature_names=Column_0 Column_1 Column_2 Column_3 Column_4
feature_infos=[0.67633663261485077:3.4580558934166801] [1:99] [0.75992232686778782:3.3373073147105741] [0.9150866969376964:3.2618861939624688] [46.521198595082176:52.821787810645809]
tree_sizes=1969 1992 2105 2101 1999 2208 2103 2212 2003 2310 2108 2007 2314 2107 1995 2111 2316 2005 2007 2211 2109 1908 2314 2000 2110 2007 2111 2111 2223 2113 2104 2113 2118 2328 2208 2315 2217 2326 2217 2116 2109 2210 2119 2108 2116 2106 2115 2232 2118 2126 2220 2109 2222 2229 2321 2227 2125 2222 2107 2226 2126 2540 2438 2440 2128 2334 2333 2220 2230 2226 2130 2123 2123 2016 2444 2335 2132 2122 2338 2342 2343 2142 2238 2235 2334 2119 2448 2133 2230 2025 2448 2235 2347 2243 2352 2227 2245 2335 2337 2131

Tree=0
num_leaves=18
num_cat=0
split_feature=3 3 0 2 0 2 4 4 4 1 1 2 3 0 3 2 4
split_gain=45.902 16.1822 20.1339 9.54932 7.60787 6.30681 5.47153 16.5293 4.85882 4.49958 4.36748 4.25468 2.99364 2.82834 1.68092 4.82587 0.400319
threshold=1.7635895426944481 2.3972949468684708 2.3598152781284667 1.8257878506628062 1.1484389757434472 2.1975906158555083 50.200775420104151 49.545084605343213 49.413341974781893 51.500000000000007 21.500000000000004 2.0862448218666576 2.0063285568475737 1.9529774531351278 2.7677125498222419 2.555261588317991 50.720392655764996
decision_type=2 2 2 2 2 2 2 2 2 2 2 2 2 2 2 2 2
left_child=4 2 3 -2 -1 11 7 -6 9 -3 -10 12 13 -5 15 -12 -8
right_child=1 8 -4 5 6 -7 16 -9 10 -11 14 -13 -14 -15 -16 -17 -18
leaf_value=0.15372151433034589 -0.00068721363403664165 0.0074511381247698433 0.13889488750249024 0.053641783242320183 0.12789448695279085 0.023888349675609828 0.13370556811274079 0.024586377442570778 0.039344678801173656 0.061756356033241186 -0.025731796586113985 0.11368962189513561 0.029813275840409291 0.10368164878633304 -0.025731796586114027 0.031043134286959533 0.1136896218951356
leaf_weight=6.994423270225524 8.7430290877819044 6.4948216080665579 6.744622439146041 6.4948216080665677 7.7438257634639758 9.2426307499408704 4.9960166215896589 7.743825763463974 6.9944232702255276 9.2426307499408704 7.2442241013050097 4.9960166215896598 5.2458174526691428 4.9960166215896606 7.244224101305007 7.743825763463974 4.9960166215896606
leaf_count=28 35 26 27 26 31 37 20 31 28 37 29 20 21 20 29 31 20
internal_value=0.0564666 0.038329 0.0590224 0.0454592 0.107531 0.0584844 0.0948511 0.0762404 0.0169459 0.0393447 0.00488499 0.0731976 0.0611104 0.0753982 -0.00595626 0.00360192 0.123698
internal_weight=123.901 91.4271 46.463 39.7183 32.4741 30.9753 25.4797 15.4877 44.9641 15.7375 29.2267 21.7327 16.7367 11.4908 22.2323 14.988 9.99203
internal_count=496 366 186 159 130 124 102 62 180 63 117 87 67 46 89 60 40
is_linear=0
shrinkage=1


Tree=1
num_leaves=18
num_cat=0
split_feature=3 3 0 2 2 3 4 4 3 4 1 1 0 2 2 3 1
split_gain=41.514 14.5925 18.2401 8.60971 7.20301 5.7443 5.5131 14.2629 4.42051 4.38005 4.05667 3.93781 3.16915 1.90013 1.51573 4.35181 0.448857
threshold=1.7635895426944481 2.3972949468684708 2.3598152781284667 1.8257878506628062 1.1173332671712044 2.0839482512974885 50.200775420104151 49.481077540955106 2.2639429063951062 49.413341974781893 51.500000000000007 21.500000000000004 1.9228144157823928 1.9997867495287676 2.555261588317991 2.7677125498222419 44.500000000000007
decision_type=2 2 2 2 2 2 2 2 2 2 2 2 2 2 2 2 2
left_child=4 2 3 -2 -1 12 7 -6 -7 10 -3 -11 -5 -14 -13 -16 -8
right_child=1 9 -4 5 6 8 16 -9 -10 11 -12 14 13 -15 15 -17 -18
leaf_value=0.093694087108293078 -0.054251360037659235 -0.046527045187674455 0.078629594625745924 -0.0063994701965407576 0.071641119804102926 -0.046047179946130654 0.053983930539050179 -0.025847170288225196 0.010094617840330819 -0.016258984459101022 0.0050260592531177692 -0.078036743059299696 0.01627465788530507 0.058907164376498525 -0.024138492640202149 -0.07803674305929971 0.07495798138763235
leaf_weight=6.9651780277490607 8.7499989569187147 6.4999097287654868 6.7175495624542227 6.2462514787912431 6.7220209240913418 7.9932869821786863 4.9804912060499174 8.4910188317298871 6.246026799082756 6.9972917437553432 9.2411862313747388 7.2487999647855785 4.9918684065341932 5.4858718365430832 7.7481333166360837 7.2487999647855759 5.2289216965436935
leaf_count=28 35 26 27 25 27 32 20 34 25 28 37 29 20 22 31 29 21
internal_value=2.47125e-06 -0.0172314 0.00243173 -0.0104572 0.0486456 0.00191867 0.0363034 0.0172289 -0.0214208 -0.037527 -0.0162616 -0.0489738 0.0217906 0.0385959 -0.0592641 -0.0501903 0.0647261
internal_weight=123.803 91.415 46.4309 39.7133 32.3876 30.9633 25.4225 15.213 14.2393 44.9841 15.7411 29.243 16.724 10.4777 22.2457 14.9969 10.2094
internal_count=496 366 186 159 130 124 102 61 57 180 63 117 67 42 89 60 41
is_linear=0
shrinkage=0.05


Tree=2
num_leaves=19
num_cat=0
split_feature=3 3 0 2 0 2 4 4 0 4 2 4 2 3 1 2 4 0
split_gain=37.614 13.1794 16.5724 7.77679 6.63318 5.41842 4.58306 13.8137 3.97558 5.14649 3.82263 2.8937 2.09631 5.49505 1.99059 1.96985 1.81321 0.399574
threshold=1.7635895426944481 2.3972949468684708 2.3598152781284667 1.8257878506628062 1.1484389757434472 2.1975906158555083 50.200775420104151 49.545084605343213 2.3514463340107565 49.330910230097267 2.0862448218666576 50.790715767136327 2.7411384618904653 2.9489755962915125 41.500000000000007 2.7532022931774631 49.921661068385355 1.5172257884695755
decision_type=2 2 2 2 2 2 2 2 2 2 2 2 2 2 2 2 2 2
left_child=4 2 3 -2 -1 10 7 -6 -3 15 11 16 14 -14 -11 -10 -5 -8
right_child=1 8 -4 5 6 -7 17 -9 9 12 -12 -13 13 -15 -16 -17 -18 -19
leaf_value=0.089865828325014802 -0.051578377216615449 0.0052326068447126409 0.075234644411744794 0.0074664127346858308 0.065084195259963631 -0.030221482599051441 0.051081353184703228 -0.029556971124002775 -0.030690168689907371 -0.046940210707046327 0.053949345102641148 0.033773702909534548 -0.0065286328254165931 -0.072241049667771992 -0.084390218870371306 0.0095792179874900352 -0.032971854408688363 0.071160708010200205
leaf_weight=6.907311111688613 8.7434009462594968 5.2446639388799658 6.6707781404256812 6.2333739697933286 7.6752972751855868 9.2479936033487302 4.9556946307420713 7.7473800033330917 7.7431966960430128 6.7434742599725741 4.9775050729513159 5.4920674711465827 6.4943901002407056 6.2363976985216141 7.4886585474014282 4.9964436739683151 4.992125079035759 4.954845055937767
leaf_count=28 35 21 27 25 31 37 20 31 31 27 20 22 26 25 30 20 20 20
internal_value=5.06556e-06 -0.016389 0.00231629 -0.00994033 0.0464328 0.00182509 0.0345904 0.0175424 -0.0356811 -0.0410858 0.0154856 0.00403341 -0.0534598 -0.038719 -0.0666456 -0.0148967 -0.010517 0.0611202
internal_weight=123.545 91.3045 46.3572 39.6865 32.2405 30.9431 25.3332 15.4227 44.9472 39.7026 21.6951 16.7176 26.9629 12.7308 14.2321 12.7396 11.2255 9.91054
internal_count=496 366 186 159 130 124 102 62 180 159 87 67 108 51 57 51 45 40
is_linear=0
shrinkage=0.05


Tree=3
num_leaves=19
num_cat=0
split_feature=3 3 0 2 2 2 3 3 0 4 0 4 4 1 4 2 4 2
split_gain=34.1375 11.9094 15.0949 7.03545 6.34656 5.14356 4.96225 5.21729 3.59749 4.70754 3.30047 2.45246 8.36249 2.12604 2.55857 2.13081 2.00367 1.43401
threshold=1.7635895426944481 2.3972949468684708 2.3598152781284667 1.8257878506628062 1.1173332671712044 1.2323633072808262 2.1264195533840011 2.2639429063951062 2.3514463340107565 49.413341974781893 1.9228144157823928 49.481077540955106 50.200775420104151 36.500000000000007 50.298109975652658 2.7411384618904653 49.000471262306753 2.0185998485139462
decision_type=2 2 2 2 2 2 2 2 2 2 2 2 2 2 2 2 2 2
left_child=4 2 3 -2 -1 -6 10 -8 -3 16 -5 -7 -13 14 -11 -15 -10 -12
right_child=1 8 -4 6 5 11 7 -9 9 13 17 12 -14 15 -16 -17 -18 -19
leaf_value=0.087142540508379621 -0.049103913851301709 0.0049708865739210729 0.072175570740042438 -0.010076955679193294 -0.011485104060808278 0.071414743069906125 -0.053585335620652985 0.010437027770323567 -0.031081292479613956 -0.0080817944670492671 0.018685936203713695 -0.013463160507127729 0.064907841275667288 -0.081196179341203309 -0.05810618025797612 -0.044612709480765358 0.008135553769151406 0.05392407341937705
leaf_weight=6.834210366010665 8.7252278625965101 5.2447552680969229 6.6074089407920829 6.4949842542409959 5.1997732222080257 5.8961784839630154 6.4913859665393812 6.2421256452798843 7.9947271645069105 4.9943610727787036 6.4829192012548429 5.7395170778036109 8.3641370683908445 7.9572770297527295 5.2356263250112534 7.9638681560754776 5.4961482286453247 5.2052596658468246
leaf_count=28 35 21 27 26 21 24 26 25 32 20 26 23 34 32 21 32 22 21
internal_value=8.02925e-06 -0.015598 0.00220837 -0.00945359 0.0444072 0.0328172 0.00173643 -0.0222008 -0.0339449 -0.0390936 0.0184995 0.0443354 0.0330146 -0.0514691 -0.0336839 -0.0628969 -0.0151044 0.034379
internal_weight=123.17 91.1361 46.2493 39.6419 32.0338 25.1996 30.9167 12.7335 44.8868 39.642 18.1832 19.9998 14.1037 26.1511 10.23 15.9211 13.4909 11.6882
internal_count=496 366 186 159 130 102 124 51 180 159 73 81 57 105 41 64 54 47
is_linear=0
shrinkage=0.05


Tree=4
num_leaves=18
num_cat=0
split_feature=3 3 0 2 0 2 4 4 4 0 2 3 0 4 1 1 1
split_gain=31.0149 10.7727 13.7793 6.37308 6.00163 4.59875 3.97122 11.6594 3.29621 3.87938 3.68939 4.75655 2.642 5.247 2.503 1.64742 1.12693
threshold=1.7635895426944481 2.3972949468684708 2.3598152781284667 1.8257878506628062 1.1484389757434472 2.1777038819056851 49.481077540955106 49.95988797979593 49.223692330272563 2.3786700986789167 2.7411384618904653 2.9489755962915125 2.0509351959016811 50.679243445908902 51.500000000000007 55.500000000000007 41.500000000000007
decision_type=2 2 2 2 2 2 2 2 2 2 2 2 2 2 2 2 2
left_child=4 2 3 -2 -1 12 -6 -8 14 -10 16 -12 13 -5 -3 -9 -11
right_child=1 8 -4 5 6 -7 7 15 9 10 11 -13 -14 -15 -16 -17 -18
leaf_value=0.084378900468803739 -0.046802561031589397 -0.035755271978515524 0.069398538004838195 -0.025455008710550592 0.063828726315698261 -0.02678180732155613 -0.036410098772452645 0.028960603987396229 -0.0016394841976481217 -0.049793053197267005 -0.00058244462137143032 -0.060689966501777173 0.037011542609803341 0.039365731586266106 0.0084412950167746387 0.066002044139386623 -0.079289720124400775
leaf_weight=6.7447108924388912 8.6972367763519269 5.7422248721122724 6.5301589071750632 7.7326834797859245 6.8087652623653439 9.7360385954380018 6.2322932481765774 5.8792524784803373 5.232130333781245 5.4806950390338915 6.7357836067676526 6.4364198595285416 8.1733276098966581 5.2357737272977829 7.2457974851131439 6.1329697072505951 7.9136126786470413
leaf_count=28 35 23 27 31 28 39 25 24 21 22 27 26 33 21 29 25 32
internal_value=1.10837e-05 -0.0148581 0.00210744 -0.00899606 0.0425135 0.00165275 0.0312427 0.0190817 -0.0323232 -0.0409922 -0.0487425 -0.0299532 0.0147472 0.000715161 -0.0110988 0.0478725 -0.0672202
internal_weight=122.69 90.8919 46.1052 39.5751 31.798 30.8778 25.0533 18.2445 44.7867 31.7986 26.5665 13.1722 21.1418 12.9685 12.988 12.0122 13.3943
internal_count=496 366 186 159 130 124 102 74 180 128 107 53 85 52 52 49 54
is_linear=0
shrinkage=0.05


Tree=5
num_leaves=20
num_cat=0
split_feature=3 3 0 4 2 2 3 2 3 0 0 4 4 4 2 1 4 2 2
split_gain=28.2091 9.75506 12.6021 6.04606 5.7015 5.65652 6.43816 4.70198 3.56062 3.02719 3.02535 4.0235 2.2039 5.99875 1.88189 1.86359 2.30934 1.77653 0.916984
threshold=1.7635895426944481 2.3972949468684708 2.3598152781284667 49.000471262306753 1.1173332671712044 1.8257878506628062 2.1264195533840011 1.2323633072808262 2.2571322377326646 1.9228144157823928 2.3514463340107565 49.413341974781893 50.356198686939265 49.481077540955106 2.7532022931774631 36.500000000000007 50.298109975652658 2.7411384618904653 1.9997867495287676
decision_type=2 2 2 2 2 2 2 2 2 2 2 2 2 2 2 2 2 2 2
left_child=4 2 3 -2 -1 -5 9 -6 -8 -7 -3 14 13 -9 -12 16 -13 -17 -11
right_child=1 10 -4 5 7 6 8 12 -10 18 11 15 -14 -15 -16 17 -18 -19 -20
leaf_value=0.081949319069575421 0.039026289141129544 0.0048716225218271439 0.066860265604248195 -0.056000252331302861 -0.012640886162577275 -0.015304968247678678 -0.067111344527920461 0.066178782958792634 -0.0087357092859122378 0.014432748573438337 -0.027723399442287855 -0.0060978311625793299 0.06340570248489838 -0.0028249359117019702 0.010967021754238483 -0.074745293784749839 -0.053715348579872459 -0.041147489943266786 0.044157726802559555
leaf_weight=6.631059646606448 5.7094255834817877 5.2439664900302878 6.4414086341857901 7.1762365102767935 5.1753383576869991 5.7432948648929658 4.9830105155706388 5.7664135694503802 5.4902521818876266 4.9785693287849409 8.4859476685523969 4.9862823635339755 7.0137261301279059 6.9404832571744919 4.9915671348571768 7.8282761722803098 5.2031797766685486 7.9102305620908737 5.4181406795978546
leaf_count=28 23 21 27 29 21 23 20 24 22 20 34 20 29 28 20 32 21 32 22
internal_value=1.37434e-05 -0.0141631 0.00201238 -0.00856289 0.0407494 -0.016604 -0.00598091 0.0297758 -0.0365099 0.0138294 -0.0308062 -0.0355541 0.0409073 0.0284891 -0.0133939 -0.0470731 -0.0304134 -0.0578589 0.0299236
internal_weight=122.117 90.5898 45.9403 39.4989 31.527 33.7895 26.6133 24.896 10.4733 16.14 44.6495 39.4055 19.7206 12.7069 13.4775 25.928 10.1895 15.7385 10.3967
internal_count=496 366 186 159 130 136 107 102 42 65 180 159 81 52 54 105 41 64 42
is_linear=0
shrinkage=0.05


Tree=6
num_leaves=19
num_cat=0
split_feature=3 3 0 4 2 0 3 3 4 4 4 0 4 4 1 4 2 0
split_gain=25.6817 9.00278 11.4541 6.63218 6.27779 5.38829 4.60565 4.48061 4.46262 10.0504 2.98569 2.74975 3.68536 1.88095 1.72215 2.10421 1.66225 1.19327
threshold=1.7519586556915303 2.3972949468684708 2.3598152781284667 48.844121302534724 1.8257878506628062 1.1484389757434472 2.1264195533840011 2.2571322377326646 50.200775420104151 49.545084605343213 50.790715767136327 2.3514463340107565 49.413341974781893 49.000471262306753 36.500000000000007 50.298109975652658 2.7411384618904653 1.9841198138020373
decision_type=2 2 2 2 2 2 2 2 2 2 2 2 2 2 2 2 2 2
left_child=5 2 3 -2 -5 -1 10 -8 9 -7 17 -3 13 -13 15 -14 -16 -6
right_child=1 11 -4 4 6 8 7 -9 -10 -11 -12 12 14 -15 16 -17 -18 -19
leaf_value=0.079991477875876835 0.046412729897366334 0.0046280441806727784 0.064525553588339599 -0.054002528057802549 -0.02069832027334325 0.054615817781411218 -0.063965133940985242 0.0002687985146553723 0.056280937321203595 -0.027657718093448493 0.04135966723030992 -0.028225731045323523 -0.0057944114294510279 0.009794886075216714 -0.071892474839275522 -0.051310465763724888 -0.039260067179632999 0.0135501318418574
leaf_weight=6.525361597537997 4.9492490738630286 5.2439618855714789 6.3432438075542441 8.1068479716777784 4.9976851642131859 7.1427505463361758 4.9670709669589979 5.9874283075332642 9.1222485899925214 7.7280928790569305 5.9321158379316321 7.9812795221805555 4.9850483536720294 5.490917980670929 7.7343253940343839 5.1753920614719391 7.8768349885940552 5.1787247955799103
leaf_count=28 20 21 27 33 20 30 20 24 38 31 24 32 20 22 32 21 32 21
internal_value=1.63726e-05 -0.0133013 0.00209176 -0.00777966 -0.0154058 0.0397054 -0.00384402 -0.0288566 0.0287489 0.0118598 0.0131656 -0.0293777 -0.0339217 -0.0127295 -0.045 -0.0289788 -0.0554273 -0.00326945
internal_weight=121.469 90.9501 46.4624 40.1191 35.1699 30.5185 27.063 10.9545 23.9931 14.8708 16.1085 44.4878 39.2438 13.4722 25.7716 10.1604 15.6112 10.1764
internal_count=496 369 189 162 142 127 109 44 99 61 65 180 159 54 105 41 64 41
is_linear=0
shrinkage=0.05


Tree=7
num_leaves=20
num_cat=0
split_feature=3 3 0 2 4 2 3 2 1 4 4 0 2 3 1 4 4 0 1
split_gain=23.4578 7.99863 10.6016 5.19812 4.99292 4.67483 5.31917 4.26848 2.90727 2.70838 2.56667 3.0682 3.17926 4.33091 2.26417 1.92686 5.17236 1.0774 0.928958
threshold=1.7635895426944481 2.3972949468684708 2.3598152781284667 1.1173332671712044 49.000471262306753 1.8257878506628062 2.1264195533840011 1.2323633072808262 56.500000000000007 50.790715767136327 49.223692330272563 2.3786700986789167 2.7411384618904653 2.9489755962915125 51.500000000000007 50.356198686939265 49.481077540955106 1.9841198138020373 41.500000000000007
decision_type=2 2 2 2 2 2 2 2 2 2 2 2 2 2 2 2 2 2 2
left_child=3 2 4 -1 -2 -6 9 -5 -8 17 14 -12 18 -14 -3 16 -9 -7 -13
right_child=1 10 -4 7 5 6 8 15 -10 -11 11 12 13 -15 -16 -17 -18 -19 -20
leaf_value=0.077816000686132411 0.035485299839756047 -0.032832605201257296 0.062365485427855832 -0.013339286340851778 -0.051252388111097648 -0.019662671065891885 -0.058491837282896912 0.061896303868053427 -0.0056412481599045416 0.039459662604228306 -0.00076368633648592991 -0.044327031217048111 0.0027024490240722351 -0.05497507935826601 0.0092469845189203127 0.059211999525195506 -0.0027127878136670659 0.012891826954219974 -0.07137207880744352
leaf_weight=6.3761184066534069 5.6948667466640464 5.722130134701727 6.2374889999628058 5.1458878666162517 7.0759205669164649 4.997862517833715 5.4618281275033933 5.6115483492612857 4.9698260724544525 5.9074870198965064 5.2156050950288799 5.4185339659452456 6.7073495239019376 6.3226683586835861 7.2432303428649902 6.8500755578279486 6.9149300754070282 5.1712067127227783 7.6689017415046692
leaf_count=28 23 23 27 21 29 20 22 24 20 24 21 22 27 26 29 29 28 21 32
internal_value=1.86764e-05 -0.0129093 0.00181087 0.0375973 -0.00780518 -0.015146 -0.00550795 0.02714 -0.0333129 0.0125339 -0.0280343 -0.0357762 -0.0427682 -0.0252849 -0.00932441 0.0378902 0.0262305 -0.00310796 -0.0601747
internal_weight=120.713 89.8149 45.5165 30.8986 39.279 33.5841 26.5082 24.5224 10.4317 16.0766 44.2984 31.3331 26.1175 13.03 12.9654 19.3766 12.5265 10.1691 13.0874
internal_count=496 366 186 130 159 136 107 102 42 65 180 128 107 53 52 81 52 41 54
is_linear=0
shrinkage=0.05


Tree=8
num_leaves=18
num_cat=0
split_feature=3 3 0 4 2 0 4 4 3 4 3 4 0 2 3 1 1
split_gain=21.4189 7.38694 9.66769 5.52734 5.36601 5.0074 4.00606 8.68 3.82364 3.452 3.05062 2.35011 2.81035 2.9384 3.96195 2.04849 0.883452
threshold=1.7519586556915303 2.3972949468684708 2.3598152781284667 48.844121302534724 1.8257878506628062 1.1484389757434472 50.200775420104151 49.545084605343213 2.0839482512974885 50.089604931157233 2.2639429063951062 49.223692330272563 2.3786700986789167 2.7411384618904653 2.9489755962915125 51.500000000000007 41.500000000000007
decision_type=2 2 2 2 2 2 2 2 2 2 2 2 2 2 2 2 2
left_child=5 2 3 -2 -5 -1 7 -7 9 -6 -10 15 -13 16 -15 -3 -14
right_child=1 11 -4 4 8 6 -8 -9 10 -11 -12 12 13 14 -16 -17 -18
leaf_value=0.076449771698861219 0.042486172868901072 -0.031267337984350649 0.060356087660977255 -0.050085202679413521 -0.013385148584763027 0.050616112195067467 0.052595955383242292 -0.026417584594532629 -0.045069009440325117 0.035645733698625802 0.0051490035604544503 -0.00072552480454283889 -0.042338822418096306 0.0025668762078943841 -0.052730195387020118 0.0087857476260062156 -0.06883463428707555
leaf_weight=6.2675126641988781 4.9234820157289496 5.7085000872611982 6.1257402598857871 7.9907237589359275 6.4386086165905025 6.9527040421962756 8.9179583936929685 7.7139062732458115 7.1539573818445188 8.1133497655391675 5.238772064447403 5.2154478728771236 5.3900595903396624 6.7084913402795774 6.2637493312358856 7.2423363775014877 7.5568525493144989
leaf_count=28 20 23 27 33 26 30 38 31 29 33 21 21 22 27 26 29 32
internal_value=2.08917e-05 -0.0121442 0.00187597 -0.00711158 -0.0141014 0.0367256 0.026169 0.0101002 -0.00343009 0.0139517 -0.0238404 -0.0267684 -0.0342139 -0.0409524 -0.0241338 -0.00886895 -0.0578039
internal_weight=119.922 90.0701 45.9846 39.8589 34.9354 29.8521 23.5846 14.6666 26.9447 14.552 12.3927 44.0854 31.1346 25.9192 12.9722 12.9508 12.9469
internal_count=496 369 189 162 142 127 99 61 109 59 50 180 128 107 53 52 54
is_linear=0
shrinkage=0.05


Tree=9
num_leaves=21
num_cat=0
split_feature=3 3 0 0 4 2 3 0 3 0 4 0 4 4 1 4 4 1 0 2
split_gain=19.5704 6.57689 8.96395 4.8363 4.12608 3.88157 4.49379 3.40839 2.66718 2.64945 2.52404 2.16601 3.02606 1.79241 1.49562 1.9102 1.56386 2.18514 0.805825 0.799147
threshold=1.7635895426944481 2.3972949468684708 2.3598152781284667 1.1484389757434472 49.000471262306753 1.8257878506628062 2.1264195533840011 1.5172257884695755 2.2571322377326646 1.9228144157823928 49.95988797979593 2.3514463340107565 49.413341974781893 49.000471262306753 36.500000000000007 50.298109975652658 50.050452599120327 70.500000000000014 1.6699275553011097 1.9997867495287676
decision_type=2 2 2 2 2 2 2 2 2 2 2 2 2 2 2 2 2 2 2 2
left_child=3 2 4 -1 -2 -6 9 10 -8 -7 -5 -3 13 -13 15 -14 -16 -18 -9 -11
right_child=1 11 -4 7 5 6 8 18 -10 19 -12 12 14 -15 16 -17 17 -19 -20 -21
leaf_value=0.07452641363454543 0.032321167216758949 0.0045854615839591838 0.058477321037424125 -0.012225344697955519 -0.047078054433682098 -0.015740913205117415 -0.057536000368368583 0.061611841993252259 -0.0067572372257338241 0.012227667664220633 0.030969707160141177 -0.025651974510468842 -0.0028490215508521566 0.01153321804326829 -0.072770675628627865 -0.046457769054582716 -0.062342307824252811 -0.015960682493387779 0.033737789220047686 0.040110666766729669
leaf_weight=6.1117435842752483 5.6664349883794776 5.2415500283241263 6.0093908607959738 7.1629262715578097 6.9483430385589591 5.7232918143272462 4.894340828061102 4.6605352312326414 5.4830275028944016 4.9527585357427579 6.4070383310317993 7.9486021250486356 4.9597525298595446 5.4714334309101105 4.9780846089124671 5.0864043831825256 4.9534834027290326 5.2105252146720886 5.8443447649478912 5.3407876789569855
leaf_count=28 23 21 27 30 29 23 20 20 22 20 27 32 20 22 21 21 21 22 25 22
internal_value=2.28565e-05 -0.0117921 0.00163238 0.0348055 -0.00712467 -0.0138283 -0.00507526 0.0247218 -0.0307063 0.0115312 0.00816913 -0.0255742 -0.0296688 -0.0104913 -0.0398863 -0.0249283 -0.0498104 -0.038565 0.0461042 0.0266947
internal_weight=119.055 88.8682 45.0184 30.1866 39.009 33.3425 26.3942 24.0748 10.3774 16.0168 13.57 43.8498 38.6083 13.42 25.1883 10.0462 15.1421 10.164 10.5049 10.2935
internal_count=496 366 186 130 159 136 107 102 42 65 57 180 159 54 105 41 64 43 45 42
is_linear=0
shrinkage=0.05


Tree=10
num_leaves=19
num_cat=0
split_feature=3 3 0 2 4 2 2 3 4 1 4 4 4 0 2 3 1 1
split_gain=17.8767 6.07151 8.1955 4.65437 4.61622 4.6068 3.98006 3.2186 5.56971 2.79774 2.33781 4.34733 2.02073 2.41882 2.82192 3.61584 1.81988 0.850278
threshold=1.7519586556915303 2.3972949468684708 2.3598152781284667 1.1173332671712044 48.844121302534724 1.8257878506628062 1.2323633072808262 2.0337465846202876 50.089604931157233 68.500000000000014 50.356198686939265 49.481077540955106 49.223692330272563 2.3786700986789167 2.7411384618904653 2.9489755962915125 51.500000000000007 41.500000000000007
decision_type=2 2 2 2 2 2 2 2 2 2 2 2 2 2 2 2 2 2
left_child=3 2 4 -1 -2 -6 -5 8 -7 -9 11 -8 16 -14 17 -16 -3 -15
right_child=1 12 -4 6 5 7 10 9 -10 -11 -12 -13 13 14 15 -17 -18 -19
leaf_value=0.073408099832730889 0.038993512444153784 -0.029021894921411648 0.056712305227195274 -0.015223022711654001 -0.04660134070521036 -0.023868924575403558 0.056663607298830715 -0.03466160383442448 0.045687885830850261 0.010310435122880572 0.060043842498427175 -0.0040264869629520628 -0.00035080591253420286 -0.039262140408982765 0.0042270927384623893 -0.048935262352100002 0.0087842178161547085 -0.065495216999228126
leaf_weight=5.9583240151405361 4.8854003995656958 5.6814435273408872 5.8896542340517035 5.0849340409040478 7.8529647886753073 4.9634681195020693 5.1740930527448672 9.5838881731033307 6.8497956991195679 5.4107401221990576 6.1012563258409491 6.8667023181915283 5.2057059854269054 5.3263342231512087 6.685411408543585 6.1322890818119049 7.2389764487743378 7.3532420843839645
leaf_count=28 20 23 27 21 33 20 23 39 28 22 27 28 21 22 27 26 29 32
internal_value=2.37976e-05 -0.0111055 0.00168656 0.0339848 -0.00650847 -0.0129219 0.0238718 -0.00305603 0.0164629 -0.0184337 0.0348294 0.0220529 -0.024429 -0.0314099 -0.0377511 -0.021207 -0.00784011 -0.0544754
internal_weight=118.245 89.0593 45.4359 29.1853 39.5463 34.6609 23.227 26.8079 11.8133 14.9946 18.1421 12.0408 43.6234 30.703 25.4973 12.8177 12.9204 12.6796
internal_count=496 369 189 127 162 142 99 109 48 61 78 51 180 128 107 53 52 54
is_linear=0
shrinkage=0.05


Tree=11
num_leaves=18
num_cat=0
split_feature=3 3 0 0 4 2 4 4 3 4 1 4 0 2 3 1 1
split_gain=16.3319 5.51744 7.55075 4.48048 4.18583 4.21102 3.43857 7.51313 2.91129 5.05479 2.53053 1.85597 2.22339 2.62161 3.31661 1.64785 0.816723
threshold=1.7519586556915303 2.3972949468684708 2.3598152781284667 1.1484389757434472 48.844121302534724 1.8257878506628062 50.200775420104151 49.545084605343213 2.0337465846202876 50.089604931157233 68.500000000000014 49.223692330272563 2.3786700986789167 2.7411384618904653 2.9489755962915125 51.500000000000007 41.500000000000007
decision_type=2 2 2 2 2 2 2 2 2 2 2 2 2 2 2 2 2
left_child=3 2 4 -1 -2 -6 7 -5 9 -7 -10 15 -13 16 -15 -3 -14
right_child=1 11 -4 6 5 8 -8 -9 10 -11 -12 12 13 14 -16 -17 -18
leaf_value=0.071913767511046875 0.03723087501448899 -0.027662460912761474 0.055046758470936791 0.046539148145348298 -0.044703107397510405 -0.022658533300089892 0.047852126210463412 -0.025836704673148855 -0.032989160131580181 0.043676468424262836 0.0097940637324707615 -0.00033326975125725435 -0.037559967237411736 0.004014389544403028 -0.047053958063478819 0.0083463516708445831 -0.063422257550101641
leaf_weight=5.8195830881595638 4.8614691495895377 5.6630890965461713 5.7675848901271811 6.7128258198499697 7.7790017277002326 4.9670790284872073 8.5854241549968702 7.6972032934427261 9.5667001008987409 6.8080475777387619 5.4111956506967536 5.2056273221969631 5.2902584224939364 6.6876002103090268 6.0604382902383804 7.2378394454717636 7.2173621654510498
leaf_count=28 20 23 27 30 33 20 38 31 39 28 22 21 22 27 26 29 32
internal_value=2.62161e-05 -0.0106164 0.00161517 0.0327217 -0.00620772 -0.0123231 0.0228032 0.00787915 -0.0029079 0.0156945 -0.0175325 -0.0233555 -0.0300873 -0.0362202 -0.0202636 -0.00746035 -0.0524835
internal_weight=117.338 88.5233 45.1611 28.815 39.3935 34.532 22.9955 14.41 26.753 11.7751 14.9779 43.3622 30.4613 25.2557 12.748 12.9009 12.5076
internal_count=496 369 189 127 162 142 99 61 109 48 61 180 128 107 53 52 54
is_linear=0
shrinkage=0.05


Tree=12
num_leaves=21
num_cat=0
split_feature=3 3 0 2 2 4 4 3 3 0 3 0 4 2 4 4 1 4 4 1
split_gain=14.9603 4.91073 7.02062 4.44101 3.54007 3.14876 3.28906 2.9973 7.30977 2.10272 2.06831 1.71663 2.51643 1.76214 1.48735 4.73555 1.31615 1.74375 1.53136 2.09996
threshold=1.7635895426944481 2.3972949468684708 2.3598152781284667 1.1173332671712044 1.2323633072808262 49.000471262306753 49.706666308086433 2.0337465846202876 1.9495924814716463 1.8690566470010952 2.2418306989871937 2.3514463340107565 49.413341974781893 2.7532022931774631 49.481077540955106 50.200775420104151 36.500000000000007 50.298109975652658 50.050452599120327 70.500000000000014
decision_type=2 2 2 2 2 2 2 2 2 2 2 2 2 2 2 2 2 2 2 2
left_child=3 2 5 -1 -5 -2 -7 8 9 -8 -9 -3 13 -13 -6 -16 17 -14 -18 -20
right_child=1 11 -4 4 14 6 7 10 -10 -11 -12 12 16 -15 15 -17 18 -19 19 -21
leaf_value=0.070879113845401437 0.028410471965544928 0.0044895525150132932 0.053468490659847101 -0.015604322034333224 0.054265580934509706 -0.041770579207648928 -0.03866631040026574 -0.044623509491483193 0.05954721554310053 0.0083910535345217818 -0.0013383733023212161 -0.022534976030983617 -0.00040824540171773525 0.015073698526041516 -0.011751709409701893 0.048727642440547336 -0.068312689456777084 -0.042366584401771962 -0.057668590957344473 -0.011396048034380891
leaf_weight=5.6455391645431545 5.6021014451980582 5.2383857667446128 5.6440973281860343 5.0491725057363537 5.2137157171964672 7.2909580171108237 4.6672680079936999 5.6182092875242216 5.0855598002672187 4.8312367647886276 5.4244147837162018 8.3942487537860853 4.926914110779764 4.9520137012004843 5.6776423156261426 7.5283355414867401 4.7816406786441794 4.9781999737024307 4.7548405975103361 5.0624285042285919
leaf_count=28 23 21 27 21 24 30 20 23 21 20 22 34 20 20 23 34 21 21 21 22
internal_value=2.8103e-05 -0.0103279 0.00138874 0.0310638 0.021486 -0.00624223 -0.0121396 -0.00370942 0.01117 -0.0147315 -0.0233608 -0.0223368 -0.0260496 -0.00858061 0.0316532 0.0227258 -0.0355641 -0.021496 -0.0451091 -0.0338074
internal_weight=116.367 87.2525 44.1638 29.1144 23.4689 38.5197 32.9176 25.6267 14.5841 9.4985 11.0426 43.0887 37.8503 13.3463 18.4197 13.206 24.504 9.90511 14.5989 9.81727
internal_count=496 366 186 130 102 159 136 106 61 40 45 180 159 54 81 57 105 41 64 43
is_linear=0
shrinkage=0.05


Tree=13
num_leaves=19
num_cat=0
split_feature=3 3 0 0 4 2 0 2 0 4 4 0 4 4 2 3 1 4
split_gain=13.7009 4.54456 6.43015 4.25055 3.50191 3.73978 3.26061 2.56083 2.22821 5.45329 2.20704 1.5664 2.32171 1.72332 1.27808 3.31072 1.70746 0.995501
threshold=1.7519586556915303 2.3972949468684708 2.3598152781284667 1.1484389757434472 48.844121302534724 1.8257878506628062 1.5172257884695755 2.1975906158555083 2.0509351959016811 50.679243445908902 49.95988797979593 2.3514463340107565 49.413341974781893 49.000471262306753 2.7411384618904653 2.9489755962915125 41.500000000000007 49.810571606653298
decision_type=2 2 2 2 2 2 2 2 2 2 2 2 2 2 2 2 2 2
left_child=3 2 4 -1 -2 -6 10 8 9 -7 -5 -3 13 -13 16 -16 -14 -8
right_child=1 11 -4 6 5 7 17 -9 -10 -11 -12 12 14 -15 15 -17 -18 -19
leaf_value=0.069770566251141738 0.034259963340769369 0.0042651518610147439 0.051967078684807579 -0.014428763885690799 -0.042126252821560378 -0.036683868198517516 0.026329401096903252 -0.026477939815752922 0.029267429218225279 0.032533950266308606 0.02656123809610425 -0.023068981048832409 -0.027120178083936991 0.013509419906039422 0.0019983571446039266 -0.050466051540838747 -0.064546872607555844 0.059049981686855581
leaf_weight=5.5202668607234981 4.8114526122808448 5.238292768597602 5.5199825316667548 6.9968658685684222 7.6412037014961234 6.4382992088794762 4.4428558945655805 7.8248616605997077 7.2584650963544837 5.0992273390293121 6.1884345263242722 7.89958208799362 6.1891869902610797 5.4356901496648788 6.4138138592243177 5.6610972434282303 6.0032294094562531 4.875447690486908
leaf_count=28 20 21 27 30 33 26 20 32 30 21 27 32 26 22 26 25 28 22
internal_value=3.05951e-05 -0.00972053 0.00145243 0.0304541 -0.00568386 -0.0112932 0.0208095 -0.00244295 0.00756294 -0.00609175 0.00480963 -0.0213506 -0.024919 -0.00815899 -0.0341289 -0.0225986 -0.0455481 0.0434492
internal_weight=115.458 87.4344 44.5935 28.0239 39.0735 34.2621 22.5036 26.6209 18.796 11.5375 13.1853 42.8409 37.6026 13.3353 24.2673 12.0749 12.1924 9.3183
internal_count=496 369 189 127 162 142 99 109 77 47 57 180 159 54 105 51 54 42
is_linear=0
shrinkage=0.05


Tree=14
num_leaves=18
num_cat=0
split_feature=3 2 3 0 2 2 2 2 3 4 0 0 4 4 4 1 1
split_gain=12.5089 4.21744 4.0487 5.98219 3.22921 2.72916 2.52503 3.59471 2.00893 3.30723 1.59002 1.99087 1.72576 1.4875 4.30081 1.09691 0.963768
threshold=1.7635895426944481 1.1173332671712044 2.3972949468684708 2.3598152781284667 1.2323633072808262 1.8257878506628062 2.1975906158555083 2.0862448218666576 1.9383939548351321 50.679243445908902 2.9829881785359622 2.3514463340107565 49.223692330272563 49.481077540955106 50.200775420104151 36.500000000000007 70.500000000000014
decision_type=2 2 2 2 2 2 2 2 2 2 2 2 2 2 2 2 2
left_child=1 -1 3 5 -3 -2 7 8 -7 -10 11 -4 -13 -6 -15 -14 -17
right_child=2 4 10 -5 13 6 -8 -9 9 -11 -12 12 15 14 -16 16 -18
leaf_value=0.068840721256037532 -0.031534687468070768 -0.015912225674024907 0.0040520039616907593 0.050533551396131055 0.052321792560438909 0.024628247802905429 -0.02092287271980511 0.048796021670390814 -0.03710758858509848 0.018208899054959506 0.0027410361010507022 -0.01170742005968565 -0.022150288455213506 -0.012253533770727177 0.045817543535586952 -0.060748870650984811 -0.033968472165860998
leaf_weight=5.3407694697380093 8.068544924259184 5.0257216095924404 5.2381557226181021 5.3959196358919135 5.0856645852327373 5.3472876697778799 9.0258298963308317 4.7828000336885443 6.136911138892172 4.8276794999837875 6.3078399449586859 9.6360284835100192 7.7331289499998119 5.6681808233261091 7.2878094762563705 5.9873039275407773 7.654584527015686
leaf_count=28 35 21 21 27 24 22 37 20 25 20 27 39 32 23 34 27 34
internal_value=3.10624e-05 0.0288029 -0.0094574 0.00125379 0.019533 -0.00570919 0.00120882 0.0106784 -0.000498098 -0.0127519 -0.0204273 -0.0244589 -0.0292747 0.0294067 0.0204117 -0.0371942 -0.0457222
internal_weight=114.55 28.4081 86.142 43.585 23.0674 38.1891 30.1205 21.0947 16.3119 10.9646 42.557 36.2492 31.011 18.0417 12.956 21.375 13.6419
internal_count=496 130 366 186 102 159 124 87 67 45 180 153 132 81 57 93 61
is_linear=0
shrinkage=0.05


Tree=15
num_leaves=19
num_cat=0
split_feature=3 0 3 2 0 4 4 2 3 0 3 4 0 0 4 1 4 1
split_gain=11.4752 4.06862 3.74012 5.56665 2.95273 2.48965 3.97665 2.86682 3.50435 4.12064 3.05359 2.00036 1.45091 1.81856 1.59839 1.03075 0.941388 0.913908
threshold=1.7519586556915303 1.1484389757434472 2.3972949468684708 2.3494224316983208 1.5172257884695755 48.844121302534724 49.438409306087159 1.8257878506628062 2.0337465846202876 2.1851877422406143 1.9561281442786373 49.95988797979593 2.9829881785359622 2.3514463340107565 49.223692330272563 36.500000000000007 49.810571606653298 70.500000000000014
decision_type=2 2 2 2 2 2 2 2 2 2 2 2 2 2 2 2 2 2
left_child=1 -1 3 5 11 -2 -7 -8 10 -10 -9 -3 13 -4 -15 -16 -6 -17
right_child=2 4 12 -5 16 6 7 8 9 -11 -12 -13 -14 14 15 17 -18 -19
leaf_value=0.067981077766643278 0.029806298152678264 -0.014689831958910333 0.0038495340388180464 0.055905595149286939 0.02402393162162425 -0.050488979834668983 -0.032121464352702363 0.0015353724098766364 -0.037078265604508664 0.01731240910873762 0.057155023948748142 0.024571944736562702 0.0026024998572118834 -0.011130815045348215 -0.021121295987395233 -0.058860435600878613 0.056266911848221357 -0.032586118111680849
leaf_weight=5.2193835228681591 4.6710279136896125 6.9436832666397112 5.2379818409681311 4.2203223705291739 4.3495217114686948 4.9698839038610449 6.3312271833419826 5.0878907591104525 7.1040412187576276 6.8301914930343628 4.7918261736631393 6.0891773402690887 6.3113443702459326 9.6286311745643633 7.7051066607236889 5.8733362555503827 4.7208874225616455 7.5822112709283829
leaf_count=28 20 30 21 20 20 21 28 21 29 30 20 27 27 39 32 27 22 34
internal_value=3.39335e-05 0.0282756 -0.00890272 0.00130443 0.0188996 -0.00448741 -0.00904918 -0.0022172 0.00573321 -0.0104174 0.0285118 0.00365395 -0.019512 -0.023386 -0.0280194 -0.0357042 0.0408055 -0.0440548
internal_weight=113.668 27.3227 86.345 44.0064 22.1033 39.7861 35.1151 30.1452 23.8139 13.9342 9.87972 13.0329 42.3386 36.0273 30.7893 21.1607 9.07041 13.4555
internal_count=496 127 369 189 99 169 149 128 100 59 41 57 180 153 132 93 42 61
is_linear=0
shrinkage=0.05


Tree=16
num_leaves=21
num_cat=0
split_feature=3 2 3 0 2 4 2 3 3 0 4 4 0 0 4 3 0 3 2 4
split_gain=10.4727 3.94989 3.39532 5.20975 3.02475 2.87745 2.96735 2.13708 3.41074 2.33194 1.76421 3.47189 1.3249 1.62515 2.07783 1.32677 2.63296 1.23855 0.707593 0.583136
threshold=1.7519586556915303 1.1173332671712044 2.3972949468684708 2.3598152781284667 1.2323633072808262 48.844121302534724 1.8257878506628062 2.1264195533840011 2.2571322377326646 1.9228144157823928 50.356198686939265 49.481077540955106 3.0105095160823248 2.3514463340107565 49.223692330272563 2.7677125498222419 2.6708471838664196 2.4776216462249869 1.9997867495287676 48.818517050226767
decision_type=2 2 2 2 2 2 2 2 2 2 2 2 2 2 2 2 2 2 2 2
left_child=1 -1 3 5 -3 -2 -7 9 -9 -8 11 -6 13 -4 19 16 17 -16 -11 -15
right_child=2 4 12 -5 10 6 7 8 -10 18 -12 -13 -14 14 15 -17 -18 -19 -20 -21
leaf_value=0.067126898592857531 0.031384554856810652 -0.016136782886112342 0.0036572036338395641 0.04828034379046181 0.049713099379518004 -0.038141688311011432 -0.016396291393765444 -0.05120997392988285 0.0056525330732017896 0.010136103426969799 0.051490913956906005 -0.0060677262358078132 0.0039695550237253676 -0.019660055649565449 -0.063181413962710029 -0.058518227634014264 0.00095222070816229219 -0.029211869856644885 0.036633183862609817 0.0046508787328936622
leaf_weight=5.0368366837501553 4.7442136704921714 5.001460179686549 5.2377769947051993 5.1896818429231635 4.7555922120809573 7.4162801206111899 5.6305417120456722 4.7443837970495206 5.9375311136245728 4.8965690732002241 5.4673816561698905 6.7476005554199219 5.6155528575181952 4.913105174899103 4.2922679036855751 4.7437026798725119 5.2020556330680838 7.1584807634353638 5.1902818381786346 4.9536400586366653
leaf_count=28 20 21 21 27 23 33 23 20 24 20 27 28 24 20 20 21 22 32 22 20
internal_value=3.52519e-05 0.0271908 -0.00850643 0.00124884 0.0180359 -0.00508103 -0.010197 -0.00234661 -0.019603 0.00938124 0.0281071 0.0169929 -0.0186399 -0.0221183 -0.0264367 -0.03519 -0.0285448 -0.0419452 0.0237704 -0.00745465
internal_weight=112.875 27.0089 85.8661 43.7495 21.972 38.5598 33.8156 26.3993 10.6819 15.7174 16.9706 11.5032 42.1166 36.501 31.2633 21.3965 16.6528 11.4507 10.0869 9.86675
internal_count=496 127 369 189 99 162 142 109 44 65 78 51 180 156 135 95 74 52 42 40
is_linear=0
shrinkage=0.05


Tree=17
num_leaves=18
num_cat=0
split_feature=3 0 3 2 0 0 3 1 4 4 0 0 4 1 1 1 0
split_gain=9.59213 3.96863 3.01653 4.89294 2.47838 2.22038 3.37714 3.27784 2.95377 1.82223 1.22639 1.52284 1.355 1.18617 0.993026 0.852403 0.80725
threshold=1.7635895426944481 1.1484389757434472 2.3972949468684708 2.3494224316983208 1.5172257884695755 1.9228144157823928 2.1264195533840011 44.500000000000007 50.200775420104151 49.95988797979593 2.9829881785359622 2.3514463340107565 49.223692330272563 49.500000000000007 36.500000000000007 70.500000000000014 1.6699275553011097
decision_type=2 2 2 2 2 2 2 2 2 2 2 2 2 2 2 2 2
left_child=1 -1 3 5 9 7 13 -2 -8 -3 11 -4 -13 -7 -14 -16 -6
right_child=2 4 10 -5 16 6 8 -9 -10 -11 -12 12 14 -15 15 -17 -18
leaf_value=0.066457166256416678 -0.047230187557976998 -0.014962917940873153 0.0034745015144508709 0.053131759791012513 0.052636339019416625 0.042007555245956139 0.0083422484341022594 0.0014594001098265632 -0.039544441878521928 0.022741189949993745 0.0024950721120767178 -0.010205582085852871 -0.018566643540493016 0.0098686793805226238 -0.05588894599600145 -0.030140238610616335 0.023297011277570029
leaf_weight=4.9205197542905834 6.2622408121824247 6.8911331146955508 5.2375468015670767 4.0813373774290076 4.1902538239955884 5.1790726631879824 7.2703835219144803 7.7154692411422729 5.7806172072887421 5.9900809973478317 6.3109425306320182 9.6112442314624804 7.6180320531129864 6.442029133439064 5.6611271649599058 7.4363215714693069 5.3224397450685501
leaf_count=28 27 30 21 20 20 22 32 33 25 27 27 39 32 27 27 34 25
internal_value=3.65828e-05 0.0257985 -0.00828042 0.00106565 0.0168647 -0.00443242 0.00458796 -0.0203543 -0.012868 0.00257042 -0.0178175 -0.021422 -0.0257218 0.0241917 -0.0329207 -0.0412696 0.0362207
internal_weight=111.921 27.3144 84.6064 42.7311 22.3939 38.6498 24.6721 13.9777 13.051 12.8812 41.8752 35.5643 30.3267 11.6211 20.7155 13.0974 9.51269
internal_count=496 130 366 186 102 166 106 60 57 57 180 153 132 49 93 61 45
is_linear=0
shrinkage=0.05


Tree=18
num_leaves=18
num_cat=0
split_feature=3 2 3 0 4 4 4 2 1 3 4 0 3 2 0 3 3
split_gain=8.77493 3.77676 2.79175 4.63962 2.77675 5.6835 2.53394 2.61157 2.0506 2.84506 2.45469 1.11951 1.44906 2.53531 2.49716 4.97853 3.16559
threshold=1.7519586556915303 1.1173332671712044 2.3972949468684708 2.3598152781284667 50.200775420104151 49.481077540955106 48.844121302534724 1.8257878506628062 55.500000000000007 2.174604142175252 50.037004946447951 2.9829881785359622 2.7677125498222419 2.7755535525899888 2.5174951279636613 2.4633363296399229 2.527509642631562
decision_type=2 2 2 2 2 2 2 2 2 2 2 2 2 2 2 2 2
left_child=1 -1 3 6 5 -3 -2 -8 9 -9 -10 12 13 14 15 -4 -16
right_child=2 4 11 -5 -6 -7 7 8 10 -11 -12 -13 -14 -15 16 -17 -18
leaf_value=0.065678136487566027 0.029577706635332934 0.04299068903323347 -0.042856116510115359 0.046380687463932369 0.039840932145320807 -0.023193696472754433 -0.036120257591791043 0.002013395795786571 -0.0097435831963774214 -0.045906316593699759 0.033567713179505042 0.0023691029981747708 -0.046463232230630334 0.015437912568052759 -0.0064772541208649101 0.019653590136839774 -0.058316328399665454
leaf_weight=4.7385622709989574 4.6975980103015891 5.3249908089637783 5.6471280455589348 5.0056638717651358 7.9623841345310202 8.2992227673530561 7.2838780581951132 8.1348142921924609 6.5979354381561262 5.0020319968461981 6.488615021109581 6.3140978813171378 4.6610760241746894 5.1560032665729514 4.7111605256795865 7.3065260201692581 7.8554239273071289
leaf_count=28 20 26 25 27 39 34 33 34 27 21 27 27 21 21 21 31 34
internal_value=3.71598e-05 0.0252566 -0.0077862 0.00111753 0.0163835 0.00267431 -0.00481293 -0.00963437 -0.00227758 -0.0162327 0.0117312 -0.0170232 -0.0204883 -0.0165415 -0.0230025 -0.00759743 -0.0388821
internal_weight=111.187 26.3252 84.862 43.2105 21.5866 13.6242 38.2049 33.5073 26.2234 13.1368 13.0866 41.6514 35.3373 30.6762 25.5202 12.9537 12.5666
internal_count=496 127 369 189 99 60 162 142 109 55 54 180 153 132 111 56 55
is_linear=0
shrinkage=0.05


Tree=19
num_leaves=20
num_cat=0
split_feature=0 3 2 4 1 4 4 3 4 3 2 3 0 3 3 0 3 3 3
split_gain=8.14894 4.93704 3.37966 2.56564 3.88925 2.79667 2.17963 3.18726 1.3592 1.89473 2.35537 1.98388 3.33715 1.10847 3.36698 1.72457 4.58139 1.88458 2.81495
threshold=1.1484389757434472 2.3972949468684708 2.3494224316983208 48.844121302534724 85.500000000000014 50.089604931157233 49.706666308086433 1.771570480395867 49.880909529712007 1.5993633266634817 1.8257878506628062 2.0337465846202876 2.1851877422406143 2.9873076431626173 2.7397699044885435 2.5174951279636613 2.4776216462249869 2.527509642631562 2.6399087284283067
decision_type=2 2 2 2 2 2 2 2 2 2 2 2 2 2 2 2 2 2 2
left_child=-1 2 3 -2 6 -6 7 -5 -8 -10 -11 -12 -13 14 15 16 -3 -17 -19
right_child=1 13 -4 4 5 -7 8 -9 9 10 11 12 -14 -15 -16 17 -18 18 -20
leaf_value=0.065039808971950483 0.032052921819708778 -0.035521019930827576 0.050730867444952227 0.0021350062697428943 0.0028263235324605318 0.058179084398041106 0.024428424167934198 -0.051458776159629488 0.016959113381099417 -0.042201595653173468 0.019203788132735371 -0.043860119394818188 0.01471404564953986 -0.034870409028856207 0.017998118167731655 -0.0061640634293992627 0.024090135777537335 -0.07217829680969215 -0.019097945158619158
leaf_weight=4.6196551918983451 6.7262519896030417 6.7931976765394229 3.94235536456108 5.2864809483289701 4.8329771161079389 4.3231304138898849 4.7213500887155524 5.8373576700687408 7.5452049821615246 5.0016477108001736 6.2141014635562923 5.286602318286894 4.5028120130300522 6.7029299437999716 7.1195573955774298 4.7032127976417533 6.1331539452075958 4.7965212315320951 5.2115710973739624
leaf_count=28 31 30 20 24 21 20 20 25 35 23 27 22 20 30 30 21 26 21 22
internal_value=3.8049e-05 -0.0028034 0.00587991 0.00294652 -0.00070933 0.0289616 -0.00682864 -0.0259889 -0.000422717 -0.00453233 -0.0122522 -0.002892 -0.0169179 -0.0162535 -0.0126633 -0.0205618 -0.00723737 -0.0322695 -0.0445375
internal_weight=110.3 105.68 64.2203 60.2779 53.5517 9.15611 44.3956 11.1238 33.2717 28.5504 21.0052 16.0035 9.78941 41.4601 34.7572 27.6377 12.9264 14.7113 10.0081
internal_count=496 468 288 268 237 41 196 49 147 127 92 69 42 180 150 120 56 64 43
is_linear=0
shrinkage=0.05


Tree=20
num_leaves=19
num_cat=0
split_feature=2 3 2 4 4 4 1 4 3 2 3 0 4 1 1 2 3 3
split_gain=7.63758 4.48238 3.11876 2.37471 3.37781 4.15347 2.87872 1.3841 2.57286 2.05422 1.95026 2.12433 1.1425 2.94874 2.03544 1.90411 3.69872 0.31666
threshold=1.1173332671712044 2.3972949468684708 2.3494224316983208 48.844121302534724 49.706666308086433 49.481077540955106 85.500000000000014 49.921661068385355 1.5993633266634817 1.8257878506628062 2.0337465846202876 2.1682548803213595 49.413341974781893 51.500000000000007 19.500000000000004 2.555261588317991 2.7677125498222419 1.8919157872699646
decision_type=2 2 2 2 2 2 2 2 2 2 2 2 2 2 2 2 2 2
left_child=-1 2 3 -2 5 17 7 -6 -9 -10 -11 -12 13 -3 -14 -16 -17 -5
right_child=1 12 -4 4 6 -7 -8 8 9 10 11 -13 14 -15 15 16 -18 -19
leaf_value=0.064291764556012404 0.030945817884924145 -0.031045624578066412 0.04913755466908612 0.0086036064096299009 0.022871561663042383 -0.058772600199544812 0.039958068220323786 0.022407276363647241 -0.040454559534152223 0.018323831974900322 -0.040116225076028293 0.0070457698651511524 0.0036433477992246395 0.01343983619616277 -0.052505545280087343 0.0064833999719133327 -0.045589435288495822 -0.010349037418192167
leaf_weight=4.4374977350234976 6.6702182888984671 6.2997554689645758 3.8685745596885672 4.1229862570762617 6.0790124088525763 4.933409482240676 5.5966215431690207 7.1470523476600674 4.9578917920589474 6.1875831484794608 5.0220233052968961 4.551802784204483 5.9785461276769665 9.1147994846105558 6.241114720702174 6.9235749542713148 6.7199073433876038 4.734923392534256
leaf_count=28 31 26 20 20 26 21 25 34 23 27 21 20 25 37 30 31 31 20
internal_value=3.73708e-05 -0.00267427 0.00562466 0.00281928 -0.000698414 -0.022005 0.00673284 0.00125495 -0.00346069 -0.0123838 -0.00355383 -0.0176934 -0.0155158 -0.00474087 -0.0219378 -0.029629 -0.0191644 -0.00152737
internal_weight=109.587 105.15 63.8721 60.0035 53.3333 13.7913 39.542 33.9454 27.8664 20.7193 15.7614 9.57383 41.2777 15.4146 25.8631 19.8846 13.6435 8.85791
internal_count=496 468 288 268 237 61 176 151 125 91 68 41 180 63 117 92 62 40
is_linear=0
shrinkage=0.05


Tree=21
num_leaves=17
num_cat=0
split_feature=0 3 0 4 1 1 1 3 1 2 0 0 0 4 1 1
split_gain=7.3152 4.04363 2.99078 2.53487 2.91591 3.13602 2.87108 2.68543 2.61491 2.61468 1.65809 1.13677 1.40714 1.26792 0.907713 0.825176
threshold=1.1484389757434472 2.3972949468684708 2.3598152781284667 48.844121302534724 55.500000000000007 61.500000000000007 35.500000000000007 1.7635895426944481 85.500000000000014 1.9265540713199241 1.9134830478268381 2.9829881785359622 2.3514463340107565 49.223692330272563 36.500000000000007 70.500000000000014
decision_type=2 2 2 2 2 2 2 2 2 2 2 2 2 2 2 2
left_child=-1 2 3 -2 6 -6 7 -5 10 -9 -7 12 -3 -14 -15 -16
right_child=1 11 -4 4 5 8 -8 9 -10 -11 -12 -13 13 14 15 -17
leaf_value=0.063748628333645585 0.031184000583890384 0.0055766809266380168 0.043589397604375323 0.022020487858776958 0.049817369135257979 -0.027894806492822995 -0.035858772011856617 -0.046817266206435365 0.02414325911227351 0.0037268875761501288 0.0089571222898202612 0.00484882377260238 -0.0075519956846666486 -0.015938401099462839 -0.052750038471666552 -0.026850542078821787
leaf_weight=4.3261901140213004 6.6977981925010672 5.2238497585058203 4.7226553112268439 7.2938181161880555 4.2629047930240658 7.0143451839685458 9.0640396475791913 4.4064504206180555 8.4932013005018216 6.1017925590276718 5.4037429094314575 6.2256486862897864 9.5287135839462298 7.5018951445817974 5.3699181079864484 7.1975241750478745
leaf_count=28 31 21 27 34 20 31 39 20 38 26 22 27 39 32 27 34
internal_value=3.64663e-05 -0.00260094 0.00530897 0.00223115 -0.0014952 0.0107316 -0.012952 -0.00128883 0.00276366 -0.0174679 -0.0118587 -0.0148299 -0.0183482 -0.0225707 -0.0297015 -0.0379171
internal_weight=108.834 104.508 63.4607 58.7381 52.0403 25.1742 26.8661 17.8021 20.9113 10.5082 12.4181 41.0475 34.8219 29.5981 20.0693 12.5674
internal_count=496 468 288 261 230 111 119 80 91 46 53 180 153 132 93 61
is_linear=0
shrinkage=0.05


Tree=22
num_leaves=21
num_cat=0
split_feature=2 3 0 4 4 4 3 1 0 4 2 3 1 2 3 2 0 3 3 4
split_gain=6.89553 3.66972 2.77939 2.34634 2.62135 4.79399 3.60462 3.63107 3.42143 2.66563 3.23131 1.84872 1.11804 1.47635 2.31763 2.3897 2.06414 3.57104 1.49429 0.593969
threshold=1.1173332671712044 2.3972949468684708 2.3598152781284667 48.844121302534724 49.706666308086433 49.481077540955106 2.0337465846202876 81.500000000000014 1.9228144157823928 50.216450940697371 1.678906343707445 2.2418306989871937 15.500000000000002 3.0087765094892567 2.7677125498222419 2.7411384618904653 2.5174951279636613 2.4633363296399229 2.5326081795422888 49.2488559708002
decision_type=2 2 2 2 2 2 2 2 2 2 2 2 2 2 2 2 2 2 2 2
left_child=-1 2 3 -2 5 19 7 8 9 -6 -11 -8 -3 14 15 16 17 -14 -18 -5
right_child=1 12 -4 4 6 -7 11 -9 -10 10 -12 -13 13 -15 -16 -17 18 -19 -20 -21
leaf_value=0.063204952343672946 0.030102336670389165 -0.036274138773942803 0.042445845942083976 -0.011804576749332519 -0.028921072430719272 -0.061122987253889149 -0.039727255003883161 0.055784160876469702 0.041463120880722217 0.040778765017385962 -0.013920536045327237 0.001697999809407753 -0.033420772201659045 0.015022872674507349 -0.047026524694096732 0.020488319255662343 -0.011759880110440709 0.023644562329676006 -0.050932026858275109 0.01398751823647832
leaf_weight=4.1542986631393424 6.6425827145576468 5.0166969150304785 4.6102794855833045 4.4137423336505872 6.6412272900343039 4.7056092321872702 5.4504339396953565 4.5281347036361685 5.4303002953529349 5.0077199786901456 5.8587189763784409 5.3241372257471085 4.9845716655254453 4.7081186175346366 4.7858958244323722 5.38991555571556 4.3886958360671979 6.0922499746084213 5.4676348716020584 4.5161831825971603
leaf_count=28 31 21 27 20 28 20 23 21 24 25 27 22 23 21 22 22 20 26 25 20
internal_value=3.70046e-05 -0.00248715 0.00506798 0.00212325 -0.00145938 -0.0202818 0.00525215 0.0148669 0.00678953 -0.00396508 0.0112872 -0.0192574 -0.0141674 -0.011071 -0.0150202 -0.00920096 -0.0168454 -0.00203485 -0.03349 0.00123941
internal_weight=108.117 103.963 63.1291 58.5188 51.8762 13.6355 38.2407 27.4661 22.938 17.5077 10.8664 10.7746 40.8338 35.8171 31.109 26.3231 20.9332 11.0768 9.85633 8.92993
internal_count=496 468 288 261 230 60 170 125 104 80 52 45 180 159 138 116 94 49 45 40
is_linear=0
shrinkage=0.05


Tree=23
num_leaves=18
num_cat=0
split_feature=0 3 0 4 1 1 1 3 2 1 0 1 4 4 4 4 0
split_gain=6.63048 3.30652 2.59087 2.11709 2.47229 2.85148 2.52127 2.40023 2.37888 2.16252 1.4947 1.05865 3.31804 2.72178 1.7241 1.01781 0.915302
threshold=1.1484389757434472 2.3972949468684708 2.3598152781284667 48.844121302534724 55.500000000000007 61.500000000000007 35.500000000000007 1.7635895426944481 1.9265540713199241 85.500000000000014 1.9134830478268381 35.500000000000007 49.506673581292766 49.834594198194878 49.142833928515408 50.618664202191802 2.6840784991329856
decision_type=2 2 2 2 2 2 2 2 2 2 2 2 2 2 2 2 2
left_child=-1 2 3 -2 6 -6 7 -5 -9 10 -7 13 14 -3 -13 16 -14
right_child=1 11 -4 4 5 9 -8 8 -10 -11 -12 12 15 -15 -16 -17 -18
leaf_value=0.0627891207068169 0.02871796974410756 -0.047799146862309155 0.041331943671212179 0.02116473105375085 0.047519020133140633 -0.026318860121041388 -0.0335338528347967 -0.044735789679764076 0.0037803384328892417 0.021868155639769085 0.0087343571078600749 -0.0038033767349372558 -0.015317848087622283 -0.004748263187113245 0.034805753946999515 -0.0038081139977761292 -0.046600177815448535
leaf_weight=4.0506847351789466 6.5554408729076377 6.6914209276437751 4.5006157606840125 7.1999370455741944 4.1841454803943661 6.9686745107173937 9.0234179198741895 4.3243812769651395 6.0776308327913284 8.3884424865245801 5.3959498107433319 7.1489821821451205 4.0916537642478925 8.1345361322164518 4.8552874326705933 4.2612693756818762 5.456870824098587
leaf_count=28 31 28 27 34 20 31 39 20 26 38 22 29 20 35 21 21 26
internal_value=3.78367e-05 -0.0024238 0.00478424 0.00195401 -0.00144864 0.00986433 -0.0120443 -0.00102798 -0.0163891 0.00227255 -0.0110216 -0.01353 -0.00741426 -0.0241785 0.0118126 -0.0241274 -0.0331953
internal_weight=107.309 103.259 62.6186 58.118 51.5626 24.9372 26.6254 17.6019 10.402 20.7531 12.3646 40.64 25.8141 14.826 12.0043 13.8098 9.54852
internal_count=496 468 288 261 230 111 119 80 46 91 53 180 117 63 50 67 46
is_linear=0
shrinkage=0.05


Tree=24
num_leaves=19
num_cat=0
split_feature=2 3 0 2 2 3 0 4 4 3 4 0 1 4 4 3 1 4
split_gain=6.24537 2.99952 2.40636 2.07289 3.35768 2.41329 2.50486 2.94658 3.48781 4.62643 2.11125 1.07309 1.98796 5.12885 2.73985 1.9861 1.96733 0.619547
threshold=1.1173332671712044 2.3972949468684708 2.3598152781284667 2.1975906158555083 2.0862448218666576 1.8919157872699646 1.8924611417239441 49.481077540955106 49.95988797979593 1.5993633266634817 50.679243445908902 2.891586810361312 35.500000000000007 49.834594198194878 49.506673581292766 3.015863437423755 77.500000000000014 49.032883745149867
decision_type=2 2 2 2 2 2 2 2 2 2 2 2 2 2 2 2 2 2
left_child=-1 2 3 4 5 6 7 -2 -9 -10 -7 12 13 -3 17 -13 -16 -14
right_child=1 11 -4 -5 -6 10 -8 8 9 -11 -12 15 14 -15 16 -17 -18 -19
leaf_value=0.062273585154441202 0.032206032365577834 -0.072300269640873424 0.040245030486893235 -0.02050715972357052 0.046690801044850218 -0.031090355091820284 0.043876965569078025 -0.035283680446761438 0.035312326582348327 -0.024385437188599056 0.010068487964145443 0.025656066689779506 -0.0012542070348349119 -0.0037208647153010354 -0.0067189586086978505 -0.020131641590450708 -0.050738441438378606 0.024106771981219532
leaf_weight=3.8842473328113547 6.6921174675226274 4.9409977197647112 4.3938002139329901 8.7836017310619336 4.5679219663143149 8.5177074968814832 4.4887184947729102 6.7756155580282238 7.3278603851795179 5.8253990858793259 4.9127101153135291 4.5453603118658048 4.916483551263811 6.0823461264371872 5.8238047659397107 4.9447746872901917 4.4990486055612564 4.7200883626937866
leaf_count=28 33 21 27 37 20 36 21 29 36 28 21 20 20 26 29 22 22 20
internal_value=3.79657e-05 -0.00231453 0.00457161 0.00186411 0.0058655 0.00167856 0.00932565 0.00349975 -0.00613982 0.008873 -0.0160349 -0.0129119 -0.0174178 -0.0344602 -0.00800548 0.00179867 -0.0259041 0.0111679
internal_weight=106.643 102.758 62.2855 57.8917 49.1081 44.5401 31.1097 26.621 19.9289 13.1533 13.4304 40.4729 30.9828 11.0233 19.9594 9.49013 10.3229 9.63657
internal_count=496 468 288 261 224 204 147 126 93 64 57 180 138 47 91 42 51 40
is_linear=0
shrinkage=0.05


Tree=25
num_leaves=18
num_cat=0
split_feature=0 3 0 2 1 0 0 4 4 1 1 3 3 0 3 2 1
split_gain=6.00636 2.70197 2.24233 1.86497 3.73983 2.16551 2.88879 4.29828 7.84169 2.58974 1.35104 1.04039 3.25433 1.49225 3.73576 1.86397 0.682292
threshold=1.1484389757434472 2.3972949468684708 2.3598152781284667 2.1975906158555083 85.500000000000014 1.9228144157823928 1.7120192761695143 49.545084605343213 50.200775420104151 47.500000000000007 30.500000000000004 2.9873076431626173 2.7397699044885435 2.5174951279636613 2.4776216462249869 2.5930165808379324 46.500000000000007
decision_type=2 2 2 2 2 2 2 2 2 2 2 2 2 2 2 2 2
left_child=-1 2 3 4 5 6 7 -2 -9 -7 -8 12 13 14 -3 -15 -17
right_child=1 11 -4 -5 -6 9 10 8 -10 -11 -12 -13 -14 15 -16 16 -18
leaf_value=0.061892646219626146 0.04940555218594557 -0.030418717149540822 0.03918279469705846 -0.019523799158423848 0.038208335990655928 0.036780827480971827 -0.048217732173224066 -0.054378041871038243 0.028867089025555809 -0.0080731316198572704 -0.013959399384930607 -0.03074060668067909 0.021615794470358121 -0.055445473072627066 0.023949095084438911 -0.0016129096574456524 -0.027919671895880061
leaf_weight=3.784498766064643 4.2264643907547024 6.5599630773067492 4.2899373322725287 8.7651835978031141 7.4216381907463065 7.1394122391939145 4.3828870207071295 5.2643724828958494 6.1152288168668747 5.8589697182178497 8.3810810595750791 6.4456316828727713 6.9720915406942359 4.2752013653516761 6.095557764172554 4.5178629308938962 5.4237329363822937
leaf_count=28 21 30 27 37 35 32 21 22 31 25 37 30 30 20 26 20 24
internal_value=3.82162e-05 -0.00225373 0.00431027 0.00171101 0.00552587 -0.000337482 -0.00808086 0.00634839 -0.00964334 0.0165631 -0.025723 -0.0123295 -0.00882307 -0.0167205 -0.00423235 -0.0278372 -0.0159648
internal_weight=105.92 102.135 61.8452 57.5552 48.7901 41.3684 28.37 15.6061 11.3796 12.9984 12.764 40.29 33.8444 26.8723 12.6555 14.2168 9.9416
internal_count=496 468 288 261 224 189 132 74 53 57 58 180 150 120 56 64 44
is_linear=0
shrinkage=0.05


Tree=26
num_leaves=19
num_cat=0
split_feature=2 3 0 4 4 4 3 3 1 1 4 3 0 0 4 2 1 4
split_gain=5.65914 2.45452 2.08013 1.8339 2.36093 3.96826 3.11686 3.02826 3.48636 2.33135 1.95867 1.81813 1.01946 1.27663 1.19731 0.90811 1.33466 0.47777
threshold=1.1173332671712044 2.3972949468684708 2.3598152781284667 48.844121302534724 49.706666308086433 49.481077540955106 2.0337465846202876 1.9495924814716463 52.500000000000007 34.500000000000007 50.45428397231111 2.2418306989871937 2.9829881785359622 2.3514463340107565 49.223692330272563 2.7411384618904653 41.500000000000007 49.2488559708002
decision_type=2 2 2 2 2 2 2 2 2 2 2 2 2 2 2 2 2 2
left_child=-1 2 3 -2 5 17 7 8 9 -6 -10 -8 13 -3 -15 16 -16 -5
right_child=1 12 -4 4 6 -7 11 -9 10 -11 -12 -13 -14 14 15 -17 -18 -19
leaf_value=0.061484759786836866 0.02682742795760867 0.0076548913599941391 0.038143251376514122 -0.011654371260964318 0.0054952364846104305 -0.057228144432069444 -0.038338421738881148 0.050369320011706215 0.045954351188171601 -0.040736377006056486 0.0028770817863263123 0.0029079647430955771 0.0069650425946475832 -0.0046179916308211029 -0.018051358733894067 -0.012513811992383231 -0.051336452916383606 0.011695970558281837
leaf_weight=3.6182109266519538 6.4175499677658072 5.1933979839086524 4.189102128148078 4.3351394236087781 6.7932683825492912 4.5936224311590186 5.3979751914739591 4.7188972532749167 5.9155500233173353 4.5555721074342728 4.7638308107852936 5.2900250405073166 6.1480978578329077 9.3835034370422381 5.9772920757532138 7.3418764024972907 6.0702038109302521 4.4284395426511765
leaf_count=28 31 21 27 20 33 20 23 21 27 20 24 22 27 39 27 33 33 20
internal_value=3.87842e-05 -0.00215132 0.00413305 0.0016427 -0.00153936 -0.0195859 0.00489982 0.0140199 0.00623311 -0.0130627 0.0267386 -0.0179235 -0.0117701 -0.0151613 -0.0192796 -0.0263751 -0.0348223 0.000145098
internal_weight=105.132 101.513 61.399 57.2099 50.7923 13.3572 37.4351 26.7471 22.0282 11.3488 10.6794 10.688 40.1144 33.9663 28.7729 19.3894 12.0475 8.76358
internal_count=496 468 288 261 230 60 170 125 104 53 51 45 180 153 132 93 60 40
is_linear=0
shrinkage=0.05


Tree=27
num_leaves=19
num_cat=0
split_feature=0 3 0 4 1 1 3 4 1 0 3 3 3 0 3 3 3 2
split_gain=5.42707 2.21189 1.93705 1.65096 1.89539 2.55572 2.20115 4.19213 1.67335 1.48675 1.06675 1.02689 2.90981 1.32647 3.43951 1.93662 2.53026 0.998963
threshold=1.1484389757434472 2.3972949468684708 2.3598152781284667 48.844121302534724 55.500000000000007 61.500000000000007 2.174604142175252 50.790715767136327 85.500000000000014 1.9134830478268381 1.7818942912877922 2.9873076431626173 2.7397699044885435 2.5174951279636613 2.4633363296399229 2.527509642631562 2.6399087284283067 1.5279799168748711
decision_type=2 2 2 2 2 2 2 2 2 2 2 2 2 2 2 2 2 2
left_child=-1 2 3 -2 6 -6 7 10 9 -7 17 12 13 14 -3 -15 -17 -5
right_child=1 11 -4 4 5 8 -8 -9 -10 -11 -12 -13 -14 15 -16 16 -18 -19
leaf_value=0.060992056184226019 0.025571294227498556 -0.034126965070609631 0.037124698174072421 -0.024078640428046763 0.044728707013163678 -0.02584856951351467 -0.041279791985034328 0.028600750956331075 0.018808382160115333 0.0092627135190328103 -0.034898600031277011 -0.029628397759119341 0.020983657577273412 0.0013456432536203267 0.018866729886042977 -0.065990721859276485 -0.014397747442148171 0.010488845725274441
leaf_weight=3.5284738391637793 6.3337193578481665 5.2974113225936907 4.0913454294204703 4.3499504327774101 4.058798402547839 6.8577546924352664 4.8475720733404151 6.753221943974494 8.170584022998808 5.3804823309183121 6.1474112868309012 6.3815742731094351 6.979029342532157 4.4527742117643347 7.2555684298276901 4.4741961061954481 5.0685350298881531 4.0229612737894058
leaf_count=28 31 25 27 20 20 31 21 31 38 22 27 30 30 21 31 21 22 20
internal_value=3.87731e-05 -0.00209228 0.0038943 0.00150584 -0.00150716 0.00849265 -0.010874 -0.00394544 0.00128622 -0.0104121 -0.0190823 -0.0112447 -0.00774556 -0.0152979 -0.00349684 -0.0258825 -0.0385876 -0.00746988
internal_weight=104.451 100.923 61.0138 56.9225 50.5887 24.4676 26.1211 21.2735 20.4088 12.2382 14.5203 39.9091 33.5275 26.5485 12.553 13.9955 9.54273 8.37291
internal_count=496 468 288 261 230 111 119 98 91 53 67 180 150 120 56 64 43 40
is_linear=0
shrinkage=0.05


Tree=28
num_leaves=20
num_cat=0
split_feature=2 0 0 3 3 3 0 4 4 4 0 4 4 4 1 3 4 2 3
split_gain=5.16992 2.6882 2.39615 4.48885 1.52138 1.59787 2.38621 3.22628 2.88321 4.76616 2.5897 2.38016 3.77972 2.25268 2.18815 1.41203 1.00794 0.943112 0.828333
threshold=1.1173332671712044 1.1484389757434472 1.2761314707504121 1.5786474129528536 2.9873076431626173 2.7397699044885435 2.5551162317780007 49.000471262306753 49.706666308086433 49.899301835752048 2.096209941130144 50.113519856558703 50.45428397231111 50.618664202191802 67.500000000000014 2.2028217493558917 49.95988797979593 2.1294946598715545 2.5326081795422888
decision_type=2 2 2 2 2 2 2 2 2 2 2 2 2 2 2 2 2 2 2
left_child=-1 -2 -3 16 5 6 7 17 10 -10 -9 -11 -13 -14 15 -15 -4 -5 -8
right_child=1 2 3 4 -6 -7 18 8 9 11 -12 12 13 14 -16 -17 -18 -19 -20
leaf_value=0.060842381116542013 0.066155489712761986 -0.03926286367870524 0.016149604985197446 0.0087204075461356501 -0.028436441474995307 0.019859399608977077 -0.0074450155786370794 -0.055561969088833096 0.040390653037098857 -0.043891912366999547 -0.0095070804929398671 0.036994399435646821 -0.047049557881370115 -2.8155326256118696e-06 0.026419085992968869 -0.031514896992778145 0.049899353534067409 0.041050893201389924 -0.035022649511936753
leaf_weight=3.3819334357976905 1.4258098304271687 4.3531475067138663 4.5473206937313062 4.1380187571048719 6.3182563185691825 7.0047281235456458 4.1632828563451749 4.7612527459859839 6.3988132625818244 3.8272027075290707 8.5045055598020536 5.1149972826242474 3.5689524114131954 8.4647988080978411 4.5672402232885352 6.1287824511528006 4.3081561774015427 4.9587865918874741 7.8702359646558762
leaf_count=28 8 20 22 20 30 30 21 22 28 17 38 25 16 39 22 29 22 23 36
internal_value=3.76833e-05 -0.00201 -0.00299175 -0.00132348 -0.00482193 -0.0029445 -0.00514875 -0.00110008 -0.00596319 0.00103145 -0.0260368 -0.00692044 -0.0018388 -0.0105776 -0.00378426 -0.0132368 0.0325687 0.0263442 -0.0254815
internal_weight=103.806 100.424 98.9985 94.6453 85.7899 79.4716 72.4669 60.4334 51.3365 38.0708 13.2658 31.672 27.8448 22.7298 19.1608 14.5936 8.85548 9.09681 12.0335
internal_count=496 468 460 440 396 366 336 279 236 176 60 148 131 106 90 68 44 43 57
is_linear=0
shrinkage=0.05


Tree=29
num_leaves=19
num_cat=0
split_feature=2 0 4 4 0 3 0 0 4 4 4 2 2 3 0 0 2 0
split_gain=4.86436 1.93918 2.96551 4.97557 1.8082 1.50894 1.46689 2.2033 2.07218 2.66841 2.34858 2.22043 1.59272 1.32407 1.77417 1.99079 1.49094 1.27783
threshold=1.1173332671712044 1.7120192761695143 50.421044151735813 49.481077540955106 1.7604134710729189 2.9873076431626173 2.803834648860422 2.5551162317780007 49.032883745149867 49.438409306087159 49.899301835752048 2.2650119332236454 2.1525757305776261 2.0337465846202876 2.1851877422406143 2.3598152781284667 1.9125582657519373 2.6708471838664196
decision_type=2 2 2 2 2 2 2 2 2 2 2 2 2 2 2 2 2 2
left_child=-1 2 3 -2 -3 6 7 8 11 -10 12 -6 -11 16 -15 -16 -12 -9
right_child=1 4 -4 -5 5 -7 -8 17 9 10 13 -13 -14 14 15 -17 -18 -19
leaf_value=0.060266354239512113 0.044500487352000115 -0.042645198426797953 0.043419402586547029 -0.022197989291656652 -0.0026720941304033841 -0.027290402612171867 0.02216663559631607 -0.039232193812726496 -0.029839868058184671 0.044148755161377555 -0.0075098358858788801 0.048416036921412497 0.002308970665956569 -0.03584671020786883 0.018091568162721772 -0.022864800329074727 0.031376529139755638 -0.0078466032102497158
leaf_weight=3.246962532401084 4.1481225788593319 3.1031693965196601 5.5214662700891486 8.5785689055919629 4.1825425177812559 6.2560223042964926 5.9143561720848075 5.98429226875305 7.9705049693584433 4.7439411729574186 5.6849703043699282 4.3273124694824219 4.3697374612092972 5.8743359744548824 5.9740157276391965 5.8946293592453003 4.3518255054950714 7.0797318071126938
leaf_count=28 22 15 29 39 20 30 25 30 36 20 27 20 20 25 25 33 20 32
internal_value=3.77596e-05 -0.00191863 0.012818 -0.000458368 -0.00520969 -0.00373187 -0.00169485 -0.00381902 0.000685752 -0.00360499 0.00206283 0.0233065 0.0240878 -0.00516289 -0.0133729 -0.00224964 0.00935079 -0.0222235
internal_weight=103.207 99.9595 18.2482 12.7267 81.7114 78.6082 72.3522 66.4378 53.3738 44.864 36.8935 8.50985 9.11368 27.7798 17.743 11.8686 10.0368 13.064
internal_count=496 468 90 61 378 363 333 308 246 206 170 40 40 130 83 58 47 62
is_linear=0
shrinkage=0.05


Tree=30
num_leaves=19
num_cat=0
split_feature=0 3 0 4 4 3 0 1 3 2 4 0 2 0 3 4 4 0
split_gain=4.63128 1.77043 2.1846 2.01211 2.87034 1.18034 1.54351 1.93398 2.836 3.9941 2.2748 1.44498 1.30154 1.00435 2.38343 0.937536 1.19659 0.825913
threshold=1.1484389757434472 1.7635895426944481 1.2761314707504121 49.481077540955106 50.200775420104151 2.9873076431626173 2.803834648860422 35.500000000000007 2.4733099945969772 1.9265540713199241 49.506673581292766 2.5551162317780007 2.2198251853729567 2.1349000641657057 1.8962448184599017 49.142833928515408 48.681100798756198 2.3355199952340517
decision_type=2 2 2 2 2 2 2 2 2 2 2 2 2 2 2 2 2 2
left_child=-1 2 -2 -4 -5 6 7 8 9 -3 15 13 -11 14 -12 16 -9 -15
right_child=1 5 3 4 -6 -7 -8 10 -10 12 11 -13 -14 17 -16 -17 -18 -19
leaf_value=0.059701908201207389 -0.01557550666978757 -0.045029490005750572 0.05222009740363609 -0.01710674640844697 0.034206151763609347 -0.026187889308690867 0.02098566282170479 0.024850242713543996 -0.043094439097030722 0.032542249476924856 0.014041339964469941 -0.03362265556630991 -0.003396476487809635 0.021787578224165525 -0.030372011834228232 0.029936231210074805 -0.0090582984346070389 -0.0060797831839828186
leaf_weight=3.1526575759053221 5.5122636407613781 4.3829440325498608 3.8818248212337485 5.0976580232381803 5.8562224805355072 6.1950156390666953 5.9342967569828025 4.5975283384323138 7.3559095859527579 4.3996408283710462 4.9922393262386375 4.7288769483566275 5.8944332301616669 5.3802814185619336 7.6491924524307251 6.3695996701717368 5.9935454726219177 5.2562904506921768
leaf_count=28 27 21 22 21 32 30 25 21 32 20 23 26 28 23 33 28 26 30
internal_value=3.86495e-05 -0.0018522 0.0113017 0.0212881 0.0103264 -0.0052347 -0.00345495 -0.00561968 -0.0177555 -0.00505606 0.000326576 -0.00842489 0.0119636 -0.00330602 -0.0128327 0.0147777 0.00566122 0.00801632
internal_weight=102.63 99.4778 20.348 14.8357 10.9539 79.1298 72.9348 67.0005 22.0329 14.677 44.9676 28.0069 10.2941 23.278 12.6414 16.9607 10.5911 10.6366
internal_count=496 468 102 75 53 366 336 311 101 69 210 135 48 109 56 75 47 53
is_linear=0
shrinkage=0.05


Tree=31
num_leaves=19
num_cat=0
split_feature=2 0 0 0 4 3 3 0 4 4 4 2 2 3 0 0 2 3
split_gain=4.4677 1.59197 2.76292 1.64867 1.31721 1.26214 1.29238 2.23259 1.79502 2.54242 2.10804 2.06812 1.44631 1.23375 1.65558 1.74071 1.35873 0.872585
threshold=1.1173332671712044 1.7120192761695143 1.5172257884695755 1.7604134710729189 49.95988797979593 2.9873076431626173 2.7397699044885435 2.5551162317780007 49.032883745149867 49.438409306087159 49.899301835752048 2.2650119332236454 2.1525757305776261 2.0337465846202876 2.1851877422406143 2.3598152781284667 1.9125582657519373 2.5326081795422888
decision_type=2 2 2 2 2 2 2 2 2 2 2 2 2 2 2 2 2 2
left_child=-1 2 4 -3 -2 6 7 8 11 -10 12 -5 -11 16 -15 -16 -12 -9
right_child=1 3 -4 5 -6 -7 -8 17 9 10 13 -13 -14 14 15 -17 -18 -19
leaf_value=0.059758666034317114 -0.018587864372450764 -0.040752988541227761 0.038734431889091606 -0.0033428334428305621 0.015001403610987677 -0.02512676927064237 0.018924551268537662 -0.0047370971377361992 -0.028966671757824761 0.042262486506993518 -0.0067066171452502934 0.046180764465422297 0.002360953901284876 -0.034354337978401872 0.017144531723531552 -0.021228691759107222 0.030554578809180194 -0.033214749229847289
leaf_weight=3.0385335087776175 6.1242503821849841 3.0630550980567923 6.1864527761936179 4.1465061753988248 5.5763199329376221 6.1353536248207083 6.9913250654935828 4.1236672550439817 7.9416732639074317 4.730602875351904 5.6510295271873492 4.288285031914711 4.3679510802030563 5.841388180851939 5.9806691706180555 5.8424052596092224 4.3145427107810974 7.7366096079349518
leaf_count=28 29 15 33 20 28 30 30 21 36 20 27 20 20 25 25 33 20 36
internal_value=3.88889e-05 -0.00179327 0.0117093 -0.00476931 -0.00257971 -0.0033579 -0.00150178 -0.00369999 0.000680402 -0.00331412 0.00223263 0.0218352 0.0231069 -0.00464126 -0.0125771 -0.0018177 0.00942542 -0.0233134
internal_weight=102.081 99.0421 17.887 81.1551 11.7006 78.092 71.9567 64.9653 53.1051 44.6703 36.7286 8.43479 9.09855 27.63 17.6645 11.8231 9.96557 11.8603
internal_count=496 468 90 378 57 363 333 303 246 206 170 40 40 130 83 58 47 57
is_linear=0
shrinkage=0.05


Tree=32
num_leaves=19
num_cat=0
split_feature=0 3 0 4 4 4 3 1 3 0 0 3 3 0 4 3 2 1
split_gain=4.24316 1.4609 2.06709 1.72554 2.97968 1.10898 2.47678 2.28189 2.12887 3.13797 3.51924 2.12415 2.1981 2.53978 2.19715 3.13083 2.08819 0.00336385
threshold=1.1484389757434472 1.7519586556915303 1.2761314707504121 49.481077540955106 50.200775420104151 48.844121302534724 2.4835685045763536 90.500000000000014 2.9489755962915125 2.756149937350429 2.5174951279636613 2.4835685045763536 2.3782038030452428 2.1851877422406143 49.706666308086433 2.0337465846202876 1.9125582657519373 51.500000000000007
decision_type=2 2 2 2 2 2 2 2 2 2 2 2 2 2 2 2 2 2
left_child=-1 2 -2 -4 -5 6 -3 8 9 10 11 12 13 14 -7 16 -16 -12
right_child=1 5 3 4 -6 7 -8 -9 -10 -11 17 -13 -14 -15 15 -17 -18 -19
leaf_value=0.059179896806474314 -0.015435383146365911 0.030304961445194234 0.050581114922551518 -0.016828537653101369 0.036951145602092991 -0.043223726855318188 -0.016733155131697163 0.018168303728137918 -0.044695972026221338 0.025541112456807954 -0.04321895365928384 0.025560077641194886 -0.038414373577781151 0.020122046490359237 -0.0067380287987269596 -0.034816766228955215 0.035632218705327803 -0.041183691672655523
leaf_weight=2.9448953345417967 5.4803225025534656 6.3928835093975049 3.6073897629976264 5.0869905650615674 5.2169063836336136 4.8097217231988969 4.9773881137371063 7.8629619330167762 4.2253239005804053 6.2361025512218466 3.8997315019369108 4.6742327064275733 5.8202174454927436 7.6273893713951102 7.7995970100164431 6.0407359153032294 4.6366727203130722 4.2348253726959229
leaf_count=28 27 30 21 21 30 22 21 39 22 27 19 20 28 37 36 26 21 21
internal_value=3.85667e-05 -0.00172729 0.0105736 0.0208198 0.0104003 -0.00473764 0.00971381 -0.00715878 -0.0104776 -0.00788556 -0.0120931 -0.00618663 -0.0102262 -0.00491922 -0.0131213 -0.00528537 0.00905907 -0.0421594
internal_weight=101.574 98.6294 19.3916 13.9113 10.3039 79.2378 11.3703 67.8675 60.0046 55.7792 49.5431 41.4086 36.7343 30.9141 23.2867 18.477 12.4363 8.13456
internal_count=496 468 99 72 51 369 51 318 279 257 230 190 170 142 105 83 57 40
is_linear=0
shrinkage=0.05


Tree=33
num_leaves=21
num_cat=0
split_feature=2 0 4 4 0 3 3 0 0 0 2 2 3 4 1 4 4 1 2 3
split_gain=4.11242 1.31507 2.54751 4.21609 1.54094 1.05418 3.25518 2.32293 2.20652 1.42114 2.08676 2.74132 4.44875 1.55818 2.17714 1.45269 1.41213 1.82322 2.73435 2.24644
threshold=1.1173332671712044 1.7120192761695143 50.421044151735813 49.481077540955106 1.7604134710729189 1.8919157872699646 1.9561281442786373 1.8924611417239441 1.9422147721310623 2.0878439692085551 2.1975906158555083 2.2466085296990719 2.3564654670354233 49.413341974781893 38.500000000000007 49.032883745149867 49.834594198194878 19.500000000000004 2.5259378465471314 2.7677125498222419
decision_type=2 2 2 2 2 2 2 2 2 2 2 2 2 2 2 2 2 2 2 2
left_child=-1 2 3 -2 -3 7 -7 -6 -8 -10 -11 -12 -13 14 -14 -16 -15 -18 -19 -20
right_child=1 4 -4 -5 5 6 8 -9 9 10 11 12 13 16 15 -17 17 18 19 -21
leaf_value=0.059314725460414636 0.041343035810723697 -0.039421302124678446 0.039771737890214161 -0.021611672058195485 -0.010381462296473434 -0.052678580390595843 0.030640171800085398 0.039887079176787965 -0.032833523403886448 0.027147776868463674 -0.049536048922705828 0.03927071125072655 -0.024303754692782193 -0.036206895050209097 0.0003126572982448078 0.037002138842223246 0.014487099549725458 -0.053816633417742767 0.015624270307781638 -0.033532047802750202
leaf_weight=2.8434526771306983 3.8849592208862331 3.0214688479900351 5.2758592665195456 8.4307398051023466 4.9799219965934736 3.4248658269643775 4.6195380836725226 4.2676432430744171 4.3240315169095984 5.1797014623880377 3.3998207449913016 5.4876649826765052 4.8210375458002082 6.5704280287027386 6.3190172091126424 4.708055317401886 5.6591046601533916 4.0331914275884619 5.6104583144187909 3.9680170118808746
leaf_count=28 22 15 29 39 24 15 20 21 19 24 16 27 22 32 27 20 25 23 28 20
internal_value=3.80141e-05 -0.00168214 0.0107008 -0.00175275 -0.00439174 -0.0030238 -0.00517408 0.0128169 -0.00265946 -0.00521984 -0.00307834 -0.00617387 -0.00304897 -0.00861961 0.00372376 0.0159774 -0.0161897 -0.00936471 -0.0192812 -0.00473942
internal_weight=100.829 97.9855 17.5916 12.3157 80.394 77.3725 68.1249 9.24757 64.7001 60.0805 55.7565 50.5768 47.177 41.6893 15.8481 11.0271 25.8412 19.2708 13.6117 9.57848
internal_count=496 468 90 61 378 363 318 45 303 283 264 240 224 197 69 47 128 96 71 48
is_linear=0
shrinkage=0.05


Tree=34
num_leaves=20
num_cat=0
split_feature=2 4 3 1 3 1 4 4 3 4 0 2 2 4 0 1 4 4 4
split_gain=3.85796 1.28054 2.55743 2.2759 2.2746 2.05298 2.09527 3.02668 1.65453 1.63437 3.72801 2.56411 2.39666 1.30521 1.93959 1.25524 1.77616 0.811376 0.431068
threshold=1.145449818878516 48.844121302534724 2.4835685045763536 83.500000000000014 2.888636743432651 77.500000000000014 49.750005707492001 49.223692330272563 1.9383939548351321 50.298109975652658 1.9228144157823928 1.678906343707445 2.3348544177306221 50.790715767136327 2.2628183139926743 27.500000000000004 50.965977291135665 50.965977291135665 48.530447470735716
decision_type=2 2 2 2 2 2 2 2 2 2 2 2 2 2 2 2 2 2 2
left_child=-1 2 18 4 5 6 7 -3 -9 10 -8 -11 -12 14 -5 16 -13 -17 -2
right_child=1 3 -4 13 -6 -7 9 8 -10 11 12 15 -14 -15 -16 17 -18 -19 -20
leaf_value=0.052671517322290286 0.018929119163759431 0.0069614718065019454 -0.015498714680825679 -0.016415622552222134 -0.044690557224678004 -0.033474200937642022 -0.016747348265918588 -0.010566090516964534 -0.05178188457478039 0.031420112065253018 0.063055119080395752 -0.017558054680259234 0.011082526870328561 0.038429404865000849 0.024006241852467455 -0.009137370138785043 0.027114021855485188 -0.033878473863017976 0.042048609511373271
leaf_weight=3.3647250831127158 4.1539385318756086 7.4132339954376247 4.9495567530393592 5.6268897205591184 3.9804290384054175 6.0432418808341017 5.1228960007429114 4.0901766717433912 6.0167979449033737 4.3069836646318462 4.394509017467497 4.6533293426036852 4.4790252149105072 3.8390995860099784 6.2796438485383987 7.2656508982181531 4.2640756219625473 6.0925058871507645 3.9176941365003586
leaf_count=31 21 34 21 25 21 28 23 20 28 25 20 22 21 20 32 35 20 29 20
internal_value=3.81745e-05 -0.00178964 0.0127985 -0.00405456 -0.00801444 -0.00573846 -0.0028535 -0.0173041 -0.0351023 0.00338563 0.0172144 -0.0038956 0.0368213 0.0130777 0.00490334 -0.0107239 0.00380299 -0.0204215 0.0301505
internal_weight=100.254 96.8897 13.0212 83.8685 68.1229 64.1424 58.0992 17.5202 10.107 40.579 13.9964 26.5825 8.87353 15.7456 11.9065 22.2756 8.9174 13.3582 8.07163
internal_count=496 465 62 403 326 305 277 82 48 195 64 131 41 77 57 106 42 64 41
is_linear=0
shrinkage=0.05


Tree=35
num_leaves=21
num_cat=0
split_feature=2 3 2 4 1 3 0 4 4 4 1 1 1 1 4 4 4 4 4 0
split_gain=3.67646 1.17828 2.98544 1.30384 1.12163 1.81391 2.41004 1.57987 1.9019 3.17622 1.67166 1.58097 1.36023 1.31372 2.00562 1.0758 0.966044 0.93014 0.616702 0.227064
threshold=1.1173332671712044 1.5786474129528536 1.2323633072808262 49.95988797979593 90.500000000000014 2.9873076431626173 2.803834648860422 48.844121302534724 49.706666308086433 49.899301835752048 29.500000000000004 61.500000000000007 95.500000000000014 45.500000000000007 51.184069357803722 50.720392655764996 48.2680885921297 49.223692330272563 50.408235928535539 2.1682548803213595
decision_type=2 2 2 2 2 2 2 2 2 2 2 2 2 2 2 2 2 2 2 2
left_child=-1 2 -2 -4 5 6 7 16 10 -10 -9 13 -6 14 15 18 -3 -12 -11 -13
right_child=1 4 3 -5 12 -7 -8 8 9 11 17 19 -14 -15 -16 -17 -18 -19 -20 -21
leaf_value=0.058431429913316658 -0.021753769051186662 -0.0051756269707232969 0.010042574185005482 0.047447841898628523 0.031153501973873621 -0.036374098590212595 0.029715193278810798 -0.046958675249135245 0.02639740102925239 -0.023926103041501053 0.0025771960090961495 -0.021712086862903837 -0.0078483146411876138 0.016813900972015683 0.016483376057084963 -0.040410386701143129 0.027741212938797784 -0.026654677790307019 0.0029088136202182319 -0.0382739556171088
leaf_weight=2.6245300322771064 4.4371192753314963 4.0273944139480573 4.8351457417011243 4.4959416165947914 4.7800988256931287 4.5525103062391272 4.9811585545539847 5.3050029426813152 7.2138623297214499 4.2108647972345405 5.1929173022508603 4.7464214563369733 4.1995670795440674 5.868773639202117 5.0143363922834387 4.529657542705535 4.991469494998455 5.7174655199050903 4.3555365651845932 3.6694596409797668
leaf_count=28 21 19 25 26 24 24 21 26 33 20 23 21 21 28 24 21 24 26 21 20
internal_value=3.72805e-05 -0.00154066 0.01201 0.0280653 -0.00377886 -0.00579414 -0.00380034 -0.00637495 -0.00951194 -0.00360695 -0.0239359 -0.0102884 0.0129133 -0.00374472 -0.0104068 -0.0207028 0.0130421 -0.0127414 -0.010282 -0.0289333
internal_weight=99.7492 97.1247 13.7682 9.33109 83.3565 74.3768 69.8243 64.8432 55.8243 39.6089 16.2154 32.3951 8.97967 23.9792 18.1104 13.0961 9.01886 10.9104 8.5664 8.41588
internal_count=496 468 72 51 396 351 327 306 263 188 75 155 45 114 86 62 43 49 41 41
is_linear=0
shrinkage=0.05


Tree=36
num_leaves=20
num_cat=0
split_feature=2 2 3 4 1 3 0 0 4 4 4 2 0 1 0 0 3 4 1
split_gain=3.42241 1.12132 3.10863 1.23113 1.01548 1.67363 2.1709 1.46887 2.39763 3.09343 4.5138 1.80634 1.5428 1.23362 1.15705 1.0581 2.11682 2.01215 0.621947
threshold=1.145449818878516 1.2323633072808262 1.5786474129528536 49.95988797979593 90.500000000000014 2.9873076431626173 2.803834648860422 2.5174951279636613 49.032883745149867 49.706666308086433 49.899301835752048 2.0862448218666576 2.6708471838664196 95.500000000000014 2.096209941130144 2.3598152781284667 2.2668072283959089 50.761431568441161 36.500000000000007
decision_type=2 2 2 2 2 2 2 2 2 2 2 2 2 2 2 2 2 2 2
left_child=-1 -2 3 -3 5 6 7 8 11 14 -11 -4 -9 -6 -10 16 17 -12 -19
right_child=1 2 4 -5 13 -7 -8 12 9 10 15 -13 -14 -15 -16 -17 -18 18 -20
leaf_value=0.0513110663700935 -0.028228234317786139 0.0095622030393069605 -0.0014728662933570415 0.046146152546408879 0.029725271983056883 -0.035157890978819863 0.028128500477691078 -0.036551427439149207 -0.053256674552309452 0.039020457377836937 -0.030902244664639991 0.045970582023990375 -0.00326456893391615 -0.0074616952561501557 -0.017186413398767746 -0.031745871530499119 0.023164318114181445 0.017313460865755779 -0.0081171708077819472
leaf_weight=3.1511320173740378 3.8093871027231208 4.8244253396987897 3.8988729864358884 4.3942358046770096 4.7598095536231977 4.4764574617147437 4.9985642284154883 7.1956505328416807 3.9141161292791349 6.1111645847558966 8.1766336709261029 4.132980078458786 6.7430548220872879 4.1963883936405182 5.146695613861084 4.1499562263488761 5.3822635263204566 4.1709637343883497 5.6760724782943726
leaf_count=31 18 25 20 26 24 24 21 36 19 27 38 20 31 21 23 24 22 20 26
internal_value=3.6632e-05 -0.00164365 -0.000547035 0.0270006 -0.00360193 -0.00552221 -0.00361879 -0.00607157 -0.00212366 -0.0068351 0.000144258 0.0229403 -0.0204484 0.0123015 -0.0327682 -0.00847745 -0.00435188 -0.0125688 0.00265462
internal_weight=99.3088 96.1577 92.3483 9.21866 83.1296 74.1734 69.697 64.6984 50.7597 42.7279 33.6671 8.03185 13.9387 8.9562 9.06081 27.5559 23.4059 18.0237 9.84704
internal_count=496 465 447 51 396 351 327 306 239 199 157 40 67 45 42 130 106 84 46
is_linear=0
shrinkage=0.05


Tree=37
num_leaves=21
num_cat=0
split_feature=2 2 3 4 1 3 0 4 0 0 3 3 0 4 1 1 2 2 4 4
split_gain=3.19012 1.00894 2.83916 1.16219 0.919995 1.54325 1.95714 1.34578 1.62803 2.05613 1.75957 2.00407 2.00843 3.00244 1.39743 1.11886 1.10769 1.30645 1.01841 0.892241
threshold=1.145449818878516 1.2323633072808262 1.5786474129528536 49.95988797979593 90.500000000000014 2.9873076431626173 2.803834648860422 48.844121302534724 2.5174951279636613 2.6708471838664196 2.4835685045763536 2.3782038030452428 1.9228144157823928 50.421044151735813 47.500000000000007 95.500000000000014 1.8257878506628062 1.7660100584720551 51.091636987408229 48.2680885921297
decision_type=2 2 2 2 2 2 2 2 2 2 2 2 2 2 2 2 2 2 2 2
left_child=-1 -2 3 -3 5 6 7 19 10 -10 11 12 16 14 -14 -6 17 -9 -15 -4
right_child=1 2 4 -5 15 -7 -8 8 9 -11 -12 -13 13 18 -16 -17 -18 -19 -20 -21
leaf_value=0.050346786434635853 -0.026753769736320272 0.0091040337023454553 -0.0053161377321301433 0.044881995215146693 0.028363589083514891 -0.033978648447645865 0.026641670903161187 -0.011377887506870759 -0.049133087837624878 -0.0053260177562089346 0.024648012212347723 -0.035561794811146449 0.046976210948246555 -0.029590489166900519 0.010205110262240798 -0.0070939559852578899 6.9491591271256459e-05 -0.050037871860678818 0.0032787139395455168 0.026417727282458548
leaf_weight=3.0534083992242804 3.8181303143501273 4.8141284286975843 4.0143003538250905 4.2946618944406509 4.739432677626608 4.4021431952714911 5.0132544636726371 4.8933103680610639 5.1114081740379316 5.627676710486412 4.6411329656839362 5.6187848448753348 4.2773496285080927 4.915719732642172 6.5257630795240402 4.1933064609766006 5.4169594794511786 3.9487514197826385 4.5266376137733459 4.9418076872825623
leaf_count=31 18 25 19 26 24 24 21 23 27 26 20 28 21 22 30 21 24 21 21 24
internal_value=3.57259e-05 -0.00156892 -0.000522764 0.0259728 -0.00343726 -0.00526987 -0.00345074 -0.00579114 -0.00869324 -0.0261766 -0.00449895 -0.00787043 -0.00336111 0.00676264 0.0247641 0.0117187 -0.0177352 -0.0286429 -0.0138331 0.012194
internal_weight=98.7881 95.7347 91.9165 9.10879 82.8077 73.875 69.4729 64.4596 55.5035 10.7391 44.7644 40.1233 34.5045 20.2455 10.8031 8.93274 14.259 8.84206 9.44236 8.95611
internal_count=496 465 447 51 396 351 327 306 263 53 210 190 162 94 51 45 68 44 43 43
is_linear=0
shrinkage=0.05


Tree=38
num_leaves=20
num_cat=0
split_feature=3 4 4 2 0 3 0 3 0 3 0 3 0 2 0 2 2 2 0
split_gain=2.25757 1.53232 4.3152 1.99774 0.947727 1.49933 2.3187 3.11989 2.14001 1.46959 0.9282 4.04151 1.63299 1.38024 1.36124 2.52101 4.04468 1.76009 2.06712
threshold=1.5786474129528536 49.545084605343213 49.889904983443245 1.3288918243792693 3.0105095160823248 2.4936678943380053 2.5174951279636613 2.6399087284283067 2.4472196466599629 2.7677125498222419 1.9228144157823928 1.9383939548351321 1.7120192761695143 1.8180419753353119 2.0020858426774963 2.0862448218666576 2.1975906158555083 2.2536401469017373 2.3244334092718675
decision_type=2 2 2 2 2 2 2 2 2 2 2 2 2 2 2 2 2 2 2
left_child=1 -1 -3 -4 5 8 -7 -8 10 -9 12 -12 -2 -14 -13 -16 -17 -18 -19
right_child=4 2 3 -5 -6 6 7 9 -10 -11 11 14 13 -15 15 16 17 18 -20
leaf_value=0.042441616466697862 0.0146467040056088 -0.044405548460504818 0.0074789689533263613 0.058030918503527332 0.017654177886932833 0.014562588213462535 -0.05498922090598906 0.0034044251660126966 0.027439314993990539 -0.032181592580691601 0.04888361449647767 0.029684630487473176 -0.038483229529296246 -0.0063243306284935814 -0.045164461315933171 0.041674368074152979 -0.041481933298764123 0.015412614401949278 -0.026664790691685886
leaf_weight=4.3933110460638991 4.1226250678300884 2.9475058466196051 5.3746514916419965 3.0710794031620026 5.0720848739147177 5.0528046786785152 5.5374286323785809 7.7859232574701291 6.2325411140918723 4.6243087351322174 3.9313995540142086 2.5024052858352688 6.2577753663063032 7.1473159641027451 4.0279574990272549 4.2220786362886455 4.1256654709577552 6.48079566657543 5.3106349781155586
leaf_count=33 21 15 34 18 24 22 28 34 35 24 19 11 32 32 18 20 19 27 30
internal_value=3.37611e-05 0.0173558 0.00768252 0.0258609 -0.00328351 -0.00465625 -0.0153574 -0.0237808 -0.000128538 -0.00985566 -0.00369851 0.00155663 -0.0128732 -0.0213368 -0.00541992 -0.00905484 -0.0018327 -0.0133731 -0.00353824
internal_weight=98.2203 15.7865 11.3932 8.44573 82.4337 77.3617 23.0005 17.9477 54.3612 12.4102 48.1287 30.6009 17.5277 13.4051 26.6695 24.1671 20.1392 15.9171 11.7914
internal_count=496 100 67 52 396 372 108 86 264 58 229 144 85 64 125 114 96 76 57
is_linear=0
shrinkage=0.05


Tree=39
num_leaves=19
num_cat=0
split_feature=2 3 4 1 0 0 3 3 3 0 3 3 3 0 4 2 1 4
split_gain=2.191 0.882631 1.88354 2.77601 1.74308 2.2203 2.76664 1.64002 1.59184 1.40289 2.28392 2.85786 4.23863 2.67828 1.72937 1.03602 0.767606 0.363624
threshold=1.1947168325504385 2.4936678943380053 49.000471262306753 90.500000000000014 2.9829881785359622 2.5174951279636613 2.6399087284283067 2.366524051599153 2.7595438035629729 2.1851877422406143 2.0337465846202876 1.9561281442786373 1.8684622446255139 1.8416259390669272 50.356198686939265 2.0644208237589381 42.500000000000007 49.773989079421717
decision_type=2 2 2 2 2 2 2 2 2 2 2 2 2 2 2 2 2 2
left_child=-1 2 15 7 5 -3 -7 9 -8 10 11 12 13 14 17 -2 -9 -4
right_child=1 4 3 -5 -6 6 8 16 -10 -11 -12 -13 -14 -15 -16 -17 -18 -19
leaf_value=0.035890243037405005 0.005149380197975886 0.013811972326879727 -0.0093030536998777013 0.031267838116748436 0.015710439526959191 -0.05344062332614033 0.0045834864087562575 -0.011648441573616436 -0.033054426614319024 0.01911366960022081 -0.031583993899771741 0.037450965823189734 -0.050432692069506679 0.041239279245265714 0.014289477059716305 0.037550728908292641 -0.042234984240851703 -0.029321707211357736
leaf_weight=4.0820601657032958 4.8113175183534604 5.0608179271221223 4.449084237217912 5.6596428230404845 5.6932481676340094 5.4161032512784031 7.1257920116186124 4.3481816053390485 4.6375073790550232 6.8039794713258734 6.8547075837850562 4.432941958308219 4.4243949502706519 3.8331303000450125 6.4907051026821128 5.0634342432022095 3.8830780386924744 4.6281159073114395
leaf_count=37 26 22 23 30 27 28 31 21 24 33 30 20 20 20 37 25 21 21
internal_value=3.24321e-05 -0.00153112 0.00163495 -0.00192666 -0.00897582 -0.0152952 -0.0238698 -0.00567292 -0.0102547 -0.00166606 -0.00569262 0.000587925 -0.00627079 0.00380031 -0.00541791 0.0217637 -0.0260776 -0.0195098
internal_weight=97.6982 93.6162 65.6827 55.808 27.9335 22.2402 17.1794 50.1483 11.7633 41.9171 35.1131 28.2584 23.8254 19.401 15.5679 9.87475 8.23126 9.0772
internal_count=496 459 327 276 132 105 83 246 55 204 171 141 121 101 81 51 42 44
is_linear=0
shrinkage=0.05


Tree=40
num_leaves=19
num_cat=0
split_feature=3 4 4 2 0 3 4 4 4 1 3 3 1 4 2 3 3 4
split_gain=2.00303 1.42091 3.94102 1.9029 0.792407 1.45904 0.995802 1.42485 2.17153 1.72239 1.68168 2.96609 1.63353 1.20549 1.42234 2.60925 1.1375 0.782583
threshold=1.5786474129528536 49.545084605343213 49.889904983443245 1.3288918243792693 2.9829881785359622 2.7595438035629729 51.778296162664589 50.45428397231111 50.050452599120327 29.500000000000004 1.9561281442786373 2.2515321772290648 86.500000000000014 49.718386922530037 2.0644208237589381 2.527509642631562 2.3972949468684708 50.761431568441161
decision_type=2 2 2 2 2 2 2 2 2 2 2 2 2 2 2 2 2 2
left_child=1 -1 -3 -4 5 6 7 8 9 16 -9 -12 13 14 -11 -16 -2 -13
right_child=4 2 3 -5 -6 -7 -8 10 -10 12 11 17 -14 -15 15 -17 -18 -19
leaf_value=0.041140715539285999 -0.0050051287352531788 -0.0427204906984891 0.0068264903389403456 0.056724524031890544 0.014856850977489663 -0.031795402611181876 0.020785916357374104 -0.037778052354868613 0.027144939034347271 -0.019736308960282434 0.027070355157423665 -0.0062772286681724541 -0.020623398090330942 0.026333526310643569 0.03315312701856947 -0.014250082928489005 -0.039129248976551817 -0.033913401304918336
leaf_weight=4.2522555291652671 4.9157194495201093 2.9232943281531325 5.3052558787167055 2.9861344993114471 5.7186581492424002 4.58153511583805 4.249048873782157 5.8496490120887783 6.650237724184989 5.5108417868614294 4.6338470727205268 4.7769026458263379 6.2083533406257621 6.6039467304944983 6.2359670475125295 5.4313503056764603 4.8531761169433594 5.5237230956554413
leaf_count=33 26 15 34 18 27 24 20 28 34 26 22 24 29 31 30 24 22 29
internal_value=2.95363e-05 0.0165294 0.0071976 0.0247972 -0.00309248 -0.00444265 -0.00268856 -0.00417298 0.000699514 -0.00372381 -0.015053 -0.00615181 0.00221566 0.00817784 0.00119809 0.0110861 -0.021958 -0.0210972
internal_weight=97.2099 15.4669 11.2147 8.29139 81.743 76.0243 71.4428 67.1937 46.4096 39.7594 20.7841 14.9345 29.9905 23.7821 17.1782 11.6673 9.7689 10.3006
internal_count=496 100 67 52 396 369 345 325 222 188 103 75 140 111 80 54 48 53
is_linear=0
shrinkage=0.05


Tree=41
num_leaves=20
num_cat=0
split_feature=2 4 3 1 3 1 4 4 4 0 4 1 1 1 1 4 3 2 2
split_gain=1.99765 0.754471 1.90447 1.614 1.85604 1.7303 1.45052 2.90733 1.28329 2.05799 1.20397 1.20329 2.03367 1.97708 1.25426 2.80097 0.879132 0.456601 0.167579
threshold=1.1947168325504385 48.844121302534724 2.4835685045763536 83.500000000000014 2.888636743432651 77.500000000000014 49.706666308086433 49.223692330272563 50.790715767136327 2.2628183139926743 49.810571606653298 31.500000000000004 17.500000000000004 10.500000000000002 51.500000000000007 51.045912507977611 1.9694294833131292 2.11084764204936 2.0644208237589381
decision_type=2 2 2 2 2 2 2 2 2 2 2 2 2 2 2 2 2 2 2
left_child=-1 2 18 4 5 6 7 -3 9 -5 -8 12 13 -12 17 -16 -9 -13 -2
right_child=1 3 -4 8 -6 -7 10 16 -10 -11 11 14 -14 -15 15 -17 -18 -19 -20
leaf_value=0.034784687108027582 0.018169778124197799 0.00858811566091933 -0.014406736528510168 -0.019095720760732994 -0.041133464963148701 -0.030378852844051275 0.032149035474920561 -0.017407071120804089 0.036873635639640412 0.02296335484722465 0.020218908633659941 -0.032980085983401124 0.032675532566100951 -0.024431887804265168 0.021760752227697019 -0.032270708595985693 -0.049721757664077264 -0.010705479745649461 0.032976570719156044
leaf_weight=3.9650759398937216 3.836282439529894 7.2010547816753379 4.8919709026813507 5.4947959482669813 3.6879718154668799 5.8886801376938811 3.2956788241863242 3.9462628811597806 3.7246749699115744 6.179175116121769 4.6733637303113955 4.329817086458208 6.3907512724399558 5.2802925258874893 7.2663041055202466 3.5805002525448799 4.5102224051952362 4.9092517197132111 3.8073985278606415
leaf_count=37 21 34 21 25 21 28 16 20 20 32 21 20 32 26 37 19 22 25 19
internal_value=2.88871e-05 -0.00145462 0.00995417 -0.00323434 -0.00668437 -0.00461088 -0.00187109 -0.01476 0.0113198 0.00316666 0.00320894 0.000590864 0.0106644 -0.00346779 -0.00760627 0.00392512 -0.0346419 -0.0211443 0.0255452
internal_weight=96.8595 92.8944 12.5357 80.3588 64.9602 61.2722 55.3835 15.6575 15.3986 11.674 39.726 36.4303 16.3444 9.95366 20.0859 10.8468 8.45649 9.23907 7.64368
internal_count=496 459 61 398 321 300 272 76 77 57 196 180 79 47 101 56 42 45 40
is_linear=0
shrinkage=0.05


Tree=42
num_leaves=19
num_cat=0
split_feature=2 0 0 4 0 3 2 3 1 1 2 3 3 1 1 1 2 3
split_gain=1.8373 0.737615 2.47024 1.51266 1.39035 2.92418 1.91526 2.59961 1.84836 1.40365 1.76261 1.92061 1.99273 2.6909 1.37607 0.710928 1.46743 0.555618
threshold=1.1947168325504385 1.7120192761695143 1.5172257884695755 49.95988797979593 1.9228144157823928 2.1264195533840011 2.2390362773628456 2.3564654670354233 49.500000000000007 11.500000000000002 3.0087765094892567 2.7677125498222419 2.7152289000278782 70.500000000000014 30.500000000000004 49.500000000000007 2.555261588317991 1.8570145648508805
decision_type=2 2 2 2 2 2 2 2 2 2 2 2 2 2 2 2 2 2
left_child=-1 2 3 -2 14 8 -7 -8 -6 -9 11 12 13 15 -3 16 -11 -16
right_child=1 4 -4 -5 5 6 7 9 -10 10 -12 -13 -14 -15 17 -17 -18 -19
leaf_value=0.03367999586286393 -0.027270827273337697 -0.042457867510296517 0.034869579660738406 0.013215627738448081 0.043014482392017606 -0.03157762092696105 0.028559024905165455 -0.033067536045128756 0.0031266632729438611 -0.017758836264525409 0.027107302797418686 -0.03875441821094764 0.029404898339178337 -0.033321672900911217 0.0062033669606332857 0.01949822174319998 0.019502980231239267 -0.017992639069141246
leaf_weight=3.8922555446624747 4.635510325431822 4.0038359165191642 5.6449089646339408 4.5929595306515694 5.6297752708196622 6.1144846677780142 6.1185167431831351 4.4018739014863959 5.9992976486682892 6.9185591936111539 4.2435604408383361 4.1867864951491347 4.175969034433364 7.2722893059253684 4.1561979800462705 4.7849136218428603 4.2747689336538315 5.5288463085889816
leaf_count=37 23 21 33 25 27 29 31 20 28 35 21 22 18 37 20 23 21 25
internal_value=2.67776e-05 -0.0013865 0.00881577 -0.00712094 -0.00333667 -0.000248514 -0.00527425 -0.00180635 0.0224368 -0.00642128 -0.00315012 -0.00721168 -0.00239653 -0.0081083 -0.0178021 0.00336723 -0.00352843 -0.00760927
internal_weight=96.5753 92.6831 14.8734 9.22847 77.8097 64.1208 52.4917 46.3772 11.6291 40.2587 35.8568 31.6133 27.4265 23.2505 13.6889 15.9782 11.1933 9.68504
internal_count=496 459 81 48 378 312 257 228 55 197 177 156 134 116 66 79 56 45
is_linear=0
shrinkage=0.05


Tree=43
num_leaves=19
num_cat=0
split_feature=3 4 4 1 0 3 2 3 1 1 2 3 2 0 3 3 0 2
split_gain=1.69254 1.68063 2.74456 4.4956 0.735322 2.54987 1.73632 2.35781 1.6421 1.2779 1.58253 1.7677 2.42619 1.64641 2.62728 1.60198 1.2087 1.28111
threshold=1.5786474129528536 50.431974306360694 49.545084605343213 56.500000000000007 1.9228144157823928 2.1264195533840011 2.2390362773628456 2.3564654670354233 49.500000000000007 11.500000000000002 3.0087765094892567 2.7677125498222419 2.7755535525899888 2.5174951279636613 2.527509642631562 2.420147685144348 1.7270166385523333 1.8257878506628062
decision_type=2 2 2 2 2 2 2 2 2 2 2 2 2 2 2 2 2 2
left_child=1 2 -1 -4 16 8 -7 -8 -6 -9 11 12 13 15 -15 -11 -2 -18
right_child=4 -3 3 -5 5 6 7 9 -10 10 -12 -13 -14 14 -16 -17 17 -19
leaf_value=0.039836959356941405 0.0082974291589116012 0.047474869275443657 -0.049070745556314514 0.027042646891734124 0.040898596578436329 -0.030126036628774822 0.02727616940898683 -0.031637676173687145 0.0029724612874756752 -0.023167924946010391 0.025527412529757956 -0.037395208363091612 0.031853730664081363 0.007647915565965429 -0.042612868901842557 0.016106665841952441 -0.036863984286671918 -0.0043928144810057744
leaf_weight=4.0946420282125455 5.161469221115115 3.215207874774932 3.8541073799133301 3.9063143655657768 5.4473546296358091 6.0893006026744834 6.0867940485477439 4.371560037136077 5.9951072335243225 3.765952445566664 4.2799157053232184 4.1236469075083724 4.3744168430566779 4.2825249806046468 6.6183347031474113 8.3605509325861913 6.0586308240890485 6.0918614566326141
leaf_count=33 27 24 20 23 26 29 31 20 28 21 21 22 18 22 34 39 31 27
internal_value=2.50044e-05 0.0154126 0.00671707 -0.010758 -0.00283412 -0.000354088 -0.00502738 -0.00172386 0.0210278 -0.00611736 -0.00300152 -0.00687463 -0.00228164 -0.0087662 -0.0228674 0.00390973 -0.0119732 -0.020584
internal_weight=96.1777 15.0703 11.8551 7.76042 81.1074 63.7955 52.353 46.2637 11.4425 40.1769 35.8053 31.5254 27.4018 23.0274 10.9009 12.1265 17.312 12.1505
internal_count=496 100 76 43 396 311 257 228 54 197 177 156 134 116 56 60 85 58
is_linear=0
shrinkage=0.05


Tree=44
num_leaves=19
num_cat=0
split_feature=2 3 0 3 0 3 0 4 1 4 3 3 0 4 0 4 4 4
split_gain=1.6072 0.731449 1.96968 1.24155 2.19375 3.73275 1.59567 1.00044 1.99367 1.87499 0.941358 1.96694 1.79117 1.63733 2.23191 0.902003 0.619663 0.42459
threshold=1.1947168325504385 2.9873076431626173 2.8732258308087051 2.4936678943380053 2.5174951279636613 2.6399087284283067 2.5040465006867185 49.032883745149867 87.500000000000014 49.423732251222056 2.174604142175252 2.323254930800482 1.9228144157823928 50.356198686939265 1.6699275553011097 48.728873695389616 49.880909529712007 50.464966025345724
decision_type=2 2 2 2 2 2 2 2 2 2 2 2 2 2 2 2 2 2
left_child=-1 2 3 6 -5 -6 7 15 9 -9 12 -12 13 16 -15 -2 -11 -14
right_child=1 -3 -4 4 5 -7 -8 8 -10 10 11 -13 17 14 -16 -17 -18 -19
leaf_value=0.032076664885938272 0.0016536612356692914 -0.018824404872098043 0.032667247765291015 0.014115750252865584 -0.058776256941151399 -0.0028137313208493188 0.029837226483068208 -0.035783047889983231 0.02305943490435873 -0.01042808766427194 -0.039984036904909641 0.0020833787297182427 0.031454225365930469 0.039514035088143031 -0.010639281850210942 0.033888714244254659 -0.035488336465454164 0.0091655405522803948
leaf_weight=3.7572594769299021 5.467862240970133 5.5841711908578864 4.341681942343711 5.0456928610801723 4.9314500987529737 7.5288209617137909 4.5573306381702414 5.1039923876523963 6.1700314655899993 5.8412717431783729 4.8170426040887815 6.5666205510497093 4.317414924502371 3.5167268067598325 6.0080437213182449 3.5982975512742996 4.2699234932661057 4.2302174791693687
leaf_count=37 29 30 18 22 27 35 25 25 32 28 23 33 20 23 29 20 20 20
internal_value=2.3678e-05 -0.00128683 -0.0001522 -0.00189052 -0.0136989 -0.0249622 0.00131614 -0.000853536 -0.00358207 -0.00726181 -0.00358271 -0.0157176 0.00131872 -0.00699772 0.00787828 0.0144475 -0.0210109 0.0204236
internal_weight=95.6539 91.8966 86.3124 81.9707 17.506 12.4603 64.4648 59.9074 50.8413 44.6713 39.5673 11.3837 28.1836 19.636 9.52477 9.06616 10.1112 8.54763
internal_count=496 459 429 411 84 62 327 302 253 221 196 56 140 100 52 49 48 40
is_linear=0
shrinkage=0.05


Tree=45
num_leaves=19
num_cat=0
split_feature=3 4 4 1 0 0 0 3 4 1 1 1 2 0 1 0 4 2
split_gain=1.47909 1.489 2.48758 3.94602 0.712585 1.10938 0.795569 3.0083 1.31877 2.04503 1.35716 1.84831 1.63566 1.47644 1.09984 1.06513 1.22095 0.968235
threshold=1.5786474129528536 50.431974306360694 49.545084605343213 56.500000000000007 2.9829881785359622 2.7892688967475898 1.9228144157823928 1.9383939548351321 50.200775420104151 20.500000000000004 30.500000000000004 47.500000000000007 2.2390362773628456 2.5174951279636613 74.500000000000014 1.7270166385523333 50.790715767136327 2.3696359847540172
decision_type=2 2 2 2 2 2 2 2 2 2 2 2 2 2 2 2 2 2
left_child=1 2 -1 -4 5 6 15 -8 10 -10 -9 -12 -13 -14 17 -2 -17 -11
right_child=4 -3 3 -5 -6 -7 7 8 9 14 11 12 13 -15 -16 16 -18 -19
leaf_value=0.038611013716640614 0.0077669316425467488 0.04567833917541924 -0.046012648773685744 0.025657316999839759 0.014399542895726404 -0.023186733000487954 0.044103010313384039 -0.016270178927196573 0.014126202900779636 -0.049221075208791709 0.039586970299170604 -0.018179624916270905 0.029662590339344031 -0.0049715436809638228 -0.0030439988235867726 -0.030870600145151673 0.0027017788697531278 -0.015529261935895261
leaf_weight=3.9666755534708482 5.1312011182308224 3.0541936233639708 3.8377962298691273 3.844400443136692 5.698886200785636 6.8069845661520949 3.7706769555807105 6.2879163473844555 5.0281724035739925 4.6675273105502111 4.2779228910803822 6.0582565814256695 6.6069651618599874 5.7596418932080269 4.3802132010459891 7.948823541402815 4.1076278239488602 3.9261040389537811
leaf_count=33 27 24 20 23 27 33 19 30 24 22 22 28 31 29 24 38 20 22
internal_value=2.1549e-05 0.0146036 0.00645618 -0.0101469 -0.00264324 -0.00394243 -0.00201464 0.00113343 -0.00231443 -0.0129438 0.00428596 0.00997933 0.00310497 0.013532 -0.0234351 -0.0113124 -0.0194325 -0.0338286
internal_weight=95.16 14.7031 11.6489 7.6822 80.4569 74.758 67.951 50.7634 46.9927 18.002 28.9907 22.7028 18.4249 12.3666 12.9738 17.1877 12.0565 8.59363
internal_count=496 100 76 43 396 369 336 251 232 92 140 110 88 60 68 85 58 44
is_linear=0
shrinkage=0.05


Tree=46
num_leaves=19
num_cat=0
split_feature=2 3 0 3 0 3 0 4 1 4 2 0 3 0 1 4 4 4
split_gain=1.40512 0.698097 1.84232 1.12568 1.92945 3.55636 1.41538 0.871016 1.79397 1.73664 0.94964 1.25111 1.88953 2.06548 1.66464 1.107 1.55077 0.840162
threshold=1.1947168325504385 2.9873076431626173 2.8732258308087051 2.4936678943380053 2.5174951279636613 2.6399087284283067 2.5040465006867185 49.032883745149867 87.500000000000014 49.423732251222056 2.3308016276022845 2.1851877422406143 2.0337465846202876 1.9422147721310623 20.500000000000004 50.216450940697371 51.045912507977611 48.728873695389616
decision_type=2 2 2 2 2 2 2 2 2 2 2 2 2 2 2 2 2 2
left_child=-1 2 3 6 -5 -6 7 17 9 -9 11 12 13 14 -11 -16 -17 -2
right_child=1 -3 -4 4 5 -7 -8 8 -10 10 -12 -13 -14 -15 15 16 -18 -19
