tree
version=v4
num_class=1
num_tree_per_iteration=1
label_index=0
max_feature_idx=4
objective=binary sigmoid:1
feature_names=Column_0 Column_1 Column_2 Column_3 Column_4
feature_infos=[0.67633663261485077:3.4580558934166801] [1:99] [0.75992232686778782:3.3373073147105741] [0.9150866969376964:3.2618861939624688] [46.521198595082176:52.821787810645809]
tree_sizes=1732 1669 1665 1668 1678 1681 1580 1684 1785 1477 1692 1779 1678 1586 1583 1680 1680 1789 1687 1897 1586 1694 1794 1786 1792 1796 1791 1793 1794 1901 2009 1801 1692 1690 1803 1698 1803 1907 1794 1787 2017 1901 1487 1809 1796 1804 2011 2016 1689 2013

Tree=0
num_leaves=16
num_cat=0
split_feature=3 0 2 3 2 4 4 4 4 1 1 4 0 1 4
split_gain=47.0228 13.8842 12.1042 8.80951 8.10298 6.50763 5.53192 14.4128 3.07538 2.61735 3.59637 1.98845 1.91605 1.23514 0.389831
threshold=2.3130462157451186 1.1552388352808822 2.0862448218666576 1.7599640365175429 1.8257878506628062 49.339748536897979 49.472731887792811 49.950535200781395 50.776261720707801 83.500000000000014 31.500000000000004 49.870271873318856 2.6708471838664196 54.500000000000007 50.08275662832154
decision_type=2 2 2 2 2 2 2 2 2 2 2 2 2 2 2
left_child=1 -1 3 6 -5 12 -3 -8 11 10 -7 -6 -2 -9 -12
right_child=5 2 -4 4 8 9 7 13 -10 -11 14 -13 -14 -15 -16
leaf_value=0.39374390679297905 0.14330774613298369 0.3487938266745183 0.36677385872190266 0.10297307602668643 0.23962934638682806 0.1282574960933206 0.11864941646799959 0.27574994648201973 0.29260622652644247 0.15469120798116531 0.059549832868771191 0.15101347415329125 0.22824588453864644 0.34097642143652518 0.022905745815678252
leaf_weight=7.415633797645568 5.1909436583518964 6.6740704178810146 7.415633797645568 7.9100093841552761 5.1909436583518964 7.9100093841552797 6.17969483137131 5.9325070381164533 4.943755865097045 5.4381314516067496 5.685319244861601 4.9437558650970459 5.4381314516067505 5.6853192448616028 5.9325070381164551
leaf_count=30 21 27 30 32 21 32 25 24 20 22 23 20 22 23 24
internal_value=0.212922 0.265315 0.24796 0.229395 0.184944 0.121234 0.271153 0.242037 0.227944 0.093335 0.0762484 0.196402 0.186764 0.307669 0.040838
internal_weight=97.8864 62.2913 54.8757 47.4601 22.9885 35.595 24.4716 17.7975 15.0785 24.966 19.5278 10.1347 10.6291 11.6178 11.6178
internal_count=396 252 222 192 93 144 99 72 61 101 79 41 43 47 47
is_linear=0
shrinkage=1


Tree=1
num_leaves=15
num_cat=0
split_feature=3 0 2 3 2 4 4 4 3 0 4 4 2 4
split_gain=38.0728 11.7269 10.1083 7.19846 6.49545 5.17822 4.62317 12.1794 2.56656 6.97715 2.51727 1.60265 1.57726 1.0832
threshold=2.3130462157451186 1.1552388352808822 2.0862448218666576 1.7599640365175429 1.8257878506628062 49.339748536897979 49.472731887792811 50.206700103482191 2.9489755962915125 2.6708471838664196 50.776261720707801 49.870271873318856 2.6395295274388277 50.464966025345724
decision_type=2 2 2 2 2 2 2 2 2 2 2 2 2 2
left_child=1 -1 3 6 -5 12 -3 -8 9 13 11 -6 -2 -7
right_child=5 2 -4 4 10 8 7 -9 -10 -11 -12 -13 -14 -15
leaf_value=0.16745267228778879 -0.059246172548102355 0.12474390774016253 0.14172304545484524 -0.09804766919144528 0.024112994659875861 -0.10219786161822229 -0.058339029622375187 0.10759592844588757 -0.16232605127852751 -0.0016543911725500717 0.072475820592237714 -0.05538728948999716 0.017919360986278676 -0.16058080075441353
leaf_weight=7.2166603803634635 5.714732348918913 6.5487957000732449 7.2533185780048361 7.9788303375244167 5.175348758697508 6.4818471223115974 8.6616452336311358 9.039838105440138 6.2311779409646979 6.2310910671949378 4.8944857716560355 4.971601665019989 4.9373897761106491 6.2344201803207397
leaf_count=30 23 27 30 32 21 26 35 37 25 25 20 20 20 25
internal_value=7.25212e-05 0.0476596 0.031804 0.0149378 -0.0251146 -0.0819257 0.0529586 0.0264011 -0.106652 -0.0883431 0.0135733 -0.014839 -0.023479 -0.130821
internal_weight=97.5712 61.7405 54.5239 47.2705 23.0203 35.8307 24.2503 17.7015 25.1785 18.9474 15.0414 10.147 10.6521 12.7163
internal_count=396 252 222 192 93 144 99 72 101 76 61 41 43 51
is_linear=0
shrinkage=0.1


Tree=2
num_leaves=15
num_cat=0
split_feature=3 0 2 3 2 0 3 4 4 3 0 4 4 1
split_gain=31.019 10.0845 8.53691 5.9052 5.24409 4.20787 12.2829 3.90388 10.0976 3.81543 2.37193 2.06467 1.29446 1.20366
threshold=2.3130462157451186 1.1552388352808822 2.0862448218666576 1.7599640365175429 1.8257878506628062 2.7575405255629524 2.9873076431626173 49.472731887792811 49.950535200781395 2.5769296818235676 2.4934737077920754 50.776261720707801 49.870271873318856 54.500000000000007
decision_type=2 2 2 2 2 2 2 2 2 2 2 2 2 2
left_child=1 -1 3 7 -5 9 -7 -3 -9 10 -2 12 -6 -10
right_child=5 2 -4 4 11 6 -8 8 13 -11 -12 -13 -14 -15
leaf_value=0.1570526008462102 -0.1068307700201125 0.11529662401989296 0.13171195598532112 -0.087993080559028172 0.021770893339757319 0.07384940163500929 -0.11802936484435123 -0.078100181189930562 0.048452671318731336 -0.16154237374063957 -0.027856655525489795 0.066044667997957163 -0.049668714588515857 0.11367323175996789
leaf_weight=6.9391523301601401 8.7361213564872759 6.3853039294481304 7.0353358983993521 7.9999513626098659 5.1597507297992689 6.202806890010832 7.2187625765800476 6.2443200498819378 5.7969238460063917 6.973878785967826 6.7349433004856101 4.8370262980461112 4.9885869026184082 5.5280933529138565
leaf_count=30 35 27 30 32 21 25 29 25 24 28 27 20 20 23
internal_value=0.000133189 0.0435745 0.0289856 0.013589 -0.0226199 -0.0736461 -0.0293522 0.0483328 0.0239958 -0.100133 -0.0724514 0.0122797 -0.0133465 0.0802889
internal_weight=96.781 60.9144 53.9753 46.94 22.9853 35.8665 13.4216 23.9546 17.5693 22.4449 15.4711 14.9854 10.1483 11.325
internal_count=396 252 222 192 93 144 54 99 72 90 62 61 41 47
is_linear=0
shrinkage=0.1


Tree=3
num_leaves=15
num_cat=0
split_feature=3 2 2 3 2 2 4 4 4 1 1 1 1 3
split_gain=25.3925 9.25142 7.21753 4.94927 5.71996 4.25572 3.96697 2.74351 6.73481 1.85376 2.92309 1.775 1.43719 1.36241
threshold=2.3130462157451186 1.10618019071655 2.0862448218666576 1.7599640365175429 1.2251624504125582 1.8257878506628062 49.339748536897979 50.182963835215496 49.472731887792811 83.500000000000014 21.500000000000004 52.500000000000007 52.500000000000007 2.7595438035629729
decision_type=2 2 2 2 2 2 2 2 2 2 2 2 2 2
left_child=1 -1 3 4 -3 -5 12 8 -6 10 -8 -7 -2 -12
right_child=6 2 -4 5 7 11 9 -9 -10 -11 13 -13 -14 -15
leaf_value=0.15684623811497544 -0.054898459474226294 -0.051362245362967351 0.12322449475588593 -0.079334700556020321 0.11761164041401487 -0.02070509433193209 -0.044272128853682646 0.11285617766934926 -0.039494865627506752 -0.036798670326394091 -0.10238416446421759 0.0485108320234778 0.018659226332598724 -0.1669400610963378
leaf_weight=6.0874565541744223 4.9555151611566526 4.947346746921542 6.7811027169227591 7.9862155914306667 5.2790304422378558 8.0581943094730359 5.9694586843252244 8.229971915483473 5.6477369368076324 5.4734439998865119 8.1780737787485105 6.8582858443260184 5.7246302217245102 5.4462691843509665
leaf_count=27 20 21 30 32 23 33 24 35 23 22 33 28 23 22
internal_value=0.000185567 0.0400028 0.026779 0.0128659 0.0444952 -0.0204224 -0.0665065 0.0692509 0.0364077 -0.0882507 -0.102624 0.0111189 -0.015471 -0.12819
internal_weight=95.6227 59.8753 53.7879 47.0068 24.1041 22.9027 35.7474 19.1567 10.9268 25.0672 19.5938 14.9165 10.6801 13.6243
internal_count=396 252 225 195 102 93 144 81 46 101 79 61 43 55
is_linear=0
shrinkage=0.1


Tree=4
num_leaves=15
num_cat=0
split_feature=3 0 0 4 1 0 3 3 4 4 2 0 3 3
split_gain=20.9647 8.51478 5.83011 5.57147 4.67291 4.35521 9.80524 4.22731 5.12978 4.28948 4.20588 2.68933 4.93141 1.67848
threshold=2.3840865432386913 1.1552388352808822 2.1680041386195961 48.846692721899707 85.500000000000014 2.7575405255629524 2.9873076431626173 1.7599640365175429 50.206700103482191 49.597708444184519 1.8257878506628062 2.4309922375664006 2.4970353830926344 2.0123250107876753
decision_type=2 2 2 2 2 2 2 2 2 2 2 2 2 2
left_child=1 -1 3 -3 7 11 -7 8 9 -5 -9 -2 -13 -12
right_child=5 2 -4 4 -6 6 -8 10 -10 -11 13 12 -14 -15
leaf_value=0.14447879523830962 -0.038143465101208883 0.10255543687323428 0.11464572482169927 0.041513302634887138 0.077611404934354311 0.072914288043666883 -0.099260128298052017 -0.11790270016135995 0.080049444625658134 -0.090605787249715575 0.012667325405824423 -0.040723997185630911 -0.16386032300590794 -0.061417536505458149
leaf_weight=6.3670035898685446 6.1748955845832851 5.8206609636545172 6.076713189482688 4.646475479006769 6.3283846378326407 6.1821064054965955 7.1138294488191605 5.9606115818023708 7.8300566822290412 5.2159419804811478 7.8300302624702436 5.2166920602321616 8.637321785092352 5.0180137753486633
leaf_count=30 25 25 27 20 27 25 29 24 34 21 32 21 35 21
internal_value=0.000225823 0.0350275 0.0222938 0.0107585 -0.001717 -0.0635756 -0.0192055 -0.0154706 0.0196178 -0.0283606 -0.0484767 -0.0930301 -0.117494 -0.0162677
internal_weight=94.4187 61.0939 54.7269 48.6502 42.8295 33.3248 13.2959 36.5011 17.6925 9.86242 18.8087 20.0289 13.854 12.848
internal_count=396 261 231 204 179 135 54 152 75 41 77 81 56 53
is_linear=0
shrinkage=0.1


Tree=5
num_leaves=15
num_cat=0
split_feature=3 2 2 4 4 2 2 4 1 1 4 4 4 3
split_gain=17.4631 7.5155 5.63803 3.87316 4.89931 5.56533 5.45139 3.43953 2.24015 2.75418 1.63404 3.64416 1.20751 0.99732
threshold=2.3130462157451186 1.10618019071655 2.0862448218666576 48.846692721899707 50.228920095777333 1.6914643240412015 1.8257878506628062 49.229201404157571 80.500000000000014 21.500000000000004 49.921661068385355 49.712772737471248 50.228920095777333 1.629971144620652
decision_type=2 2 2 2 2 2 2 2 2 2 2 2 2 2
left_child=1 -1 3 -3 10 -6 -7 -2 9 -9 11 13 -11 -5
right_child=7 2 -4 4 5 6 -8 8 -10 12 -12 -13 -14 -15
leaf_value=0.14519072353253326 -0.0035134962995391466 0.090815695461609225 0.1111465701344026 -0.020986404862904057 0.10709575528936094 -0.080122247272182825 0.047017075746788366 -0.035883640860542951 -0.026332552694013436 -0.090563811760475746 -0.084680611061568656 0.051551954453372219 -0.15232802819330749 -0.085276705609832623
leaf_weight=5.5068119019269934 9.4172630310058576 5.2792888283729544 6.2929700314998618 4.6246468424797076 6.8798331171274212 5.5246084183454505 8.6571872979402524 5.9200773984193864 7.1094836145639411 7.0276390612125379 5.1234940737485877 4.8687055706977835 5.759403795003891 5.0453484952449799
leaf_count=27 38 23 30 20 31 23 36 24 29 29 21 20 24 21
internal_value=0.000246563 0.0340717 0.0223707 0.0102267 -0.000220564 0.0332924 -0.00251085 -0.0552452 -0.0741156 -0.0922752 -0.0361188 -0.0190054 -0.118383 -0.0545301
internal_weight=93.0368 57.8029 52.2961 46.0031 40.7238 21.0616 14.1818 35.2339 25.8166 18.7071 19.6622 14.5387 12.787 9.67
internal_count=396 252 225 195 172 90 59 144 106 77 82 61 53 41
is_linear=0
shrinkage=0.1


Tree=6
num_leaves=14
num_cat=0
split_feature=3 0 0 1 4 0 3 3 4 4 0 3 0
split_gain=14.3802 6.72075 5.02998 3.96147 3.68363 2.96419 7.88928 2.66249 3.61031 3.68685 3.54296 2.24056 1.8428
threshold=2.3130462157451186 1.1552388352808822 2.1279289341940406 85.500000000000014 48.846692721899707 2.7575405255629524 2.9873076431626173 1.7599640365175429 50.206700103482191 49.597708444184519 1.9216942838837896 2.5769296818235676 2.4934737077920754
decision_type=2 2 2 2 2 2 2 2 2 2 2 2 2
left_child=1 -1 3 4 -3 11 -7 8 9 -6 -9 12 -2
right_child=5 2 -4 -5 7 6 -8 10 -10 -11 -12 -13 -14
leaf_value=0.13461973311476896 -0.082502634433472125 0.079691694360536719 0.11926090500208145 0.084825246202529958 0.040558596887154935 0.069890770499258667 -0.085728688969129385 -0.084143943569688878 0.067959307064301047 -0.081942477461442995 0.0042861765159359156 -0.12130983420922373 -0.012381478148827181
leaf_weight=5.6698912531137458 8.5142532140016574 4.9167229235172263 4.630222722887992 6.1358501911163321 4.640259191393854 6.1471315622329694 6.9305482804775238 8.9666396826505679 7.4424835592508307 5.221312090754509 9.1582220792770368 6.6265528351068488 6.6947170346975318
leaf_count=30 35 22 23 27 20 25 29 37 34 21 38 28 27
internal_value=0.000272244 0.0313251 0.0198664 0.00996533 -0.00141952 -0.050231 -0.0125801 -0.0126759 0.0153803 -0.0243009 -0.0394615 -0.0727807 -0.0516366
internal_weight=91.6948 56.7816 51.1117 46.4815 40.3456 34.9132 13.0777 35.4289 17.3041 9.86157 18.1249 21.8355 15.209
internal_count=396 252 222 199 172 144 54 150 75 41 75 90 62
is_linear=0
shrinkage=0.1


Tree=7
num_leaves=15
num_cat=0
split_feature=3 2 0 4 4 3 0 2 3 3 0 3 3 2
split_gain=11.9521 6.43931 4.46435 3.24364 3.09131 3.06863 5.37834 3.02337 6.1555 3.32385 2.49607 1.76159 1.18457 0.439871
threshold=2.3840865432386913 1.10618019071655 2.2456290728370947 48.846692721899707 50.765623317681396 1.7599640365175429 1.5052332028755988 2.7262297870218783 2.9873076431626173 2.5769296818235676 1.9216942838837896 1.7902216338270078 2.4603144277011162 1.2714924356544557
decision_type=2 2 2 2 2 2 2 2 2 2 2 2 2 2
left_child=1 -1 3 -3 5 6 13 9 -9 12 -7 -6 -2 -5
right_child=7 2 -4 4 11 10 -8 8 -10 -11 -12 -13 -14 -15
leaf_value=0.13724343545275938 -0.080032344182918658 0.081378574677989604 0.11294643461437082 -0.05831554284744659 0.089664749345157321 -0.099930416978812692 0.08012624692587661 0.050804721129211819 -0.080651449265538522 -0.14635753353123745 -0.015992293122168714 0.011879479236901766 -0.019934909188622955 -0.014920427599615774
leaf_weight=4.8928721249103537 6.4738968908786791 5.4264678806066504 4.4716064035892478 4.7135117202997261 4.7163320928812009 6.0621622055768958 6.7922621965408316 7.214758560061453 7.0357367247343063 4.8653373271226874 8.5243804454803449 7.6079229116439819 6.6476893723011017 4.6305866986513138
leaf_count=27 27 25 22 21 22 25 30 30 30 21 36 33 27 20
internal_value=0.000288319 0.0274834 0.0173401 0.00852058 -0.000663801 -0.0176364 0.0124115 -0.0485032 -0.0140977 -0.0757618 -0.0508769 0.0416469 -0.0495856 -0.0368105
internal_weight=90.0755 57.8381 52.9452 48.4736 43.0472 30.7229 16.1364 32.2374 14.2505 17.9869 14.5865 12.3243 13.1216 9.3441
internal_count=396 261 234 212 187 132 71 135 60 75 61 55 54 41
is_linear=0
shrinkage=0.1


Tree=8
num_leaves=16
num_cat=0
split_feature=3 0 0 4 3 0 4 4 4 2 4 4 1 4 1
split_gain=10.0466 5.75994 4.19309 3.18901 2.84237 3.42034 2.96766 2.8388 2.34387 2.03004 1.78186 2.08082 1.73253 1.57331 1.53457
threshold=2.3130462157451186 1.1552388352808822 2.0605032612047371 48.846692721899707 1.7599640365175429 1.5385548082795562 50.711627103515461 49.414220814242931 49.950535200781395 2.1167921620333883 49.807503100485924 50.247049069972114 52.500000000000007 50.877239733957431 54.500000000000007
decision_type=2 2 2 2 2 2 2 2 2 2 2 2 2 2 2
left_child=1 -1 3 -3 5 8 14 12 -5 -4 -9 -12 -2 -13 -6
right_child=7 2 9 4 6 -7 -8 10 -10 -11 11 13 -14 -15 -16
leaf_value=0.12869408912052846 -0.044072875498480615 0.083533347934901817 0.034503803828081943 -0.052743289885695877 -0.10766473091992856 0.075427028722559242 0.015217124809766731 -0.1144467772960691 0.034290011576952641 0.13207098551013863 0.0026371870803950336 -0.10346050916990168 0.034806475588294576 -0.030683221795465673 -0.030801642450254019
leaf_weight=5.0399096757173529 5.1241437494754773 4.4134675413370124 4.5593385398387891 6.5808375030756014 5.2565847933292407 7.0399098396301261 6.8186445385217658 5.1428280174732235 5.8404887765645981 4.0064957588911057 5.6264002323150661 6.6685824543237668 6.0986451357603073 5.3563978672027588 5.1347191631793976
leaf_count=30 21 21 20 28 22 32 29 22 27 22 24 29 25 23 21
internal_value=0.000292772 0.026834 0.0164944 0.00322505 -0.00644025 0.0197405 -0.0360458 -0.0423786 -0.0118204 0.0801389 -0.0626488 -0.0475571 -0.00120856 -0.0710427 -0.0696839
internal_weight=88.7074 54.6904 49.6505 41.0847 36.6712 19.4612 17.2099 34.017 12.4213 8.56583 22.7942 17.6514 11.2228 12.025 10.3913
internal_count=396 252 222 180 159 87 72 144 55 42 98 76 46 52 43
is_linear=0
shrinkage=0.1


Tree=9
num_leaves=13
num_cat=0
split_feature=3 2 0 1 4 4 2 4 2 1 1 0
split_gain=8.2877 5.41099 3.56531 2.68528 2.48052 2.76354 4.20263 2.4143 1.9582 1.79965 2.50078 1.21854
threshold=2.3130462157451186 1.10618019071655 2.1279289341940406 85.500000000000014 49.103125843754462 50.228920095777333 1.6914643240412015 49.229201404157571 1.9265540713199241 80.500000000000014 36.500000000000007 1.7746333053310017
decision_type=2 2 2 2 2 2 2 2 2 2 2 2
left_child=1 -1 3 4 -3 11 -7 -2 -8 10 -9 -6
right_child=7 2 -4 -5 5 6 8 9 -10 -11 -12 -13
leaf_value=0.13207355353743752 0.0047586931809441386 0.054780604159585668 0.1061208338991116 0.071962790773987012 -0.069433272859065281 0.085674060629269966 -0.051150727046974348 -0.034706031820211057 0.030984281077515614 -0.011676345293166357 -0.11026691596503833 -0.012937805136822919
leaf_weight=4.3181370794773093 9.3117895871400815 6.4801553040742865 3.9764074236154547 5.6345245689153662 8.4333338588476163 5.6031793355941799 7.4087014645338041 8.8512282222509437 4.7725424915552139 6.8592917174100867 8.6708946973085386 6.9757684469223014
leaf_count=27 38 31 23 26 36 28 32 38 20 29 39 29
internal_value=0.000307303 0.0247359 0.0153313 0.00736331 -0.00181122 -0.0128593 0.0139988 -0.0385562 -0.0189707 -0.0550992 -0.0720976 -0.0438575
internal_weight=87.296 53.6027 49.2846 45.3082 39.6737 33.1935 17.7844 33.6932 12.1812 24.3814 17.5221 15.4091
internal_count=396 252 225 202 176 145 80 144 52 106 77 65
is_linear=0
shrinkage=0.1


Tree=10
num_leaves=15
num_cat=0
split_feature=0 3 0 0 3 0 3 3 0 0 4 4 1 1
split_gain=7.12302 4.78882 3.44138 2.71967 5.57751 2.61963 4.02941 2.11908 2.85776 3.54045 4.38506 2.74361 2.60675 1.92049
threshold=1.1552388352808822 2.3840865432386913 2.2456290728370947 2.7575405255629524 2.9873076431626173 2.4309922375664006 2.4970353830926344 2.0339393098354965 1.9216942838837896 1.7893410674678789 49.472731887792811 49.950535200781395 49.500000000000007 52.500000000000007
decision_type=2 2 2 2 2 2 2 2 2 2 2 2 2 2
left_child=-1 2 7 5 -5 -3 -7 8 9 10 -2 -12 -10 -13
right_child=1 3 -4 4 -6 6 -8 -9 12 -11 11 13 -14 -15
leaf_value=0.1240127478273899 0.089048391562287429 -0.0054811721926872172 0.10244347752292289 0.067477959875101676 -0.065737856256257068 -0.016850353000871437 -0.13174593536673995 -0.052593999013589569 0.11258254398335368 -0.061161690519332929 -0.061372363301334255 -0.025274350796073576 0.0089831361203860406 0.058842302779928607
leaf_weight=4.4163020253181449 6.2619878798723283 5.7524124234914842 3.9367052912712088 6.0856058299541456 6.4995511919260025 5.0195703953504545 7.7883959114551544 5.6049768328666678 4.8148204386234266 7.5957742780446997 6.2783020138740566 4.8826227337121946 4.9009927958250046 6.1117090135812759
leaf_count=30 30 25 22 25 29 21 35 26 21 33 26 23 21 29
internal_value=0.000318841 -0.00638111 0.0126727 -0.0372067 -0.00132079 -0.0615397 -0.0867172 0.00506467 0.0129767 -0.00180026 0.0173586 -0.00863171 0.0603234 0.0214858
internal_weight=85.9497 81.5334 50.3879 31.1455 12.5852 18.5604 12.808 46.4512 40.8462 31.1304 23.5346 17.2726 9.71581 10.9943
internal_count=396 366 231 135 54 81 56 209 183 141 108 78 42 52
is_linear=0
shrinkage=0.1


Tree=11
num_leaves=16
num_cat=0
split_feature=2 3 2 4 2 3 2 4 4 4 4 1 4 4 3
split_gain=6.46801 4.00512 3.02625 2.10605 2.01155 3.4757 2.1798 1.88967 3.27661 1.49439 1.88141 1.46781 1.29224 1.2511 1.09359
threshold=1.10618019071655 2.3130462157451186 2.0862448218666576 49.414220814242931 1.2251624504125582 1.7493676038328669 1.8257878506628062 50.356198686939265 49.472731887792811 49.807503100485924 50.247049069972114 52.500000000000007 50.776261720707801 50.690873056722609 1.9574170572000846
decision_type=2 2 2 2 2 2 2 2 2 2 2 2 2 2 2
left_child=-1 2 4 11 -2 7 -7 8 -6 -5 -11 -3 14 -12 -8
right_child=1 3 -4 9 5 6 12 -9 -10 10 13 -13 -14 -15 -16
leaf_value=0.12836854227642822 -0.058998922161167103 -0.036873099698010836 0.087224673083338755 -0.099749068890771633 0.090485327593552212 -0.056055014946230587 0.022361604887657784 0.097264290766813907 -0.021413497508214582 0.01165753825994047 -0.096973546257593246 0.036225684930200112 0.052758426460597078 -0.03035960236357705 -0.043511068349816509
leaf_weight=3.7689988166093817 4.4988189488649359 5.0482306182384473 4.8990301191806784 4.8275498896837261 4.3834138512611407 7.8774741291999844 4.977872893214224 5.139571100473403 6.4930644035339355 5.4560583382844952 5.0398117303848249 6.0258316546678543 4.6448117196559897 6.3995674252510071 5.1047748029232025
leaf_count=27 21 21 30 22 23 34 21 27 28 24 23 25 20 29 21
internal_value=0.000320078 -0.0056517 0.0127463 -0.0325886 0.0042845 0.0116562 -0.0135953 0.0472958 0.0236837 -0.0506816 -0.0366615 0.00290282 0.00911576 -0.0597075 -0.0109893
internal_weight=84.5849 80.8159 48.0188 32.797 43.1198 38.621 22.6049 16.016 10.8765 21.723 16.8954 11.0741 14.7275 11.4394 10.0826
internal_count=396 369 225 144 195 174 96 78 51 98 76 46 62 52 42
is_linear=0
shrinkage=0.1


Tree=12
num_leaves=15
num_cat=0
split_feature=0 3 0 2 3 0 3 1 4 4 1 1 4 3
split_gain=5.93265 3.24216 2.81785 2.50638 4.67348 3.54411 4.5049 2.05563 3.37586 3.14157 2.07443 1.80613 1.30027 1.20008
threshold=1.1552388352808822 2.3840865432386913 2.2456290728370947 2.7262297870218783 2.9873076431626173 2.386615418061758 2.4970353830926344 52.500000000000007 49.558584499888802 50.228920095777333 61.500000000000007 85.500000000000014 49.814846733160842 1.7902216338270078
decision_type=2 2 2 2 2 2 2 2 2 2 2 2 2 2
left_child=-1 2 7 5 -5 -3 -7 8 -2 -10 -9 12 -12 -11
right_child=1 3 -4 4 -6 6 -8 10 9 13 11 -13 -14 -15
leaf_value=0.1209956324087415 0.045524209983463987 0.020641347855689315 0.094892390321794695 0.057488257021245319 -0.060379553856855478 -0.022321943387451006 -0.1424823486710266 0.089501004270373691 -0.09342006110699988 0.030640170968053566 0.017759466802579341 0.051776992049294729 -0.053886915783534363 -0.035026137258995962
leaf_weight=3.8846984654664984 6.5095850229263332 4.360031843185431 3.6473148614168158 7.0035679489374143 6.4731211364269257 6.0707492679357511 6.4192007333040237 4.1863363981246975 6.5964785367250469 4.9039175510406476 5.4476807266473788 6.5446373075246802 4.7344847917556763 6.4352230727672577
leaf_count=30 32 19 22 30 30 26 30 20 28 24 24 32 21 28
internal_value=0.000335222 -0.00557321 0.0103299 -0.0312714 0.000874009 -0.0569815 -0.0840783 0.00353012 -0.0161604 -0.0385483 0.0265462 0.01079 -0.0155545 -0.00662697
internal_weight=83.217 79.3323 49.0057 30.3267 13.4767 16.85 12.49 45.3583 24.4452 17.9356 20.9131 16.7268 10.1822 11.3391
internal_count=396 366 231 135 60 75 56 209 112 80 97 77 45 52
is_linear=0
shrinkage=0.1


Tree=13
num_leaves=14
num_cat=0
split_feature=3 3 0 4 1 1 1 4 4 2 2 4 0
split_gain=5.43416 2.81575 2.46978 1.95404 1.66223 1.63066 2.24005 1.51638 1.26735 3.03517 1.5505 1.32574 2.88715
threshold=1.1148035000433394 2.3130462157451186 2.1279289341940406 49.229201404157571 85.500000000000014 80.500000000000014 36.500000000000007 48.846692721899707 50.228920095777333 1.6914643240412015 1.9265540713199241 49.541025986720534 1.7746333053310017
decision_type=2 2 2 2 2 2 2 2 2 2 2 2 2
left_child=-1 2 4 -3 7 6 -5 -2 11 -10 -11 -9 -13
right_child=1 3 -4 5 -6 -7 -8 8 9 10 -12 12 -14
leaf_value=0.12959530039558512 0.052079178377923974 0.011507681245113973 0.09439991065990766 -0.024312235204942793 0.058026760364943954 -0.00092910138962324241 -0.09828078706641287 0.0093491151702985997 0.074166345363466155 -0.047003779468957146 0.02670539741937987 -0.094082246163185931 0.0092317822606092347
leaf_weight=3.1272446215152732 4.4747485294938079 9.112270772457121 3.2873922437429419 8.4715639352798515 5.119961366057395 6.5178954452276221 7.9233424961566916 5.8113121017813709 5.0759328380227116 7.2795500606298429 4.6940913200378418 6.2914463430643064 4.744876965880394
leaf_count=24 24 38 23 38 25 29 39 28 28 32 20 28 20
internal_value=0.000314257 -0.00481609 0.010824 -0.0276618 0.00450685 -0.0432392 -0.0600598 -0.0026343 -0.00985699 0.00936414 -0.0181072 -0.0293085 -0.0496642
internal_weight=81.9316 78.8044 46.7793 32.0251 43.4919 22.9128 16.3949 38.372 33.8972 17.0496 11.9736 16.8476 11.0363
internal_count=396 372 228 144 205 106 77 180 156 80 52 76 48
is_linear=0
shrinkage=0.1


Tree=14
num_leaves=14
num_cat=0
split_feature=0 3 2 0 3 0 3 1 1 1 1 0 0
split_gain=4.99242 2.21242 2.21659 1.88479 4.01218 1.31596 4.59192 1.18701 2.98109 2.03789 1.8286 1.67432 1.6903
threshold=1.1552388352808822 2.3130462157451186 2.0862448218666576 2.7575405255629524 2.9873076431626173 2.3752403803557169 2.4970353830926344 52.500000000000007 33.500000000000007 61.500000000000007 17.500000000000004 1.7893410674678789 1.427623368704525
decision_type=2 2 2 2 2 2 2 2 2 2 2 2 2
left_child=-1 2 7 5 -5 -3 -7 8 10 -9 -2 12 -11
right_child=1 3 -4 4 -6 6 -8 9 -10 11 -12 -13 -14
leaf_value=0.11869842647976965 -0.017396265109806085 0.0010427210558837565 0.077552481898095979 0.06396093357240798 -0.051361798838791418 -0.0050155614620478869 -0.11648736262999476 0.08337319606714011 -0.062252018923611055 -0.014942506361214714 0.054542773920521773 -0.038507891412631882 0.071834753671698837
leaf_weight=3.4114110320806494 8.1537370085716265 4.8181096464395585 4.2960817962884894 5.9900837540626508 6.0778554230928421 7.6122793704271299 7.1819306761026382 4.0555093884468105 8.0377904474735242 4.2979386225342733 6.2355007976293555 5.8050243705511084 4.6985912024974823
leaf_count=30 38 21 30 25 29 33 36 20 37 21 29 25 22
internal_value=0.000310797 -0.00491657 0.00919132 -0.0252144 0.00588019 -0.0443476 -0.0591302 0.00207755 -0.0134709 0.0205696 0.0137781 0.00336187 0.0303784
internal_weight=80.6718 77.2604 45.5802 31.6803 12.0679 19.6123 14.7942 41.2841 22.427 18.8571 14.3892 14.8016 8.99653
internal_count=396 366 222 144 54 90 69 192 104 88 67 68 43
is_linear=0
shrinkage=0.1


Tree=15
num_leaves=15
num_cat=0
split_feature=2 3 0 2 2 3 3 2 4 4 1 1 1 0
split_gain=4.52601 1.85402 2.06215 2.04758 1.76901 3.4362 2.01375 3.11372 1.6001 3.11782 2.65318 0.992587 1.11275 1.02751
threshold=1.10618019071655 2.3130462157451186 2.0605032612047371 2.11084764204936 2.7262297870218783 2.9873076431626173 2.5611939580540199 2.499221962648523 48.846692721899707 49.712772737471248 81.500000000000014 17.500000000000004 37.500000000000007 1.7615607622294089
decision_type=2 2 2 2 2 2 2 2 2 2 2 2 2 2
left_child=-1 2 8 -4 6 -6 7 -3 -2 -10 11 -11 -13 -14
right_child=1 4 3 -5 5 -7 -8 -9 9 10 -12 12 13 -15
leaf_value=0.12279255407887185 0.060775464077285526 -0.060741946257628333 0.010635359821778436 0.11944324479969166 0.053947480569788056 -0.049226000443783995 -0.1012267688464052 0.037938155098956823 -0.061678896733364769 -0.043555842904635197 0.08245368992470975 0.049516715512685584 -0.03493331396842525 0.021640524804903114
leaf_weight=2.9062675312161437 3.8293957412242881 8.6265154182910972 3.9442463740706435 3.0800539627671242 6.8207576572895032 6.128499761223793 4.505526900291442 5.0808937698602668 8.0953842997550947 5.0276274979114595 4.1691030710935584 4.5297222435474422 6.7709227949380857 6.1050043553113937
leaf_count=27 21 38 18 24 30 30 24 22 37 23 21 21 34 26
internal_value=0.000298339 -0.00434231 0.008516 0.058346 -0.023138 0.00511853 -0.0432281 -0.0241644 -0.000569053 -0.0073393 0.00919681 -0.00441758 0.00688752 -0.00810934
internal_weight=79.6199 76.7137 45.5515 7.0243 31.1622 12.9493 18.2129 13.7074 38.5272 34.6978 26.6024 22.4333 17.4056 12.8759
internal_count=396 369 225 42 144 60 84 60 183 162 125 104 81 60
is_linear=0
shrinkage=0.1


Tree=16
num_leaves=15
num_cat=0
split_feature=2 2 2 2 3 1 4 1 4 4 3 3 4 1
split_gain=3.35314 1.55578 3.03002 2.6324 7.05379 1.99476 2.03133 2.68016 1.411 2.64707 1.17987 1.5892 1.06935 1.66673
threshold=1.1310407587065012 1.7404784491737926 1.2251624504125582 1.8257878506628062 1.8751630850639076 67.500000000000014 49.268483578253729 46.500000000000007 50.356198686939265 49.558584499888802 2.3130462157451186 2.7107762909263111 49.950535200781395 19.500000000000004
decision_type=2 2 2 2 2 2 2 2 2 2 2 2 2 2
left_child=-1 2 -2 -3 -5 6 -6 12 9 -4 -7 -12 -8 -14
right_child=1 3 8 4 5 10 7 -9 -10 -11 11 -13 13 -15
leaf_value=0.10020033771555814 -0.058030620447662357 -0.066027778821198896 0.089188654342241755 0.1518925668519113 0.014847196008183081 0.05678021557324852 0.016380435448208469 -0.1021475434798747 0.091255771411723127 -0.018502561671543741 -0.037930151612724422 0.037359780525004813 -0.0061799989515380176 -0.081325512986295659
leaf_weight=3.2220985963940612 3.7370290905237225 7.7827819138765326 3.6728564351797086 2.7596735507249823 8.2947848141193408 4.9094877764582661 4.9020258560776773 5.7236033156514159 4.2687161117792121 6.0293803215026855 5.8720626235008222 5.3649395778775215 6.7469105720520002 5.2470884695649147
leaf_count=30 18 36 20 13 39 26 24 28 25 27 27 26 31 26
internal_value=0.000301763 -0.00397227 0.0219506 -0.0119413 -0.00349209 -0.0126039 -0.0274829 -0.0430057 0.0433444 0.0222648 0.0158837 -0.00198409 -0.0229711 -0.0390544
internal_weight=78.5334 75.3113 17.708 57.6034 49.8206 47.0609 30.9144 22.6196 13.971 9.70224 16.1465 11.237 16.896 11.994
internal_count=396 366 90 276 240 227 148 109 72 47 79 53 81 57
is_linear=0
shrinkage=0.1


Tree=17
num_leaves=16
num_cat=0
split_feature=2 4 4 3 4 0 1 1 0 1 3 3 0 3 2
split_gain=2.90967 1.45788 1.76997 2.34294 3.34917 3.07598 2.07775 2.07066 1.88799 1.83278 1.46499 1.9654 1.83867 1.29005 0.48032
threshold=1.1793416576045521 51.312353767560218 49.229201404157571 2.0339393098354965 49.712772737471248 1.9216942838837896 80.500000000000014 59.500000000000007 1.7459394635589593 41.500000000000007 2.4970353830926344 2.8458971664048875 2.3385985265997067 1.9829775129583658 2.4406649486909973
decision_type=2 2 2 2 2 2 2 2 2 2 2 2 2 2 2
left_child=-1 2 8 4 -4 7 10 -6 -2 -10 12 -12 -5 -3 -11
right_child=1 13 3 6 5 -7 -8 -9 9 14 11 -13 -14 -15 -16
leaf_value=0.087773068057670198 0.09584822271720024 -0.0046895506018543526 -0.06475463701952959 -0.13532982929104914 -0.036793737626364294 0.08437959199488404 0.0074637377425141984 0.041230131716187265 -0.048835509119744214 0.0039299438028940004 0.013495987829596007 -0.080316350088848729 -0.042157302439391059 0.073481417444464445 0.049825543600646026
leaf_weight=3.6259186267852774 2.7021898776292828 4.1455307602882367 5.6912780404090908 4.2332891449332291 7.851896136999132 5.6817838847637168 6.4682936966419211 6.0009195059537888 4.3922927379608145 4.075412303209303 4.7386911213397962 4.223746731877327 4.2387694492936134 4.301912285387516 5.1768254190683365
leaf_count=33 16 22 26 20 38 26 33 28 22 20 25 22 23 20 22
internal_value=0.000312064 -0.0039779 -0.00902213 -0.0185061 0.00275146 0.0224189 -0.0409404 -0.00299447 0.0194812 0.00435738 -0.0588986 -0.0307151 -0.0887134 0.0351195 0.0296095
internal_weight=77.5487 73.9228 65.4754 49.1287 25.2259 19.5346 23.9028 13.8528 16.3467 13.6445 17.4345 8.96244 8.47206 8.44744 9.25224
internal_count=396 363 321 241 118 92 123 66 80 64 90 47 43 42 42
is_linear=0
shrinkage=0.1


Tree=18
num_leaves=15
num_cat=0
split_feature=2 3 0 3 0 1 0 4 2 3 0 3 4 3
split_gain=2.54411 1.3349 1.80111 1.67218 1.74939 2.66868 2.38729 2.46543 1.61441 2.69024 2.47616 3.92061 1.58887 1.92409
threshold=1.1310407587065012 2.3840865432386913 2.1680041386195961 2.0339393098354965 1.9216942838837896 49.500000000000007 1.7893410674678789 49.472731887792811 2.7262297870218783 2.9873076431626173 2.4309922375664006 2.4970353830926344 49.950535200781395 1.5735468294075405
decision_type=2 2 2 2 2 2 2 2 2 2 2 2 2 2
left_child=-1 2 3 4 6 -6 7 -2 10 -10 -3 -12 -9 -14
right_child=1 8 -4 -5 5 -7 -8 12 9 -11 11 -13 13 -15
leaf_value=0.092784024809494589 0.071626497790340291 0.01323695126015902 0.072238797945878688 -0.055812351888338385 0.10120225752655304 -0.0077319798984493981 -0.053743348636856696 -0.051518522849574824 0.049263696618224495 -0.043307650753893298 -0.0051161866486700291 -0.12900931007817171 0.05182566969352316 -0.034924277201186994
leaf_weight=2.8635942414402953 5.3481273278594079 5.352192938327792 3.9022182449698439 4.5809697285294524 4.4888647496700269 4.5067272335290909 7.1957466304302207 5.3067103773355475 6.7497760951518995 5.8690560162067413 4.8267361372709257 5.4250935092568398 6.1233072578906995 4.3895639777183533
leaf_count=30 29 25 27 22 21 20 33 24 30 30 21 29 34 21
internal_value=0.00029834 -0.00327745 0.00725633 0.00121018 0.00820229 0.046627 -0.00398427 0.0129308 -0.0203874 0.00620849 -0.0418953 -0.0706783 -0.00691243 0.0156039
internal_weight=76.9287 74.0651 45.8422 41.94 37.359 8.99559 28.3635 21.1677 28.2229 12.6188 15.604 10.2518 15.8196 10.5129
internal_count=396 366 231 204 182 41 141 108 135 60 75 50 79 55
is_linear=0
shrinkage=0.1


Tree=19
num_leaves=17
num_cat=0
split_feature=2 2 3 0 2 1 3 0 4 1 4 3 4 1 1 4
split_gain=2.17196 2.18389 5.6975 1.54125 1.99462 1.43542 1.45227 3.59676 2.25901 2.84278 1.50502 1.46103 1.32628 1.17212 0.649326 0.260236
threshold=1.7404784491737926 1.8257878506628062 1.8751630850639076 1.5385548082795562 1.1793416576045521 83.500000000000014 1.9507681822576373 2.0020858426774963 49.229201404157571 36.500000000000007 49.799608319444765 2.5039250759436502 50.612913612462471 65.500000000000014 93.500000000000014 50.383140558135302
decision_type=2 2 2 2 2 2 2 2 2 2 2 2 2 2 2 2
left_child=3 -2 -3 4 -1 6 -4 -8 11 12 -11 -9 -10 -6 -7 -12
right_child=1 2 5 -5 13 14 7 8 9 10 15 -13 -14 -15 -16 -17
leaf_value=0.079459939500823612 -0.059556450053830381 0.1431934732451218 -0.077714350304310467 0.072970795817148146 0.015300856101419326 0.052000072397470037 0.077429109446924688 0.062880371854479172 0.029490171933637472 -0.12861605188204658 -0.030792813081642154 -0.018635000897291643 -0.044403348457997503 -0.053272997450717285 -0.0027972581553332002 -0.069154753669388266
leaf_weight=3.2739208191633251 7.6083970963954917 2.5622959882020941 3.7346323728561392 5.6483713760972014 6.8429592177271825 4.6582163721322996 3.9674195051193228 4.0134112164378184 5.4900954812765139 3.7549318596720678 3.4796491339802742 4.8629752099514008 4.3563522696495056 3.9208007529377937 4.0360619649291039 3.5956085100769997
leaf_count=33 36 13 16 30 37 22 17 20 26 20 20 22 23 20 21 20
internal_value=0.000280693 -0.00974454 -0.00193221 0.0288601 0.0111112 -0.0100249 -0.0185633 -0.011973 -0.0239751 -0.04209 -0.0774452 0.0182217 -0.00320245 -0.00967781 0.026562 -0.0502881
internal_weight=75.8061 56.12 48.5116 19.6861 14.0377 45.9494 37.2551 33.5204 29.553 20.6766 10.8302 8.87639 9.84645 10.7638 8.69428 7.07526
internal_count=396 276 240 120 90 227 184 168 151 109 60 42 49 57 43 40
is_linear=0
shrinkage=0.1


Tree=20
num_leaves=14
num_cat=0
split_feature=2 2 3 4 4 1 1 4 1 2 0 0 3
split_gain=1.78416 1.77953 3.75227 1.41745 3.15693 1.93301 1.299 1.03149 2.20939 1.11805 1.17016 0.880747 1.88058
threshold=1.7404784491737926 1.8257878506628062 1.8861980693685794 49.472731887792811 49.727867470037268 54.500000000000007 67.500000000000014 49.268483578253729 46.500000000000007 2.4269082371379622 2.0694234908653759 2.4507117962668503 2.7107762909263111
decision_type=2 2 2 2 2 2 2 2 2 2 2 2 2
left_child=3 -2 -3 -1 -5 -6 7 -4 9 10 -9 -8 -13
right_child=1 2 6 4 5 -7 11 8 -10 -11 -12 12 -14
leaf_value=0.078739509487198947 -0.053930828821469635 0.10897694764713117 0.009721662167595858 -0.075348223944667947 -0.0033448461692654665 0.076457486987032822 0.044086310593441091 -0.026872922797686383 -0.087165830280992104 -0.041881876498398606 0.046928971377045298 -0.054177451364475361 0.03539115925880764
leaf_weight=4.0792398341000107 7.5642080903053275 2.8772465884685507 7.9342052489519146 3.2351159267127505 6.1853060871362668 5.9601273983716965 6.1270581111311904 4.2005282491445595 5.5000105351209632 7.5404350385069838 4.3974680602550507 4.2310086339712125 5.2563020959496498
leaf_count=32 36 15 38 16 34 38 32 18 28 39 23 21 26
internal_value=0.000271363 -0.00884562 -0.00175025 0.0263335 0.0124344 0.0358165 -0.00880071 -0.0211208 -0.0324299 -0.0137758 0.0108733 0.0145328 -0.00455331
internal_weight=75.0883 55.6285 48.0643 19.4598 15.3805 12.1454 45.187 29.5726 21.6384 16.1384 8.598 15.6144 9.48731
internal_count=396 276 240 120 88 72 225 146 108 80 41 79 47
is_linear=0
shrinkage=0.1


Tree=21
num_leaves=15
num_cat=0
split_feature=0 4 4 1 2 3 3 2 0 3 0 3 4 3
split_gain=1.51891 1.70584 2.89185 1.51462 1.22603 3.00652 1.4316 3.20162 1.44649 2.0597 1.34599 2.44457 1.49921 0.883318
threshold=1.7076297162542919 49.472731887792811 49.870271873318856 54.500000000000007 1.8222682546280373 1.8945790055783707 1.9574170572000846 1.989813936091376 2.0945244227827984 2.3185908519863605 2.7575405255629524 2.9873076431626173 50.464966025345724 2.5039250759436502
decision_type=2 2 2 2 2 2 2 2 2 2 2 2 2 2
left_child=1 -1 -3 -4 -2 -6 -7 -8 -9 -10 12 -12 13 -11
right_child=4 2 3 -5 5 6 7 8 9 10 11 -13 -14 -15
leaf_value=0.08105250807596738 -0.044473284348158906 -0.066179600039193542 -0.0050974532667606917 0.071077170076443333 0.082656753405157976 -0.073028422989639116 0.091296863943198941 -0.067357410979106289 0.057589505113839701 0.0094325780981184583 0.057351604135916168 -0.035899360865873475 -0.080810962184737295 -0.043241226640036823
leaf_weight=4.2086747512221363 7.8981125578284255 3.7959357425570479 4.8767734579741937 5.616370402276516 3.8614709973335257 3.2702825963497153 3.2283959388732901 4.2585708498954764 4.4832345619797698 6.9024976789951378 5.7442532330751401 5.5056897327303886 4.7159398496150962 5.9091836735606194
leaf_count=33 38 20 27 37 20 14 14 19 33 30 25 29 26 31
internal_value=0.000265336 0.0250975 0.00861659 0.0356744 -0.00796984 -0.0019483 -0.00937026 -0.00426126 -0.0124837 -0.00545787 -0.01528 0.0117149 -0.0326063 -0.0148624
internal_weight=74.2754 18.4978 14.2891 10.4931 55.7776 47.8795 44.018 40.7478 37.5194 33.2608 28.7776 11.2499 17.5276 12.8117
internal_count=396 117 84 64 279 241 221 207 193 174 141 54 87 61
is_linear=0
shrinkage=0.1


Tree=22
num_leaves=16
num_cat=0
split_feature=2 0 1 4 1 2 3 4 0 4 2 0 3 4 1
split_gain=1.32873 1.39805 2.15078 2.55257 1.41032 1.35525 1.7682 1.74915 1.5996 1.56705 1.29707 2.89829 1.90376 1.19835 0.653279
threshold=1.7404784491737926 1.5385548082795562 78.500000000000014 49.558584499888802 38.500000000000007 1.8257878506628062 1.9036982952912063 51.312353767560218 3.0105095160823248 49.950535200781395 2.0627658774296567 2.386615418061758 2.4970353830926344 50.678734456248471 41.500000000000007
decision_type=2 2 2 2 2 2 2 2 2 2 2 2 2 2 2
left_child=1 2 3 -1 -5 -2 -7 8 9 10 -8 -12 -13 14 -11
right_child=5 -3 -4 4 -6 6 7 -9 -10 13 11 12 -14 -15 -16
leaf_value=0.12147164982706281 -0.047275109065126684 0.06624266118057752 -0.063968798870321128 -0.040744361198169599 0.044487120135005914 0.061733534002951541 -0.056926322518830855 0.052156423165466974 0.043964337198412085 -0.039836675408792897 0.072218552891561746 0.035540578886319812 -0.050007546411218129 -0.0098131286575563331 -0.094350931633781984
leaf_weight=2.2986566461622733 7.4487274885177603 5.3839307427406302 3.314649023115634 3.916251115500927 3.8499533273279667 4.0577641353011122 3.6683643609285381 4.4332736209034911 4.2146282196044913 4.0672548711299878 5.0064265131950405 4.0655676051974279 7.2226016819477081 5.484893672168254 4.7837802693247795
leaf_count=22 36 30 21 21 26 21 16 21 21 19 29 20 37 30 26
internal_value=0.000262969 0.0232122 0.00589675 0.0289055 0.00150758 -0.00764486 -0.00136473 -0.00732647 -0.0141735 -0.0213175 -0.00320401 0.00889037 -0.0191964 -0.0465407 -0.0693004
internal_weight=73.2167 18.7634 13.3795 10.0649 7.7662 54.4533 47.0046 42.9468 38.5135 34.2989 19.963 16.2946 11.2882 14.3359 8.85104
internal_count=396 120 90 69 47 276 240 219 198 177 102 86 57 75 45
is_linear=0
shrinkage=0.1


Tree=23
num_leaves=16
num_cat=0
split_feature=3 4 4 1 1 1 1 1 4 1 2 2 4 2 3
split_gain=1.1621 1.74227 2.11126 2.42535 1.3629 1.28752 1.40097 1.34949 2.05052 1.89869 1.78255 1.19801 1.01398 0.97952 0.684411
threshold=1.5735468294075405 50.421044151735813 49.541025986720534 56.500000000000007 83.500000000000014 76.500000000000014 51.500000000000007 31.500000000000004 49.814846733160842 23.500000000000004 1.9265540713199241 2.4122433015193296 49.229201404157571 1.989813936091376 2.4206657946066668
decision_type=2 2 2 2 2 2 2 2 2 2 2 2 2 2 2
left_child=1 2 -1 -4 5 6 7 9 -9 10 -2 -12 -8 -14 -6
right_child=4 -3 3 -5 14 -7 12 8 -10 -11 11 -13 13 -15 -16
leaf_value=0.071716302228551049 -0.079169229610826938 0.091835117892940119 -0.075990517323986512 0.036805814655224249 0.054457424742537258 -0.061642758432846001 0.059625334925561262 -0.0039247493186016433 -0.088425741338462094 0.053792067720872541 0.037988181044288943 -0.030402473348293563 0.0321863167602124 -0.034117861901893136 0.0022994566690291408
leaf_weight=3.4945580624043924 3.81868743896485 3.1244180724024764 3.9912669584155083 3.649142500013113 4.8583806529641134 4.8878302648663512 4.2860036790370932 5.7171124890446645 5.7699690088629723 4.498533070087432 4.7099192887544614 5.6147139370441437 4.6553031951189023 4.273372046649456 5.2176185697317123
leaf_count=32 20 24 21 22 27 26 20 30 30 22 24 27 22 25 24
internal_value=0.000257096 0.0258468 0.00733078 -0.0221178 -0.006001 -0.0129889 -0.00750228 -0.0194089 -0.0463697 -0.0027957 -0.0207944 0.000796162 0.0196443 0.000452334 0.0274487
internal_weight=72.5668 14.2594 11.135 7.64041 58.3074 48.2314 43.3436 30.1289 11.4871 18.6419 14.1433 10.3246 13.2147 8.92868 10.076
internal_count=396 99 75 43 297 246 220 153 60 93 71 51 67 47 51
is_linear=0
shrinkage=0.1


Tree=24
num_leaves=16
num_cat=0
split_feature=0 0 1 0 3 2 3 4 0 4 2 0 3 3 2
split_gain=1.02506 1.44606 1.88742 1.54849 2.49152 0.970286 1.43397 1.51083 1.38763 1.17045 1.30765 2.40307 1.47409 1.00247 2.03261
threshold=1.7076297162542919 1.5385548082795562 78.500000000000014 1.3754461880854849 1.2063445098392329 1.8222682546280373 1.9036982952912063 51.312353767560218 3.0105095160823248 49.950535200781395 2.0627658774296567 2.386615418061758 2.4970353830926344 2.2470248605372869 2.499221962648523
decision_type=2 2 2 2 2 2 2 2 2 2 2 2 2 2 2
left_child=1 2 3 4 -1 -2 -7 8 9 10 -8 -12 -13 -11 -15
right_child=5 -3 -4 -5 -6 6 7 -9 -10 13 11 12 -14 14 -16
leaf_value=0.0012161291208868167 -0.03927716254257984 0.069366257318420138 -0.06100960313542645 -0.032519858437306169 0.12600824303960742 0.053896109075043788 -0.059565510383023539 0.048779541316278451 0.040821757981196694 -0.0055933026205121569 0.065855743156388535 0.030335364565029551 -0.045387611155773902 -0.12234375748253845 -0.0248689481997523
leaf_weight=3.7897067144513148 7.7588638588786116 4.6089650988578788 3.3091628812253466 3.0319749191403389 2.7687699571251869 4.3056154027581206 3.4953376203775433 4.3993446975946418 4.2325251549482337 4.9154145121574393 4.9532536342740086 4.0366756618022901 7.0793880969285965 3.4346427619457227 5.6723595038056374
leaf_count=34 38 27 21 17 18 23 15 21 21 25 29 20 37 18 32
internal_value=0.000247522 0.0212875 0.00410915 0.0265782 0.0538992 -0.0065387 -0.00107893 -0.00668546 -0.0131374 -0.0199371 -0.00413316 0.00792428 -0.0178896 -0.0419875 -0.0616309
internal_weight=71.792 17.5086 12.8996 9.59045 6.55848 54.2834 46.5246 42.2189 37.8196 33.5871 19.5647 16.0693 11.1161 14.0224 9.107
internal_count=396 117 90 69 52 279 241 218 197 176 101 86 57 75 50
is_linear=0
shrinkage=0.1


Tree=25
num_leaves=16
num_cat=0
split_feature=1 1 3 0 0 4 4 2 3 0 3 4 4 1 3
split_gain=0.900036 2.6757 1.84805 1.99652 2.56614 0.913295 2.86016 1.69202 2.17327 3.38643 1.87059 0.739899 1.34266 1.76977 0.617983
threshold=51.500000000000007 46.500000000000007 1.1939780135293461 1.5052332028755988 1.7270166385523333 51.312353767560218 50.711627103515461 1.3265650567968141 1.7599640365175429 2.0509351959016811 2.4409602425179986 50.711627103515461 49.504779764461681 77.500000000000014 2.4803497685845994
decision_type=2 2 2 2 2 2 2 2 2 2 2 2 2 2 2
left_child=1 5 -2 -4 -5 6 7 -1 -9 -10 -11 12 14 -14 -6
right_child=2 -3 3 4 11 -7 -8 8 9 10 -12 -13 13 -15 -16
leaf_value=-0.06910335329543793 0.092886351458945277 -0.088498029956698213 -0.061248967300353209 0.10113271433249289 -0.0018565873811110974 0.041447184191886664 -0.079823688736260168 0.074175803042204072 -0.069461290770754705 0.094335873614780116 0.0030261482451897437 0.037036186611514969 0.011856108134975125 -0.069865735562723463 0.050084249635689762
leaf_weight=2.6465210169553819 2.5974307246506205 3.94657278060913 3.9645749107003203 3.0518499612808254 4.7660671919584328 4.3313292860984793 4.619455747306346 4.8825732320547131 5.0848905742168453 3.149772107601164 7.7985146641731262 5.3449581712484351 5.2823535129427892 5.3176259323954582 4.4103161916136742
leaf_count=20 26 19 22 19 23 22 26 29 25 18 39 29 29 29 21
internal_value=0.000232029 -0.0107425 0.0117514 0.00519388 0.0145438 -0.00130416 -0.00787474 0.00623107 0.0157633 -0.00202499 0.0292955 0.00402463 -0.00489741 -0.0291408 0.023107
internal_weight=71.1948 36.4596 34.7352 32.1377 28.1732 32.5131 28.1817 23.5623 20.9158 16.0332 10.9483 25.1213 19.7764 10.6 9.17638
internal_count=396 198 198 172 150 179 157 131 111 82 57 131 102 58 44
is_linear=0
shrinkage=0.1


Tree=26
num_leaves=16
num_cat=0
split_feature=3 4 4 1 1 1 1 3 0 3 2 4 0 3 3
split_gain=0.853489 1.43447 1.60737 2.01829 1.05032 0.985925 1.3041 0.875643 1.53931 1.08522 3.29949 1.37753 1.31427 2.35107 0.567092
threshold=1.5735468294075405 50.421044151735813 49.541025986720534 56.500000000000007 83.500000000000014 76.500000000000014 67.500000000000014 2.8458971664048875 2.6708471838664196 2.0339393098354965 1.9265540713199241 50.45428397231111 2.3098146773780521 2.4409602425179986 2.4206657946066668
decision_type=2 2 2 2 2 2 2 2 2 2 2 2 2 2 2
left_child=1 2 -1 -4 5 6 7 8 9 10 11 -2 -11 -14 -6
right_child=4 -3 3 -5 14 -7 -8 -9 -10 12 -12 -13 13 -15 -16
leaf_value=0.064995942972968318 0.00538785279321366 0.085856898662292319 -0.068151229464729915 0.035545851809742388 0.049920235294879052 -0.054533359403333072 0.048924721325442136 -0.053469159402168176 0.049274656440527156 -0.077057490308677631 0.078879717609842817 -0.062057558744483481 0.042702699152920055 -0.063237647738505751 0.0018191455605964515
leaf_weight=3.2351318299770337 7.0436037853360229 2.8470500558614722 3.9825448654592037 3.5500426404178143 4.6578560546040517 4.7482900246977797 3.8612850606441489 4.5038040056824675 4.314246490597724 4.9010135531425467 4.211983233690261 5.31217972189188 4.0661615207791311 4.3207778036594391 5.1731700748205185
leaf_count=32 37 24 21 22 27 26 19 25 20 24 20 26 26 23 24
internal_value=0.000232228 0.0227314 0.00604069 -0.0192797 -0.00513107 -0.0113146 -0.00648994 -0.0120227 -0.00655978 -0.014628 0.00244626 -0.0236093 -0.0359167 -0.0118756 0.024609
internal_weight=70.7291 13.6148 10.7677 7.53259 57.1144 47.2833 42.5351 38.6738 34.17 29.8557 16.5678 12.3558 13.288 8.38694 9.83103
internal_count=396 99 75 43 297 246 220 201 176 156 83 63 73 49 51
is_linear=0
shrinkage=0.1


Tree=27
num_leaves=16
num_cat=0
split_feature=3 2 3 0 2 0 3 4 3 0 4 2 0 1 0
split_gain=0.743907 2.0139 1.43624 1.24082 1.85175 1.17885 1.02755 1.00192 3.61715 2.66231 2.36229 1.25936 2.60453 1.2353 0.263014
threshold=2.9873076431626173 2.7885526220452315 2.3840865432386913 2.4309922375664006 2.5891436698640553 2.1279289341940406 2.0339393098354965 49.712772737471248 1.9507681822576373 1.7893410674678789 49.472731887792811 1.7404784491737926 1.8961910632177787 54.500000000000007 1.5840619355909589
decision_type=2 2 2 2 2 2 2 2 2 2 2 2 2 2 2
left_child=1 2 5 -4 -5 6 7 9 11 10 14 13 -13 -9 -1
right_child=-2 -3 3 4 -6 -7 -8 8 -10 -11 -12 12 -14 -15 -16
leaf_value=0.037760446655829748 -0.035323324891918764 0.067327592193254668 0.013745170001043226 -0.094182146749455464 -0.011361532698889593 0.060106833380746606 -0.044641678064559029 -0.0055440784232336192 0.10937497056653488 -0.077741734677018975 -0.051927969557953452 -0.081362087732036681 0.030249683218327456 0.06060689858264532 0.084005888338056084
leaf_weight=2.3613353259861452 5.4305101186037055 4.5537090152502051 5.1025343090295818 4.6235338151454908 6.4877775907516479 3.9175047054886809 4.1245608776807776 6.2029247134923988 3.8064871132373801 4.3678268417716026 2.8982679955661297 4.2568991482257825 4.1088577881455421 5.1805802695453167 2.5664814934134483
leaf_count=25 30 21 25 23 36 30 20 35 18 22 16 22 20 38 15
internal_value=0.00022352 0.0032136 -0.00165189 -0.0270775 -0.0458241 0.00776192 0.00261921 0.00807186 0.0201168 -0.015196 0.0197114 0.00291306 -0.0265437 0.0245609 0.0618458
internal_weight=69.9898 64.5593 60.0056 16.2138 11.1113 43.7917 39.8742 35.7497 23.5557 12.1939 7.82608 19.7493 8.36576 11.3835 4.92782
internal_count=396 366 345 84 59 261 231 211 133 78 56 115 42 73 40
is_linear=0
shrinkage=0.1


Tree=28
num_leaves=16
num_cat=0
split_feature=1 1 3 0 3 4 4 0 0 2 2 1 1 0 0
split_gain=0.74553 2.34243 1.50828 3.31186 1.6439 0.666057 1.01636 0.654851 1.43441 1.19775 3.15993 0.548314 1.21787 0.581371 0.492205
threshold=95.500000000000014 89.500000000000014 2.9873076431626173 2.7575405255629524 2.3130462157451186 50.464966025345724 49.712772737471248 1.6467972670161117 1.7615607622294089 1.2251624504125582 1.1793416576045521 60.500000000000007 30.500000000000004 1.9417719983322004 1.40585527165569
decision_type=2 2 2 2 2 2 2 2 2 2 2 2 2 2 2
left_child=1 2 3 4 7 6 -6 9 -9 10 -1 12 -10 -14 -11
right_child=-2 -3 -4 -5 5 -7 -8 8 11 14 -12 -13 13 -15 -16
leaf_value=0.069227306597626978 -0.045020496520895778 0.080605088451142753 -0.061500667406373867 0.080603935543606925 -0.043921678328845082 -0.067946095699334672 0.018003514044169687 -0.054504529195140719 -0.011418474199437069 0.078476326443339031 -0.08491944617863352 -0.017318370863572335 0.078016613583055477 0.021264843329061155 0.02755920572271018
leaf_weight=2.5111525617539865 3.4609222933650008 3.6365376040339461 3.9829581752419463 4.9202411323785773 6.9849753677844983 3.9965673312544814 4.2710414677858353 4.5195636898279217 6.9449886083602923 3.2912698537111282 2.8270189836621284 6.0920322574675074 3.3158723115921021 3.9617381989955902 4.4865645617246628
leaf_count=31 19 23 24 22 33 24 23 24 38 22 15 31 16 24 27
internal_value=0.000216742 0.00259819 -0.0019694 0.00211006 -0.00514913 -0.0328763 -0.0204245 0.00599473 -0.00355168 0.0240702 -0.0124066 0.00778422 0.0185365 0.0471225 0.0491053
internal_weight=69.2034 65.7425 62.106 58.123 53.2028 15.2526 11.256 37.9502 24.8342 13.116 5.33817 20.3146 14.2226 7.27761 7.77783
internal_count=396 377 354 330 308 80 56 228 133 95 46 109 78 40 49
is_linear=0
shrinkage=0.1


Tree=29
num_leaves=17
num_cat=0
split_feature=2 3 2 3 2 2 0 3 0 0 1 4 4 3 2 0
split_gain=0.710995 1.94142 1.32187 2.14334 1.62889 2.31541 1.92121 1.88345 1.17541 2.03998 1.81087 1.36554 1.39567 1.11299 1.89302 0.900951
threshold=3.0290168269804565 2.8025605070640824 2.7262297870218783 2.5611939580540199 2.5259378465471314 2.3838119253192698 2.2963535294439139 2.0861780059704125 1.9216942838837896 1.7893410674678789 49.500000000000007 49.541025986720534 49.834594198194878 1.5968798943135394 1.309108665981189 1.5052332028755988
decision_type=2 2 2 2 2 2 2 2 2 2 2 2 2 2 2 2
left_child=1 2 3 4 5 6 7 8 9 11 -10 15 -13 14 -14 -1
right_child=-2 -3 -4 -5 -6 -7 -8 -9 10 -11 -12 12 13 -15 -16 -17
leaf_value=0.0083381692881210456 0.041935759007192111 -0.072354478165188904 0.056807890678970074 -0.078946387839938847 0.06809047643379694 -0.063173567876699144 0.079361627088879241 -0.06727248808070406 0.081102453789098541 -0.05068841557799323 -0.0045315811279666883 -0.060101850605327849 -0.007116893328715089 -0.026876915444455876 0.094961599429862903 0.091791066702811952
leaf_weight=2.2732879891991677 3.8533406034111968 3.7259278595447531 4.1046647429466239 3.3994823470711699 3.5808381289243689 5.4620407074689856 3.289426662027835 3.7853904217481604 4.7192541807889921 6.9565034732222548 5.1798438876867294 3.3601735904812804 4.2450561560690385 4.4069390892982483 3.1758501380681992 3.0019874311983585
leaf_count=26 21 21 19 23 16 29 22 20 25 35 27 18 33 22 21 18
internal_value=0.00020597 -0.00228061 0.00200371 -0.00195421 0.00294381 -0.00173528 0.00582387 -6.10947e-05 0.0067564 -0.00390699 0.0362932 0.0119964 -0.0032279 0.0129294 0.0365686 0.0558285
internal_weight=68.52 64.6667 60.9407 56.8361 53.4366 49.8558 44.3937 41.1043 37.3189 27.4198 9.8991 20.4633 15.188 11.8278 7.42091 5.27528
internal_count=396 375 354 335 312 296 267 245 225 173 52 138 94 76 54 44
is_linear=0
shrinkage=0.1


Tree=30
num_leaves=18
num_cat=0
split_feature=2 3 2 3 2 2 0 3 0 0 1 3 3 4 4 0 4
split_gain=0.703628 1.7171 1.11917 1.91667 1.30431 1.91465 1.56818 1.53025 0.963736 1.77526 1.52294 1.34979 2.01966 1.07662 2.08919 1.0564 0.0450349
threshold=3.0716741854499161 2.8458971664048875 2.7262297870218783 2.5611939580540199 2.5259378465471314 2.3838119253192698 2.2963535294439139 2.0861780059704125 1.9216942838837896 1.8699955716709915 49.500000000000007 1.8255451153314481 1.7493676038328669 49.541025986720534 49.870271873318856 1.2059575402451026 50.45428397231111
decision_type=2 2 2 2 2 2 2 2 2 2 2 2 2 2 2 2 2
left_child=1 2 3 4 5 6 7 8 9 11 -10 12 13 -1 -15 -16 -17
right_child=-2 -3 -4 -5 -6 -7 -8 -9 10 -11 -12 -13 -14 14 15 16 -18
leaf_value=0.058529369533973877 0.044588151464480773 -0.068476149633464142 0.050063809476495018 -0.075249636859164526 0.0606782080154641 -0.057963511532026959 0.072022767474826055 -0.060605309646266106 0.074958570043090561 -0.071878572654851855 -0.0040731938983304397 0.067411321035461699 -0.065875983246660177 -0.06664940032371533 -0.026883002802054724 0.03909692966061 0.056170032679526395
leaf_weight=3.8740718401968612 3.3911003544926634 3.6799401491880408 4.4646286219358435 3.3548411652445784 3.6144907772541037 5.3630509898066512 3.2635486945509902 3.7818012684583655 4.6017543748021108 3.3324653208255759 5.1861393973231316 3.1157355159521094 4.1168121173977843 3.5621203258633605 2.8464437872171384 3.5354508459568024 2.7441948428750038
leaf_count=38 18 21 21 24 16 29 22 20 25 17 27 15 21 18 24 21 19
internal_value=0.000190082 -0.00214642 0.00187101 -0.00195119 0.00269395 -0.00155521 0.00532643 -2.2038e-05 0.00618446 -0.00352104 0.0330834 0.00605243 -0.00319257 0.0123884 -0.00169979 0.0236515 0.0465578
internal_weight=67.8286 64.4375 60.7575 56.2929 52.9381 49.3236 43.9605 40.697 36.9152 27.1273 9.78789 23.7948 20.6791 16.5623 12.6882 9.12609 6.27965
internal_count=396 378 357 336 312 296 267 245 225 173 52 156 141 120 82 64 40
is_linear=0
shrinkage=0.1


Tree=31
num_leaves=16
num_cat=0
split_feature=2 4 0 3 4 4 4 3 0 3 3 0 2 3 4
split_gain=0.809563 0.601395 0.973899 1.11211 0.846789 1.23794 1.4676 2.5792 1.38158 1.3768 1.16174 1.57905 1.59041 0.931424 0.210321
threshold=1.1881880687461035 51.421324249469251 3.0105095160823248 2.7697129650409438 48.828018074325222 49.432932109653628 49.921661068385355 1.677148862719571 2.0605032612047371 1.5968798943135394 1.7927860290819648 1.9284832998795338 2.499221962648523 2.0621903373340005 48.530447470735716
decision_type=2 2 2 2 2 2 2 2 2 2 2 2 2 2 2
left_child=-1 2 3 4 14 8 7 -7 -6 -8 -11 -12 13 -13 -2
right_child=1 -3 -4 -5 5 6 9 -9 -10 10 11 12 -14 -15 -16
leaf_value=0.050673727566294915 0.0099052832591863642 0.027174591763208952 0.041141283132070904 -0.066290308135574655 -0.099920942952333475 -0.032855333289535722 0.034380881960718507 0.067127699621756354 -0.015801640519744215 -0.079290344814112623 0.045833460025214705 -0.020080962230180261 0.016214502341278487 -0.087758107357453499 0.045020748595189543
leaf_weight=3.0303805842995635 3.4347583614289752 6.2769869193434706 4.1683907285332671 3.1909749433398238 2.9488097950816137 4.2132660523056966 4.4329200163483646 6.6559919528663158 5.7785944044589996 3.5283909142017391 3.2913250327110317 3.6391365826129896 4.4614631682634345 4.6093362048268318 3.3881035298109055
leaf_count=36 21 36 21 20 18 21 28 37 31 19 16 19 26 28 19
internal_value=0.000168807 -0.0022219 -0.00541754 -0.00904017 -0.00541421 -0.0105451 -0.00210661 0.0283711 -0.0442238 -0.0159311 -0.0273511 -0.0158982 -0.031884 -0.0578997 0.027343
internal_weight=67.0488 64.0184 57.7415 53.5731 50.3821 43.5592 34.8318 10.8693 8.7274 23.9626 19.5297 16.0013 12.7099 8.24847 6.82286
internal_count=396 360 324 303 283 243 194 58 49 136 108 89 73 47 40
is_linear=0
shrinkage=0.1


Tree=32
num_leaves=15
num_cat=0
split_feature=2 0 1 1 4 4 4 3 1 4 4 1 4 3
split_gain=1.16424 0.872369 0.880591 0.970295 0.859474 2.69225 1.8652 1.30613 1.26208 1.23026 1.5442 0.754595 0.426631 0.354827
threshold=1.1793416576045521 1.2825195803479479 80.500000000000014 94.500000000000014 49.229201404157571 49.712772737471248 49.950535200781395 1.5968798943135394 11.500000000000002 50.888391602357821 50.534346039264783 51.500000000000007 50.247049069972114 1.9036982952912063
decision_type=2 2 2 2 2 2 2 2 2 2 2 2 2 2
left_child=-1 -2 4 12 11 -6 -7 -8 -9 10 -10 13 -4 -3
right_child=1 2 3 -5 5 6 7 8 9 -11 -12 -13 -14 -15
leaf_value=0.067559375865525115 -0.047898164338184057 0.028065286477319203 0.063287889598981989 -0.015643138251429333 -0.074855681814568628 0.044330293725011093 0.053748912369442431 0.030245693346663317 -0.043672279044821072 -0.066758320504205756 0.03870765696393251 0.0486247452093179 0.018073816755311025 -0.018042622635624127
leaf_weight=2.4673952385783187 3.9610682800412169 2.5180281326174718 4.7522911950945836 4.1380471363663665 5.956499680876731 6.9067832008004215 2.4621127396822002 3.605079390108588 5.863318935036661 7.0414129644632331 3.7184791043400764 4.7074083238840103 3.720915675163269 4.9502157233655453
leaf_count=33 25 18 26 24 34 36 18 19 33 38 22 24 20 26
internal_value=0.000149355 -0.00243731 0.00054697 0.0240485 -0.0056627 -0.0135156 -0.00117072 -0.0150209 -0.0233913 -0.0350235 -0.0117025 0.0172681 0.0434326 -0.00249666
internal_weight=66.7691 64.3017 60.3406 12.6113 47.7293 35.5537 29.5972 22.6904 20.2283 16.6232 9.5818 12.1757 8.47321 7.46824
internal_count=396 363 338 70 268 200 166 130 112 93 55 68 46 44
is_linear=0
shrinkage=0.1


Tree=33
num_leaves=15
num_cat=0
split_feature=2 0 4 4 4 4 4 4 4 0 2 1 4 2
split_gain=0.983238 0.697344 0.830033 1.09943 2.0333 1.43962 1.45012 1.53465 2.438 2.90346 1.6391 1.76102 1.0961 1.07313
threshold=1.1793416576045521 1.2825195803479479 51.421324249469251 50.45428397231111 50.678734456248471 50.182963835215496 49.921661068385355 49.807503100485924 49.558584499888802 1.7459394635589593 2.7262297870218783 41.500000000000007 50.888391602357821 2.367539565827856
decision_type=2 2 2 2 2 2 2 2 2 2 2 2 2 2
left_child=-1 -2 3 5 -5 6 7 8 9 -3 11 -11 -6 -13
right_child=1 2 -4 4 12 -7 -8 -9 -10 10 -12 13 -14 -15
leaf_value=0.063334242495463614 -0.04260660883341294 0.10694694404164284 0.036788527476968431 -0.087905220187477706 0.037547352346910305 0.052860847169178396 -0.049090567656852706 0.064235509437356578 -0.06538666233225543 -0.07223597896330107 0.050373641198247089 0.043269434387967633 -0.030554301919797733 -0.026267724604012496
leaf_weight=2.3738173581659785 4.005224645137786 2.8168416135013201 5.7011482790112487 3.9874724671244612 3.9445259906351549 5.4389340355992308 5.5979118794202796 3.9734800830483428 4.9744208194315425 4.3339475765824345 4.4222535640001288 4.0781194716691953 5.8959628641605377 4.8690873682498932
leaf_count=33 25 21 31 24 24 31 31 19 29 26 21 23 34 24
internal_value=0.000136419 -0.0022062 0.000489141 -0.00331975 -0.0276657 0.00499169 -0.00243307 0.00643021 -0.00257905 0.0126465 -0.00235796 -0.0199161 -0.00325599 0.00542718
internal_weight=66.4131 64.0393 60.0341 54.333 13.828 40.505 35.0661 29.4682 25.4947 20.5202 17.7034 13.2812 9.84049 8.94721
internal_count=396 363 338 307 82 225 194 163 144 115 94 73 58 47
is_linear=0
shrinkage=0.1


Tree=34
num_leaves=16
num_cat=0
split_feature=4 0 0 0 3 0 3 4 4 4 1 1 1 0 2
split_gain=0.692986 0.949787 1.76228 0.763327 1.08165 0.692496 1.33916 1.67571 2.12352 1.67189 1.43452 1.26128 1.08623 1.02894 1.99217
threshold=51.8440691279256 1.2411412693107244 1.1552388352808822 2.9792262855108596 2.7595438035629729 1.4168307086941569 1.5735468294075405 50.45428397231111 50.765623317681396 50.050452599120327 45.500000000000007 29.500000000000004 46.500000000000007 2.0203990910155993 2.4406649486909973
decision_type=2 2 2 2 2 2 2 2 2 2 2 2 2 2 2
left_child=1 2 -1 4 5 -3 -7 9 -9 11 -10 -8 -13 -14 -15
right_child=-2 3 -4 -5 -6 6 7 8 10 -11 -12 12 13 14 -16
leaf_value=0.11680970277843808 0.044572983664782816 -0.044998403709644648 -0.0099049555465445319 0.031655583242542196 -0.064063040511077946 0.056792922118738744 -0.045474573455582763 -0.085651909731518483 -0.042137548984198775 0.062699198160464154 0.042977350303602391 0.049099012718838625 0.037783995740193935 -0.067828236525435001 0.022170981398268768
leaf_weight=1.8538005333393801 3.331045299768447 4.0724765807390204 2.6903844960033894 5.0018956661224356 3.3666707202792159 3.5752030760049811 5.5795277729630532 5.2679335176944724 4.4068828895688039 4.4858692809939376 3.59586451202631 4.9082000330090549 3.8962503671646109 4.9306166768074018 4.9074910208582878
leaf_count=30 18 26 17 26 21 26 32 29 24 25 22 28 19 28 25
internal_value=0.000129978 -0.00223721 0.0417883 -0.00568682 -0.0092115 -0.00549034 -0.00195835 -0.00696204 -0.036348 0.00662208 -0.00389298 -0.00376326 0.00872051 -0.00570942 -0.0229344
internal_weight=65.8701 62.5391 4.54419 57.9949 52.993 49.6263 45.5538 41.9786 13.2707 28.708 8.00275 24.2221 18.6426 13.7344 9.83811
internal_count=396 378 47 331 305 284 258 232 75 157 46 132 100 72 53
is_linear=0
shrinkage=0.1


Tree=35
num_leaves=15
num_cat=0
split_feature=3 2 3 1 1 1 1 1 0 3 4 4 2 3
split_gain=0.623747 1.24867 0.995011 0.984828 0.646366 1.75501 0.845842 2.51932 1.59888 1.69968 1.89515 1.59173 0.799441 2.31961
threshold=2.9873076431626173 2.7885526220452315 2.5769296818235676 91.500000000000014 33.500000000000007 23.500000000000004 52.500000000000007 61.500000000000007 2.0020858426774963 1.6891123166922648 49.870271873318856 49.814846733160842 1.9265540713199241 1.645602662290276
decision_type=2 2 2 2 2 2 2 2 2 2 2 2 2 2
left_child=1 2 3 4 5 12 11 -8 9 10 -9 -6 13 -1
right_child=-2 -3 -4 -5 6 -7 7 8 -10 -11 -12 -13 -14 -15
leaf_value=0.029675913875308737 -0.033233939767261689 0.054406841466363556 -0.0466971719359228 0.052191125817105471 0.0049516665625689996 0.069887219845274448 0.075250164723149715 -0.09283426628442154 -0.059667024594884634 0.050752515625276828 0.025410192988038961 -0.069294083319849611 0.021083534340526719 -0.092676153765471114
leaf_weight=3.1965541448444146 5.1622922644019118 4.3791207224130622 4.3983812890946856 3.7513339258730403 5.9654889926314372 4.3005423191934815 3.8815003950148848 2.5687399599701148 5.2599887140095225 4.9024881571531296 2.8696886673569679 5.5963885262608528 6.2283914312720299 3.0072246864438057
leaf_count=26 30 21 30 24 35 24 30 18 28 24 24 31 33 18
internal_value=0.000127716 0.00298354 -0.00104296 0.00285401 -0.00101982 0.0148232 -0.00955912 0.00315677 -0.01478 0.00805208 -0.0304404 -0.0309861 -0.00422459 -0.0296331
internal_weight=65.4681 60.3058 55.9267 51.5283 47.777 16.7327 31.0443 19.4824 15.6009 10.3409 5.43843 11.5619 12.4322 6.20378
internal_count=396 366 345 315 291 101 190 124 94 66 42 66 77 44
is_linear=0
shrinkage=0.1


Tree=36
num_leaves=16
num_cat=0
split_feature=1 1 3 0 0 3 0 3 3 3 0 0 4 4 0
split_gain=0.606522 1.65117 1.2807 2.51101 1.14268 2.60617 0.955947 1.02086 1.14886 1.75399 2.03885 1.14623 1.21814 1.34195 0.390239
threshold=95.500000000000014 89.500000000000014 2.9873076431626173 2.7575405255629524 2.3752403803557169 2.4970353830926344 2.2456290728370947 2.0339393098354965 1.9730214025550068 1.8945790055783707 1.9216942838837896 1.7028302296839759 49.541025986720534 50.421044151735813 1.3170545758573795
decision_type=2 2 2 2 2 2 2 2 2 2 2 2 2 2 2
left_child=1 2 3 4 6 -6 7 8 9 10 11 12 -1 14 -14
right_child=-2 -3 -4 -5 5 -7 -8 -9 -10 -11 -12 -13 13 -15 -16
leaf_value=0.071767493453384512 -0.041517415052526353 0.069861565302208481 -0.058218966939764499 0.072716799086002801 0.0088799142617678375 -0.090692101370869013 0.051291120080704827 -0.043897940164204341 0.058831664166278656 -0.068633558988048557 0.090164145342282453 -0.035251173656972175 -0.004758434448450026 0.047565961200159712 -0.051680109837899571
leaf_weight=2.9081805311143532 3.3195663318037978 3.423028413206338 3.7390190660953513 4.6313863396644583 6.23728473857045 4.543352734297514 3.8075123578310004 4.8821220472455016 3.5496209263801566 3.4174354523420325 2.678493231534957 7.068839579820632 3.8206974454224092 3.7206506337970495 3.3063791058957577
leaf_count=31 19 23 24 22 36 31 22 25 18 16 16 39 26 29 19
internal_value=0.000122453 0.00236152 -0.00160094 0.00227827 -0.00425406 -0.0330834 0.00368258 -0.00144494 0.00535712 -0.00169375 0.00803948 -0.00252346 0.0142946 -0.00111344 -0.0265262
internal_weight=65.0536 61.734 58.311 54.572 49.9406 10.7806 39.1599 35.3524 30.4703 26.9207 23.5032 20.8247 13.7559 10.8477 7.12708
internal_count=396 377 354 330 308 67 241 219 194 176 160 144 105 74 45
is_linear=0
shrinkage=0.1


Tree=37
num_leaves=17
num_cat=0
split_feature=1 1 3 0 0 3 0 3 3 3 2 2 3 2 2 3
split_gain=0.491298 1.37185 1.07129 2.07189 0.950656 2.2538 0.76803 0.828543 0.946656 1.42356 1.41753 1.82409 0.995719 1.71875 1.04016 1.75241
threshold=95.500000000000014 89.500000000000014 2.9873076431626173 2.7575405255629524 2.3752403803557169 2.4970353830926344 2.2456290728370947 2.0339393098354965 1.9730214025550068 1.8945790055783707 1.8257878506628062 1.7876618773947821 1.677148862719571 1.5778789276987448 1.2251624504125582 1.1850448634670805
decision_type=2 2 2 2 2 2 2 2 2 2 2 2 2 2 2 2
left_child=1 2 3 4 6 -6 7 8 9 10 11 12 13 14 15 -1
right_child=-2 -3 -4 -5 5 -7 -8 -9 -10 -11 -12 -13 -14 -15 -16 -17
leaf_value=0.044913396530919594 -0.037328804450017669 0.064409805125367217 -0.054028817142961462 0.066625637522941525 0.0079812948801012262 -0.085916048650011845 0.045893420683928536 -0.0394824757271574 0.053870435696808265 -0.061753456232884835 0.073684659367261582 -0.072874410460337075 0.05150982946709607 -0.072694567593567627 0.046646487357715011 -0.076167236479417422
leaf_weight=2.3084615357220333 3.3226617947220793 3.3456706441938868 3.6318645402789107 4.5535141229629508 6.2451517395675165 4.3277087323367596 3.8285971246659747 4.8851092234253874 3.4919940307736388 3.4182673171162596 2.8302319645881644 3.0703568384051314 4.4535171240568152 2.7969504594802848 5.2576341219246387 2.4789117593318224
leaf_count=31 19 23 24 22 36 31 22 25 18 16 17 17 25 15 40 15
internal_value=0.000116582 0.00215877 -0.00145841 0.00208081 -0.00386955 -0.030453 0.0033706 -0.00128205 0.00491643 -0.00150669 0.00737152 -0.00184399 0.0107656 -0.00336428 0.0159402 -0.0177824
internal_weight=64.2466 60.9239 57.5783 53.9464 49.3929 10.5729 38.82 34.9914 30.1063 26.6143 23.1961 20.3658 17.2955 12.842 10.045 4.78737
internal_count=396 377 354 330 308 67 241 219 194 176 160 143 126 101 86 46
is_linear=0
shrinkage=0.1


Tree=38
num_leaves=16
num_cat=0
split_feature=2 3 4 1 4 1 2 3 3 0 3 2 3 0 1
split_gain=0.549267 1.25872 0.777105 1.74987 1.55236 1.1853 0.597968 0.58274 1.52059 2.05931 1.31759 1.11529 1.09795 0.781864 1.15948
threshold=3.0716741854499161 2.8458971664048875 50.776261720707801 72.500000000000014 50.45428397231111 50.500000000000007 1.989813936091376 1.629971144620652 1.8861980693685794 2.0509351959016811 2.3840865432386913 2.499221962648523 2.5611939580540199 1.2411412693107244 45.500000000000007
decision_type=2 2 2 2 2 2 2 2 2 2 2 2 2 2 2
left_child=1 2 4 6 7 -6 -4 13 -9 -10 -11 -12 -13 -1 -15
right_child=-2 -3 3 -5 5 -7 -8 8 9 10 11 12 -14 14 -16
leaf_value=0.021383462739915267 0.039640024501393673 -0.062823081327575914 -0.019665187825819559 0.090321982623997571 -0.010324223618476961 -0.099330086660879141 0.032395611362725195 0.055028786929434463 -0.065024030217739878 0.057673203899194531 -0.04359493228859667 0.059342593778371179 -0.012115304272086519 0.0089916096019190383 -0.07282045709130365
leaf_weight=3.460221875458954 3.3299585729837409 3.2286095172166815 5.2887500897049886 2.9845677018165579 3.1957633644342414 2.8133912067860365 3.7853642962872982 5.9449991732835796 4.1954077929258373 4.796451702713969 4.5574738904833785 3.6508193016052228 5.2313209623098373 3.1024437285959721 3.9226082488894463
leaf_count=36 18 21 32 21 20 20 22 36 20 34 21 17 32 20 26
internal_value=0.00010579 -0.00208256 0.00136217 0.0238995 -0.00469456 -0.0519954 0.00205253 0.00261952 0.0100632 -0.00185402 0.0126789 -0.00337902 0.017256 -0.0175254 -0.0366901
internal_weight=63.4882 60.1582 56.9296 12.0587 44.8709 6.00915 9.07411 38.8617 28.3765 22.4315 18.2361 13.4396 8.88214 10.4853 7.02505
internal_count=396 378 357 75 282 40 54 242 160 124 104 70 49 82 46
is_linear=0
shrinkage=0.1


Tree=39
num_leaves=16
num_cat=0
split_feature=4 1 1 4 2 4 4 1 1 0 3 1 2 4 3
split_gain=0.469338 0.794455 2.12508 1.18368 1.33196 1.89823 1.06499 0.971125 2.1713 1.94351 1.49328 1.3801 1.14924 0.971024 0.48312
threshold=51.8440691279256 51.500000000000007 46.500000000000007 50.711627103515461 1.3359855758785162 49.799608319444765 49.149248473695771 76.500000000000014 83.500000000000014 1.7893410674678789 2.4206657946066668 95.500000000000014 2.0310921777375106 50.034470937265517 2.0804080285047277
decision_type=2 2 2 2 2 2 2 2 2 2 2 2 2 2 2
left_child=1 2 3 4 -1 6 -6 9 -9 -3 -11 12 -10 -7 -5
right_child=-2 7 -4 14 5 13 -8 8 11 10 -12 -13 -14 -15 -16
leaf_value=-0.05588584568216487 0.037610340514185082 0.085293683691899366 -0.083740834414696513 -0.012512766890731483 0.020194033668961692 0.095758576651654825 -0.047393482741234998 -0.064500286747557756 -0.0021492556538120502 -0.031748648492220234 0.046921964368727573 -0.03675548261347629 0.078693915733080544 0.026365486699364532 -0.066784566476013635
leaf_weight=2.790347773581753 3.1683152616024008 4.2615755908191231 3.7346038222312918 3.2006271705031386 4.762238662689926 3.2104070112109167 4.5673109404742718 4.6377336140722027 3.189327768981455 5.2657440155744535 4.45328488945961 3.1889064982533455 3.9193223118782043 5.422328382730484 3.3644007369875908
leaf_count=22 18 38 19 19 32 17 28 30 24 30 26 18 22 32 21
internal_value=0.000100204 -0.00188158 -0.0129886 -0.003316 0.00839187 0.0183771 -0.0128937 0.010046 -0.00768467 0.0289875 0.00429844 0.0179035 0.0424233 0.0521719 -0.0403256
internal_weight=63.1365 59.9682 31.0523 27.3177 20.7526 17.9623 9.32955 28.9159 14.9353 13.9806 9.71903 10.2976 7.10865 8.63274 6.56503
internal_count=396 378 190 171 131 109 60 188 94 94 56 64 46 49 40
is_linear=0
shrinkage=0.1


Tree=40
num_leaves=18
num_cat=0
split_feature=2 3 2 3 0 2 0 3 0 0 1 3 3 0 1 0 3
split_gain=0.432308 1.06952 0.751451 1.01352 1.01386 2.26129 1.13508 0.727343 0.961523 1.40211 1.37906 0.941801 1.51753 0.823147 1.32239 1.4601 1.48033
threshold=3.0716741854499161 2.8458971664048875 2.7262297870218783 2.5343282005606054 2.5505341526897203 2.3982268068963615 2.2963535294439139 2.0861780059704125 1.9216942838837896 1.8699955716709915 49.500000000000007 1.8255451153314481 1.7493676038328669 1.5209651996173614 78.500000000000014 1.3432765023974431 1.2063445098392329
decision_type=2 2 2 2 2 2 2 2 2 2 2 2 2 2 2 2 2
left_child=1 2 3 4 5 6 7 8 9 11 -10 12 13 14 15 16 -1
right_child=-2 -3 -4 -5 -6 -7 -8 -9 10 -11 -12 -13 -14 -15 -16 -17 -18
leaf_value=0.0013502352435604756 0.034974915196244613 -0.058660339983276327 0.042315973409742989 -0.053737057100720492 0.050262518600080464 -0.076371552031372081 0.060542657494460375 -0.043547387910449972 0.072520767623364235 -0.068290162961196374 -0.0052723551009781532 0.05578413428621512 -0.062062318260449237 0.044228608162912797 -0.063398869475725109 -0.045408450080139266 0.11236541748739311
leaf_weight=2.8947212491184562 3.3631578013300887 3.1418505012989035 4.1366120278835288 3.5255068391561499 3.9633712768554679 3.7931957542896262 3.3031572401523581 3.5687877610325804 4.3372803553938848 3.1801908686757079 4.8013539165258408 2.9063434079289427 3.7756194397807112 4.5754040591418734 2.9470614902675152 2.5773462615907192 2.0530222523957491
leaf_count=33 18 21 21 27 19 21 24 20 25 17 27 15 21 33 21 17 16
internal_value=9.46798e-05 -0.00187751 0.00128909 -0.00196196 0.00178794 -0.00250881 0.00433806 -0.000597259 0.00390457 -0.00627403 0.031649 0.00280225 -0.00537828 0.00884445 -0.0066153 0.0156229 0.047415
internal_weight=62.844 59.4808 56.339 52.2024 48.6769 44.7135 40.9203 37.6171 34.0483 24.9097 9.13863 21.7295 18.8232 15.0476 10.4722 7.52509 4.94774
internal_count=396 378 357 336 309 290 269 245 225 173 52 156 141 120 87 66 49
is_linear=0
shrinkage=0.1


Tree=41
num_leaves=17
num_cat=0
split_feature=4 1 1 1 4 2 2 1 1 0 4 4 4 1 2 4
split_gain=0.415674 0.727277 1.40759 1.83055 1.64054 1.181 1.46045 0.833163 1.68356 1.3646 0.808149 0.792876 0.693639 0.497381 0.730359 0.186067
threshold=51.8440691279256 54.500000000000007 33.500000000000007 25.500000000000004 49.814846733160842 1.6914643240412015 1.9762292032138686 76.500000000000014 83.500000000000014 1.7893410674678789 48.935827166190656 49.712772737471248 50.408235928535539 94.500000000000014 2.11084764204936 50.503741769784043
decision_type=2 2 2 2 2 2 2 2 2 2 2 2 2 2 2 2
left_child=1 2 3 5 10 -1 -7 9 -9 -3 -4 -11 -8 14 -10 -6
right_child=-2 7 4 -5 15 6 12 8 13 11 -12 -13 -14 -15 -16 -17
leaf_value=0.039783075715865999 0.035648307032282105 0.078283955861233046 -0.036047679196628102 0.070879632121939526 -0.089577303751710635 -0.083459651304996774 -0.030435971231315619 -0.055980591357011604 0.0011970200326703196 -0.028134201567089113 0.029478513236795734 0.036279827831452539 0.026978163470327679 -0.011003273483494579 0.068972890912891174 -0.055261126437463143
leaf_weight=3.7539267577230957 3.1223252341151229 3.956367978826167 3.8949132002890092 3.5376972220838061 3.3522576540708542 3.1021679341793051 4.4391864053904992 4.5278155859559766 3.2403825335204584 3.608376756310463 3.6422771997749805 4.0621823817491531 4.0005743727087975 3.8723412901163101 3.1216719299554825 2.9887979701161385
leaf_count=30 18 36 24 21 22 19 25 30 24 19 21 25 24 23 17 18
internal_value=8.86181e-05 -0.00179001 -0.0117535 0.00605328 -0.0359184 -0.00894006 -0.0247869 0.0105607 -0.00520848 0.0305822 -0.00438276 0.00597824 -0.0032208 0.0172537 0.0344526 -0.0734027
internal_weight=62.2233 59.1009 32.7118 18.8336 13.8782 15.2959 11.5419 26.3891 14.7622 11.6269 7.53719 7.67056 8.43976 10.2344 6.36205 6.34106
internal_count=396 378 204 119 85 98 68 174 94 80 45 44 49 64 41 40
is_linear=0
shrinkage=0.1


Tree=42
num_leaves=13
num_cat=0
split_feature=1 1 1 4 4 1 1 2 0 3 2 0
split_gain=0.349025 1.58781 1.34083 1.0967 0.75628 0.726052 0.454933 1.47134 1.2476 0.885904 1.28715 0.869481
threshold=16.500000000000004 31.500000000000004 51.500000000000007 49.814846733160842 49.807503100485924 11.500000000000002 95.500000000000014 2.7262297870218783 2.386615418061758 1.7876063753549711 1.3359855758785162 2.0020858426774963
decision_type=2 2 2 2 2 2 2 2 2 2 2 2
left_child=5 4 3 -3 -2 -1 7 8 9 10 -4 -11
right_child=1 2 6 -5 -6 -7 -8 -9 -10 11 -12 -13
leaf_value=0.0045960063289709092 0.0040903545071345193 -0.0020194010630201916 0.028979780640030151 -0.061103682364169243 0.06403377707520759 -0.049563053401385254 -0.028497150267863425 0.062856749309717477 -0.044568659007666517 0.062274398766087535 -0.053027604935402484 0.0022322308471284047
leaf_weight=6.3121564220637065 3.3608498610556108 6.184667654335497 3.7950571402907505 6.3846990168094635 5.6314895153045654 4.0721687339246273 3.2398012578487387 4.567497991025447 4.8048111386597148 4.9754183292388898 3.8611907176673412 4.6809010915458202
leaf_count=39 25 37 39 39 34 24 19 27 31 26 28 28
internal_value=8.18725e-05 0.00345497 -0.00462344 -0.0320317 0.0416302 -0.0166422 0.00688894 0.0111852 0.000514359 0.0130264 -0.0123781 0.033169
internal_weight=61.8707 51.4864 42.494 12.5694 8.99234 10.3843 29.9247 26.6849 22.1174 17.3126 7.65625 9.65632
internal_count=396 333 274 76 59 63 198 179 152 121 67 54
is_linear=0
shrinkage=0.1


Tree=43
num_leaves=16
num_cat=0
split_feature=3 3 2 1 2 0 4 4 1 1 3 3 2 1 3
split_gain=0.399861 0.877096 0.958993 0.808049 0.701854 0.587446 0.599168 0.545027 0.575197 1.94744 0.901541 2.02237 1.31353 0.886919 0.521992
threshold=2.9873076431626173 2.7406943159023052 2.6299344017505457 91.500000000000014 1.1793416576045521 1.2825195803479479 51.525398275233265 50.888391602357821 38.500000000000007 29.500000000000004 1.9036982952912063 1.645602662290276 2.4534740912476285 62.500000000000007 1.7599640365175429
decision_type=2 2 2 2 2 2 2 2 2 2 2 2 2 2 2
left_child=1 2 3 4 -1 -6 7 8 9 14 11 -10 13 -12 -7
right_child=-2 -3 -4 -5 5 6 -8 -9 10 -11 12 -13 -14 -15 -16
leaf_value=0.055990683315465486 -0.027486189557287283 0.045459178025376468 -0.054386114404730582 0.048367238386228605 -0.0415532463663894 0.021447254918844 0.037819032942032989 -0.035688418422247112 -0.041279287504315115 0.08062528369279974 -0.084921472450454019 0.065417278341430171 0.025521454524832121 -0.019696129039151286 -0.027636601057385714
leaf_weight=2.0441568316891781 4.8509358614683142 4.3717787191271773 3.180001772940158 3.5307467356324187 3.7957220226526251 3.6754719428718108 3.7223592177033415 4.8023564219474784 3.2258982025086906 3.4846284054219714 3.728610120713709 3.9538256302475929 3.3516777157783499 4.7285714074969292 5.2778669893741608
leaf_count=33 30 24 21 24 25 25 22 27 21 20 23 23 19 26 33
internal_value=7.31051e-05 0.00242372 -0.00115979 0.00227194 -0.00128225 -0.00395844 -0.000386597 -0.00431206 0.000482631 0.0171986 -0.0104667 0.0174778 -0.0274568 -0.0484527 -0.00748699
internal_weight=61.7246 56.8737 52.5019 49.3219 45.7911 43.747 39.9513 36.2289 31.4266 12.438 18.9886 7.17972 11.8089 8.45718 8.95334
internal_count=396 366 342 321 297 264 239 217 190 78 112 44 68 49 58
is_linear=0
shrinkage=0.1


Tree=44
num_leaves=16
num_cat=0
split_feature=2 3 4 4 1 0 0 0 0 0 3 1 1 1 0
split_gain=0.339745 1.01383 0.59839 1.29624 1.02896 0.910529 0.580716 2.08723 1.16539 1.06323 1.37131 1.14714 0.84944 1.33504 0.534044
threshold=3.0716741854499161 2.8458971664048875 50.776261720707801 50.45428397231111 68.500000000000014 1.9376215608779637 1.9216942838837896 1.7893410674678789 1.5052332028755988 2.386615418061758 2.4970353830926344 44.500000000000007 78.500000000000014 38.500000000000007 1.885412853883992
decision_type=2 2 2 2 2 2 2 2 2 2 2 2 2 2 2
left_child=1 2 3 6 14 -5 7 8 12 11 -11 -8 13 -1 -4
right_child=-2 -3 4 5 -6 -7 9 -9 -10 10 -12 -13 -14 -15 -16
leaf_value=-0.046720053698321197 0.030845416016805939 -0.057724233319309662 -0.03016654119823935 -0.0068204797131120641 0.072198792272812104 -0.086087992355848533 0.08545885523063726 -0.081577016031448429 0.044052961245555231 0.031639232628629291 -0.03953622368841709 0.013638731988704618 -0.061302341789679193 0.05427658626573794 0.022148566506236117
leaf_weight=2.4706453643739241 3.3896610587835303 3.0624018013477317 2.9830605536699277 2.7907407488673917 2.9819258078932753 3.0143375806510448 3.3143557570874709 3.3603790476918212 5.114661928266286 4.8918558508157712 6.060551717877388 6.7598783522844315 2.8138345796614885 2.7832374889403582 5.6416085883975029
leaf_count=20 18 21 21 19 23 21 20 18 35 27 38 38 19 27 31
internal_value=7.21544e-05 -0.00172496 0.00139415 -0.00400246 0.0215616 -0.0479808 0.00279291 -0.0112238 0.00671027 0.0138206 -0.00774595 0.0372671 -0.0169637 0.00678278 0.00405406
internal_weight=61.4331 58.0435 54.9811 43.3745 11.6066 5.80508 37.5694 16.5428 13.1824 21.0266 10.9524 10.0742 8.06772 5.25388 8.62467
internal_count=396 378 357 282 75 40 242 119 101 123 65 58 66 47 52
is_linear=0
shrinkage=0.1


Tree=45
num_leaves=16
num_cat=0
split_feature=3 3 2 1 2 2 4 1 1 4 3 3 2 3 1
split_gain=0.334821 0.854844 0.695018 0.643889 0.640379 0.53993 0.53189 1.6067 1.12735 1.03714 1.24213 0.929791 1.40398 1.27495 0.31388
threshold=2.9873076431626173 2.7406943159023052 2.6299344017505457 91.500000000000014 1.1793416576045521 1.2411679795012047 49.432932109653628 66.500000000000014 41.500000000000007 49.921661068385355 1.677148862719571 2.0339393098354965 1.9112812236889025 1.5968798943135394 20.500000000000004
decision_type=2 2 2 2 2 2 2 2 2 2 2 2 2 2 2
left_child=1 2 3 4 -1 -6 7 8 -7 10 -8 12 13 -11 -13
right_child=-2 -3 -4 -5 5 6 9 -9 -10 11 -12 14 -14 -15 -16
leaf_value=0.05391130225039751 -0.02536029540999836 0.044712400406259213 -0.047214376975224348 0.043364697384120909 -0.045916267318700986 -0.036053752069246069 -0.013197354823038535 -0.079900651579326937 0.039118037246552023 0.046350507299955344 0.064838071448775833 -0.010611916678158778 0.065557661456731836 -0.033537447614130869 -0.051311490882874067
leaf_weight=1.9873692141845811 4.7746768966317168 4.3670617863535872 3.1069541573524466 3.4264019839465609 2.8876168690621844 3.7305948212742788 3.3011339381337184 3.1751692034304133 4.2882902771234512 2.8573794215917605 5.3384067043662071 3.3402593284845343 3.378474421799182 6.6398784480988979 4.3791106082499027
leaf_count=33 30 24 21 24 18 28 17 17 26 24 30 17 19 37 31
internal_value=6.28239e-05 0.00222258 -0.00135702 0.00156678 -0.00159448 -0.0041411 -0.00115731 -0.0196935 0.00414616 0.00594027 0.035021 -0.00625896 0.0101929 -0.00950207 -0.0337003
internal_weight=60.9788 56.2041 51.837 48.7301 45.3037 43.3163 40.4287 11.1941 8.01889 29.2346 8.63954 20.5951 12.8757 9.49726 7.71937
internal_count=396 366 342 321 297 264 246 71 54 175 47 128 80 61 48
is_linear=0
shrinkage=0.1


Tree=46
num_leaves=18
num_cat=0
split_feature=0 0 3 2 3 4 3 3 4 3 4 1 4 2 3 4 3
split_gain=0.335803 0.547655 3.16321 2.57281 2.13295 1.00126 1.44728 0.973021 0.733523 1.57867 1.39181 1.38227 0.517176 0.645884 0.635961 1.05408 2.02939
threshold=2.9792262855108596 2.3752403803557169 2.4298001462529006 2.5891436698640553 2.4164892971901346 49.339748536897979 2.7595438035629729 2.174604142175252 50.503741769784043 1.9574170572000846 50.33284064512322 36.500000000000007 50.050452599120327 1.9067908108562317 1.677148862719571 49.807503100485924 1.4859860041802775
decision_type=2 2 2 2 2 2 2 2 2 2 2 2 2 2 2 2 2
left_child=1 4 -3 -4 7 -5 -7 8 10 11 12 -10 13 14 15 16 -1
right_child=-2 2 3 5 -6 6 -8 -9 9 -11 -12 -13 -14 -15 -16 -17 -18
leaf_value=0.016431360177666474 0.025069066795521702 0.067836134482024746 -0.11202643157556308 0.035007604129275442 0.08673641556998056 0.0074486390230275789 -0.092197563000339336 -0.057930780262442153 0.044642237180721342 0.082219243530707323 -0.070565698186116424 -0.041811777322450172 0.042138228312554614 -0.035203978129730244 0.038484409303942271 0.043598751390584493 -0.10695840859404056
leaf_weight=3.2887632939964622 4.9333233386278144 3.3944922499358645 3.6242689900100222 2.9953146949410421 2.8979244083166114 3.3487030006945133 2.5810049921274185 2.9033193923532954 3.4762665145099145 3.2491964399814606 3.0485006980597964 3.9516118727624416 2.7612224612385026 4.9031192585825911 4.3514915108680716 2.6025351285934448 2.2413446083664894
leaf_count=35 27 23 23 17 14 23 19 18 23 19 20 29 20 28 28 15 15
internal_value=6.45378e-05 -0.00215332 -0.0178066 -0.0409724 0.00413706 -0.0121188 -0.035924 -0.00237147 0.00239048 0.0240806 -0.00759305 -0.00135107 0.00193483 -0.00444977 0.00762889 -0.00888082 -0.0335783
internal_weight=60.5524 55.6191 15.9438 12.5493 39.6753 8.92502 5.92971 36.7774 33.8741 10.6771 23.197 7.42788 20.1485 17.3873 12.4841 8.13264 5.53011
internal_count=396 369 105 82 264 59 42 250 232 71 161 52 141 121 93 65 50
is_linear=0
shrinkage=0.1


Tree=47
num_leaves=18
num_cat=0
split_feature=1 1 1 3 0 3 0 3 1 2 4 2 3 0 0 4 1
split_gain=0.3327 0.812831 0.771168 1.0046 1.12725 0.744236 1.20279 1.5831 0.735748 0.666133 1.17706 0.497667 1.44851 2.32047 2.60841 1.05727 0.932318
threshold=80.500000000000014 72.500000000000014 67.500000000000014 2.9489755962915125 2.7107427192724578 2.4774785962549175 2.4102140361832745 2.174604142175252 95.500000000000014 2.4406649486909973 49.971492471464636 1.9265540713199241 1.8751630850639076 1.8490300536040702 1.7028302296839759 49.597708444184519 36.500000000000007
decision_type=2 2 2 2 2 2 2 2 2 2 2 2 2 2 2 2 2
left_child=1 2 3 4 5 6 7 11 9 10 -2 12 13 14 15 -1 -17
right_child=8 -3 -4 -5 -6 -7 -8 -9 -10 -11 -12 -13 -14 -15 -16 16 -18
leaf_value=0.073611561698810155 -0.038782894163395372 -0.049896667476439185 0.044927236505035502 -0.061180095808055661 0.056777987273849841 -0.047120121465169321 0.056367299893611666 -0.067561454580854455 -0.02751801370636003 0.062126786155575799 0.051390675415304378 0.028432102972736809 -0.070783327705078045 0.093792360115265261 -0.082904842072674081 0.044007229908852308 -0.033627357689592442
leaf_weight=2.4775288673117881 2.8229049965739232 3.5367996990680686 3.5056666731834403 2.8524521291255942 3.2384058833122245 3.7288219258189192 3.3906802088022223 3.7044830657541743 3.1238497346639624 3.6222028583288193 2.9711884465068579 5.7180885300040236 2.8535876721143714 2.5538440048694602 3.5826756209135047 2.5450453050434589 3.9440408255904913
leaf_count=29 18 25 21 20 16 25 22 22 19 21 24 33 14 17 22 18 30
internal_value=4.41371e-05 -0.00377117 -7.15334e-05 -0.00395801 0.000367253 -0.00492803 0.000184968 -0.00677271 0.0145361 0.0284875 0.00745776 0.00273912 -0.00544248 0.00690303 -0.0107794 0.0180389 -0.00317876
internal_weight=60.1723 47.6321 44.0953 40.5897 37.7372 34.4988 30.77 27.3793 12.5401 9.4163 5.79409 23.6748 17.9567 15.1031 12.5493 8.96661 6.48909
internal_count=396 314 289 268 248 232 207 185 82 63 42 163 130 116 99 77 48
is_linear=0
shrinkage=0.1


Tree=48
num_leaves=15
num_cat=0
split_feature=1 1 1 3 0 4 1 4 4 4 3 4 3 2
split_gain=0.339713 1.25746 1.03043 0.808184 1.91843 0.625155 0.59025 0.430079 1.14141 0.759122 1.73873 1.02868 0.888387 0.219293
threshold=16.500000000000004 31.500000000000004 51.500000000000007 2.3840865432386913 1.823337404175627 50.400831169350049 11.500000000000002 50.45428397231111 50.851977506316466 49.870271873318856 1.6998703635290553 49.483058390535 2.0063285568475737 2.4406649486909973
decision_type=2 2 2 2 2 2 2 2 2 2 2 2 2 2
left_child=6 5 3 4 -3 -2 -1 9 -9 10 -4 13 -11 -12
right_child=1 2 7 -5 -6 -7 -8 8 -10 12 11 -13 -14 -15
leaf_value=0.0029243941435555375 0.015637894504670621 -0.063146179586564405 -0.066104188847183998 -0.066230574636074679 0.032947006198608651 0.070289162439668013 -0.046774489025561659 -0.068281698561698509 0.014390993024629442 0.073192053679170657 0.019640738012116743 -0.027389475648415471 0.0024009519120739109 0.053260202561702955
leaf_weight=6.0235334224998933 5.0984592884778959 3.8149505890905839 3.0912156803533497 3.8372125253081313 4.5620595179498196 3.5508092828094959 3.9612202271819115 2.5645583719015113 4.7876842170953751 3.8105297926813355 3.4732804819941503 3.4020421877503395 3.3149035535752773 4.3955632038414478
leaf_count=39 35 23 27 26 27 24 24 21 35 29 20 22 20 24
internal_value=3.95397e-05 0.00342088 -0.00387986 -0.028224 -0.0108145 0.038074 -0.0167925 0.00643037 -0.0144463 0.0135736 0.000334486 0.0185563 0.0402585 0.0384207
internal_weight=59.688 49.7033 41.054 12.2142 8.37701 8.64927 9.98475 28.8398 7.35224 21.4875 14.3621 11.2709 7.12543 7.86884
internal_count=396 333 274 76 50 59 63 198 56 142 93 66 49 44
is_linear=0
shrinkage=0.1


Tree=49
num_leaves=18
num_cat=0
split_feature=2 3 2 0 3 3 0 3 4 3 4 0 0 0 4 4 0
split_gain=0.308304 0.828219 0.512724 0.69896 3.50711 1.77238 1.39697 0.644243 0.572695 1.29767 1.1322 1.12634 0.443531 1.40742 0.732628 0.98718 0.308958
threshold=3.0716741854499161 2.8458971664048875 2.7262297870218783 2.3752403803557169 2.4970353830926344 2.4164892971901346 2.5374237374354842 2.174604142175252 50.503741769784043 1.9574170572000846 50.33284064512322 1.7076297162542919 1.9216942838837896 1.7893410674678789 49.541025986720534 49.834594198194878 1.5385548082795562
decision_type=2 2 2 2 2 2 2 2 2 2 2 2 2 2 2 2 2
left_child=1 2 3 5 6 7 -5 8 10 11 12 -10 13 14 16 -16 -1
right_child=-2 -3 -4 4 -6 -7 -8 -9 9 -11 -12 -13 -14 -15 15 -17 -18
leaf_value=0.014801834815004414 0.02951161624015405 -0.053961158288351178 0.035854578712510875 -0.025239344719691404 -0.10686866119357641 0.079782132296171412 0.066234013003857922 -0.047255791279104821 0.045680623374318358 0.075358449747408907 -0.063994333138474149 -0.033792870011169276 0.027487277273265893 -0.067637170376728825 -0.055328070843951832 0.019082973795711687 0.068646004350137818
leaf_weight=2.1098740398883873 3.3491075262427321 2.8791584298014632 3.9321986138820639 3.6065166033804399 3.4563018009066582 2.8890138491988173 3.1086013615131378 2.8485103771090499 3.0143623314797861 3.1466747522354126 2.9877834357321253 4.3666013181209564 5.0905752032995215 3.0195502415299407 2.9219454526901245 4.5734460297971964 2.1532471887767315
leaf_count=28 18 21 21 26 30 14 16 18 27 19 20 25 31 17 18 31 16
internal_value=3.78885e-05 -0.00172152 0.00110432 -0.00166777 -0.0250212 0.00440401 0.017106 -0.00160629 0.00228878 0.0215876 -0.00660024 -0.00133615 0.00203051 -0.00673855 0.00890003 -0.00992485 0.0419978
internal_weight=59.4535 56.1044 53.2252 49.293 10.1714 39.1216 6.71512 36.2326 33.3841 10.5276 22.8564 7.38096 19.8686 14.7781 11.7585 7.49539 4.26312
internal_count=396 378 357 336 72 264 42 250 232 71 161 52 141 110 93 49 44
is_linear=0
shrinkage=0.1


end of trees

feature_importances:
Column_3=175
Column_4=170
Column_0=140
Column_1=132
Column_2=117

parameters:
[boosting: gbdt]
[objective: binary]
[metric: binary_logloss]
[tree_learner: serial]
[device_type: cpu]
[data_sample_strategy: bagging]
[data: ]
[valid: ]
[num_iterations: 50]
[learning_rate: 0.1]
[num_leaves: 31]
[num_threads: 0]
[seed: 0]
[deterministic: 0]
[force_col_wise: 0]
[force_row_wise: 0]
[histogram_pool_size: -1]
[max_depth: -1]
[min_data_in_leaf: 20]
[min_sum_hessian_in_leaf: 0.001]
[bagging_fraction: 1]
[pos_bagging_fraction: 1]
[neg_bagging_fraction: 1]
[bagging_freq: 0]
[bagging_seed: 3]
[bagging_by_query: 0]
[feature_fraction: 1]
[feature_fraction_bynode: 1]
[feature_fraction_seed: 2]
[extra_trees: 0]
[extra_seed: 6]
[early_stopping_round: 0]
[early_stopping_min_delta: 0]
[first_metric_only: 0]
[max_delta_step: 0]
[lambda_l1: 0]
[lambda_l2: 0]
[linear_lambda: 0]
[min_gain_to_split: 0]
[drop_rate: 0.1]
[max_drop: 50]
[skip_drop: 0.5]
[xgboost_dart_mode: 0]
[uniform_drop: 0]
[drop_seed: 4]
[top_rate: 0.2]
[other_rate: 0.1]
[min_data_per_group: 100]
[max_cat_threshold: 32]
[cat_l2: 10]
[cat_smooth: 10]
[max_cat_to_onehot: 4]
[top_k: 20]
[monotone_constraints: ]
[monotone_constraints_method: basic]
[monotone_penalty: 0]
[feature_contri: ]
[forcedsplits_filename: ]
[refit_decay_rate: 0.9]
[cegb_tradeoff: 1]
[cegb_penalty_split: 0]
[cegb_penalty_feature_lazy: ]
[cegb_penalty_feature_coupled: ]
[path_smooth: 0]
[interaction_constraints: ]
[verbosity: -1]
[saved_feature_importance_type: 0]
[use_quantized_grad: 0]
[num_grad_quant_bins: 4]
[quant_train_renew_leaf: 0]
[stochastic_rounding: 1]
[linear_tree: 0]
[max_bin: 255]
[max_bin_by_feature: ]
[min_data_in_bin: 3]
[bin_construct_sample_cnt: 200000]
[data_random_seed: 1]
[is_enable_sparse: 1]
[enable_bundle: 1]
[use_missing: 1]
[zero_as_missing: 0]
[feature_pre_filter: 1]
[pre_partition: 0]
[two_round: 0]
[header: 0]
[label_column: ]
[weight_column: ]
[group_column: ]
[ignore_column: ]
[categorical_feature: ]
[forcedbins_filename: ]
[precise_float_parser: 0]
[parser_config_file: ]
[objective_seed: 5]
[num_class: 1]
[is_unbalance: 0]
[scale_pos_weight: 1]
[sigmoid: 1]
[boost_from_average: 1]
[reg_sqrt: 0]
[alpha: 0.9]
[fair_c: 1]
[poisson_max_delta_step: 0.7]
[tweedie_variance_power: 1.5]
[lambdarank_truncation_level: 30]
[lambdarank_norm: 1]
[label_gain: ]
[lambdarank_position_bias_regularization: 0]
[eval_at: ]
[multi_error_top_k: 1]
[auc_mu_weights: ]
[num_machines: 1]
[local_listen_port: 12400]
[time_out: 120]
[machine_list_filename: ]
[machines: ]
[gpu_platform_id: -1]
[gpu_device_id: -1]
[gpu_use_dp: 0]
[num_gpu: 1]

end of parameters

pandas_categorical:null
